{"sprite_height": 100, "index_in_population": 6, "neural_net": {"hidden_layers": [{"bias": [[0.7908155773627753, 0.9449982463101253, 0.2975298586242633, 0.8749896874912322, 0.5502915056780265, 0.8220059218383118, 0.17981733585903015, 0.7664894740657069, 0.36916272079468826, 0.29466425093489257, 0.5114503626250817, 0.35553710448221565, 0.022858071302017335, 0.4086243828008239, 0.5471640019725377, 0.6375766881919225, 0.12807025690975482, 0.9921009310067644, 0.3945958649881709, 0.3413067460711181]], "weights": [[-1.4652450917261493, 1.2446091205521452, -0.5509632665603585, 0.21825546430495235, 1.8610667951265305, -0.2107056435815653, -0.431919525185815, 1.0006102224287008, -0.36212859596964986, -1.2295566012186936, -1.7766867931196226, 0.5442711030831657, -1.1829807047244776, 1.9069837273648744, 0.4168314108136957, -1.415747685090389, -1.2180203461892636, 1.747818073300503, -1.464848721858873, -0.3135719125560561], [0.604465119587895, -1.3485424758604756, 0.647855752552692, 0.7039182005545652, -1.1907498793311495, -0.5581083582881763, 0.34299689653801524, -0.20417539110072624, -1.106050489165392, -1.0575256281380399, -1.3999556539363232, -0.032444830868825214, -1.798896824277799, 0.8306949287681773, 0.6371684396398485, 1.5362468670495018, 0.6875241543585595, 0.9045765849986585, 0.8973435922224717, -1.3107127357300503], [1.0466472582672992, -1.5643681114523904, -0.9154597279649042, -1.7265596988214762, -0.4949128005608867, 1.8040219243419289, -0.2023882727965498, 0.10098880345142014, -0.4027585795030033, -0.7272813685977315, -1.603004385608632, -1.3896103552375005, 1.5388423960759234, -1.1039691165651426, -1.5979380189306212, 1.4108728981728706, -0.7372197420707143, 0.3784418352391463, -1.9665703186889458, -0.87373437057063], [0.6843660932517359, 0.8122779742868498, -1.7920845686233449, 1.3738594390344163, 0.6409619419436319, -0.9354503913121417, -0.7622332304301156, -0.8063870180186385, 1.4260266153911219, 0.43152626685015383, 0.22837679234121522, 1.249454664522077, -1.1786397028200746, 1.203162043281175, -0.6180606073913282, 1.9460956480239417, 1.9402623155834906, 0.43069751044152227, 0.35244679450743677, -1.8695866934101755], [0.2563318242309873, -1.7561068312764427, -1.1761682736881518, -0.09468044636790962, 0.9972690798453256, 0.9830739173149583, -0.039859224678697736, -1.5392594915242803, 1.4056686971935761, 0.10587942717922605, -1.229572647798784, 0.41035683739326423, -0.5383197837619402, -1.9120486604593792, 0.4256723584816209, -1.6328360577766619, 1.1603568143946128, 1.2462883938757834, -1.2141367302853707, 1.8099527814720275], [-1.910217124351457, 1.3407669666430166, -0.7774243551087343, 0.16904210975050304, -0.7168513058982224, -1.4090784929036433, 1.4983339566980787, -1.1196999501962357, -1.0742961104882194, 1.2457510884842402, -1.4740365178581527, 1.8737501244511194, 1.8653051626155142, 0.12893002440293788, -1.426305266550841, 1.7230115796467436, -1.2756687171800443, 0.815106821590625, -1.8383175273293269, 1.5603177382082083], [1.2368927968057846, 1.4523936789416, 0.5078581812019731, -0.303828454889318, 0.8010990141445036, -1.4336062702448884, 0.7801301897139656, -1.6882632036612697, 1.5188719372462334, 1.5713188255752701, -0.8443816504046775, -1.7262382285236577, -1.9624389249438883, -0.6714785559699039, -1.021946843452315, -0.7075388939907037, 0.709304875470532, -1.255839258153621, 1.8928868835843438, 1.459857403616153], [-0.5271378826867501, 1.2660128618263586, -1.4433633955996497, 0.22346054221242628, 0.6121260109821649, 0.3523456116471744, 0.8126606050467067, -1.975196641424895, -1.555258583181713, -1.557721375719912, 0.2366600803483716, -0.13213687507187322, 1.5333206329663027, 0.5212605273543605, -0.9175476183002083, 1.3011716886825564, -1.5148867831996458, -0.2893645659130839, 1.0924980204190953, 1.8149202819358647], [0.4576784588307401, 0.7033169856179726, 0.7959189863935268, -0.662686463260926, -0.2059575343039457, -0.02260689315998654, 0.7459930580452618, 1.9001746155988122, -0.2047920521084774, -1.6795978551924167, -1.1837638276573186, -1.3299140794230921, -0.254008840526597, -1.9200901450783827, -0.32264035873503083, -0.22302493051201022, -0.42040569992572197, 0.2176732568939772, -0.37459701806725487, -1.3086548765172914], [0.47962483626139063, -0.12864366458286414, -1.6000278300725705, 0.037004210030922025, -1.7521563721458033, 1.2070209144989215, -0.6955916170780716, 0.9100174736785887, -1.7941675488816444, 0.22497652877569685, 1.9958090084811908, 0.6129470511827613, 0.21672727671188463, -1.8669860123990554, 1.1290663371684166, -1.5765700106976732, -1.6810101008299374, 0.21250431759491617, 1.8955095686918484, -0.22508414742611427], [-0.12770501977233017, -1.0537550484906868, -0.20431205907085825, -1.8587296144679097, 0.821084714175675, -0.43814815554813435, -1.7295643679776878, 0.7321140687305676, 0.8344998318718133, 1.6403498178577638, 0.5361188974896698, -1.2138584952017157, 1.6952976627294847, -0.8089306961360045, -0.9208817770104889, 1.5729184928323101, -1.5946287362584481, -0.22226879865822813, 1.6512159900064334, -0.651647195595134], [-1.33003695891502, -0.3886357307369148, 0.9234651187324006, 1.5221401503892786, -1.6200280067959838, -1.0446415760647363, 1.3114569546877974, -1.5576525753142447, -1.4538769182285107, -1.274900147525298, -1.975392952092971, 1.987292855374815, -1.5877209519367108, 0.5041710610587335, 0.15947386175730882, -1.826149480169461, -0.9049588762900771, 0.01676947585954025, 0.9820436305912312, 0.6792268988734875], [1.7076328616306484, -1.8932217558015876, 0.3810824745974144, 1.5646988232011734, 1.8159440144836108, -1.487314574592181, -1.1740336481025966, 1.1877470132714523, -1.7128357034507404, -1.8595023578720875, 1.0069341850959086, 0.015676500095815893, 0.6437082975232191, 0.13236877383223788, -1.4766840633301461, -1.3652357532632173, 0.5974698322226697, -0.29724707038516174, 0.600236915034094, -1.2553444835395893], [0.15841841695281156, 0.4432525801255327, -1.1114242451044647, -0.10112695721309395, 1.389471935893714, 0.982248740585546, 1.7551607867126706, -1.041452445205314, -0.2773415833242239, 1.5693894535007797, 0.1705343396455805, -1.3721801082244345, -1.6247820771314916, 1.6732688281911647, 0.7056997589911096, 1.1161770785998937, 1.569118281383758, 0.9479147892307505, 0.21726955558889438, 0.5314553054540117], [1.4043938132831477, 0.1060759442699113, -0.23723787296801024, 0.4144831432535838, -0.7806140511679187, -1.2336302074318555, -0.5228631954190255, 1.547026142400977, -1.1859519300802086, -0.03598461446981149, 1.7724211017904872, -0.18549308713189472, -1.1893742016795033, 0.47760884936516756, -0.15565931565312496, 1.9793524284064516, -1.4338560550473587, 0.6118341732391062, -1.3746679739632452, 0.9824496591226373], [0.004495615463298019, -0.5261367412619027, 0.830735001326635, 1.5716731770521144, -0.12425705080185079, 1.6956083028747098, -1.12888931491575, -1.6569568792433391, 1.8749728397948173, 0.3181818002128147, 0.6239075295378473, 1.7043489053729002, -1.4292440177114805, 0.005661708610845473, 0.1755092686740971, 0.8828585730337593, 1.461901680113776, 1.9774939319092772, 0.7586135491824897, 1.5432689185225201], [1.6510452535445554, -0.5646802728824434, -1.4698067852682986, 1.2475993587232144, -1.2352042650848776, -0.23656840326930118, -0.6817264855519292, -1.2273861281761524, 0.5744104782298147, -0.1321050036662954, 1.5817686220710652, 0.17451186658540996, -0.5602353420218491, -0.6242983582891517, -0.752740306314748, -0.30851195323213965, 1.70869568357571, -1.7018730338574062, 0.5010123359474448, 0.43360533863858564]]}, {"bias": [[0.6165140347185716, 0.34227384114944603, 0.8433204536704664, 0.9580811336545393, 0.7932813963457452, 0.8629724827675378, 0.9323664264733568, 0.9644521995511112, 0.24378345426884596, 0.14188595158846873, 0.6936998367352307, 0.16169525518745098, 0.06490185750645738, 0.7924672030632076, 0.23182018291997397, 0.9187158952209661, 0.1626000478478853, 0.18614831387039943, 0.5107181543002264, 0.0667844453127413]], "weights": [[-1.5668323060303502, 1.8646453373471759, -1.2230301746352517, 1.1880851768485003, -0.5838929049591757, -0.6302167312579203, -1.680909696940145, -1.6714912296045226, 1.5232709114879355, -0.5413708166833437, 0.45793180753176355, -0.5944607351808737, -0.85083285677652, 0.32616281529646063, -0.5690271629097952, 0.2562835976036304, -1.0075784642451544, -0.5603799232992666, -1.248631229204356, 0.8266238936679899], [0.3090343358858294, 0.7404133704235671, 1.7242510776113384, 1.6616646907064716, 1.9065993717320113, 0.712849338618017, -0.34282686743430446, -0.9502839992562753, -0.28227122675654615, -1.0134136506943996, -0.8935342886882802, -1.144346903646138, -0.6430898239354224, -1.3513284917590802, 1.8479255024916945, -0.6129107125272295, 0.7839518484014536, 1.0745700637961355, -1.7764186460714781, -0.21936844358834628], [-0.22217946234453478, 0.8710488655060793, -1.1971821779004213, -1.2799605310166782, -0.38292604193109225, 1.8621149865620445, 1.2626477740290638, -0.04373992044315145, -0.5679363533601922, -0.2853087758630015, -1.4874317805849144, -1.151936339244791, 0.07717644814125446, -1.8705979031296245, -0.4962880510694929, 0.9655817456595992, 0.7613773634421062, 0.3593368456225998, -1.6681333343633145, 0.49114901391691257], [-1.38524051101018, 0.3226328897921187, -0.5826389418198503, 1.213463793107263, -0.8630787539774936, 1.1308437004107477, -0.8393142961261222, 0.5110634763308508, -1.678538023549943, -0.31438116573880803, -0.9523765929969628, -1.0433341859992669, -0.8367432021471726, -0.11237586474027639, -1.3194953402514336, -0.2452889483783922, -1.5222066706654318, -1.3322352372165858, -0.6373637998519306, 1.63258796158838], [-0.857355145646121, -1.1265250510583238, 0.22590108560685573, 1.8279048750754834, 1.2175085705272921, 1.2518036856005375, -0.00016851086563907103, -1.5869499905730295, 0.15610102179880547, 0.38101871961116807, 1.8418015739123499, -0.18448193120495793, 1.766952761352004, -1.7235046035637933, 1.2866464179987513, 1.9530161549522824, -1.9918998981521736, -0.9998293511736476, 0.19893864112325677, 1.6233035195525987], [0.3476151389520905, 1.4442998694345461, 0.6055000660700913, 1.423032121734833, -0.9012255323227452, -1.715250729397158, -1.6095694950494823, 1.7279365229353223, 1.6627247348754537, 1.2502592964215244, 1.270453108658986, 1.6856953635150504, -0.44709055270566056, -0.8826258285562809, -0.46728903008348555, -1.1203439575249354, -1.4834756398769664, -1.1897250965226975, 0.8271141780479558, -0.953415076374291], [-0.4644302473789943, 1.690690197643832, 1.1233835062173552, 1.393091081070359, 1.6347303176222843, 0.7834627080497603, -0.24521099126896306, -0.49677960086739903, -0.49642427167657255, -0.13103616413610775, 0.5613467315188507, -0.5637983745327082, 1.8717156392448024, 1.6441906384048934, -0.4168343966584329, -0.8096873834594627, 1.1064236735815483, -1.3696865487723948, 0.5946812960214296, 0.2508352719587372], [0.8958611390564402, 1.2986891261767073, -0.5028233176940424, -0.6800616049078685, -1.3864703324734893, -0.5412755903014341, -1.8996381204421642, 1.2658977370703037, -1.1704837760338846, -0.24203284191972996, -1.7621081788816881, 1.414020668043365, -1.428399055921056, -0.42227663609897936, 1.2073476047066207, -1.24760363746087, 0.7421935904268104, 1.611062781592449, -0.3456214832290061, -0.8490585715613252], [0.5057050297529808, -1.4680875427773774, -1.9112311812985112, 1.993829883797436, 1.0774107657189687, 1.8621631450712934, -0.15415745730109487, 0.0421497070797523, 0.9859532913757363, 0.3189398718818608, 1.2031476855103378, -0.25818336391601493, -1.6133957243852914, 0.4852620358281694, 0.8963138710285383, 0.47599813055116424, 1.4483495222416423, 0.8736040785591404, -0.22624054117033765, -1.3669047553974618], [-0.24096889945878042, 0.3253819496621664, -1.3380685672261659, 0.16697807383991403, -0.20965780490807928, -0.9324815271452169, 1.167830279751485, 0.811961065270197, 0.4556319765057584, -0.03003653748694335, 1.633450035063364, 0.33506460758257894, -1.6744379813942398, -1.679468963410538, -0.04305639193513411, 0.6757702197906248, -1.779513107144953, -0.8951558049260719, -0.5881659794239997, 0.38991231774276347], [0.9112186031483938, -1.0323131549014746, -1.2982015746489068, 0.41686327199965323, 1.7517860529542393, -1.7718843361475578, -1.1460591360468153, 1.2316208138143243, -1.2735835034149274, -1.9649265955240898, -1.3560101092674604, 1.5582848703240235, 1.8349385780191012, 0.8795766796082325, 1.3734360708712696, -1.4755350168417571, -1.4198248203154558, 0.4146655842935627, 1.712819557580215, -0.9075850301404675], [0.28916048908318226, -0.8960279306824992, -1.5018302605293394, -0.652735967431016, -0.2248642552382174, 1.025289067968131, 1.6544658205763572, 1.0255343516688002, 1.1691581638058288, 1.6269952296798151, 0.2927867157744424, 1.9799875732007237, -0.16681336338462982, 1.426844792232428, -1.6319676136012387, -1.2459752903666996, 0.7931144980922107, 0.8997343415518708, -1.555048735091423, -1.8666458270085635], [-0.46402496482287425, -0.5204709990443783, 1.3324709543405096, -1.657456428078535, -0.8250171181701358, 1.1845209892404034, 0.9788941404656732, 1.3420648247217044, -0.18224876857967187, -0.9719107925043788, 1.685386909051224, -0.46807893988633564, 1.7030335703202488, -1.1369850691842567, 0.835557490563374, -0.030196758264306567, -1.71346575587323, 0.20411194509652963, -0.7500621208493268, -0.00046726755138193354], [-0.919117346758362, 1.5524537345604994, -0.7912607433029311, -0.5424867668218805, 0.08249714381103956, 0.8037118117584541, 1.2751990332420173, -1.0852109437517332, 1.101940424693296, -0.2629998477454589, 0.49532442157073886, 0.41556588242443393, -0.996278447779587, -0.4485234450283442, -1.9383780220806446, -0.4723704037918597, -1.7765454547539994, 1.0332671740629924, -0.07138136466406486, 0.7319690184678085], [-1.762341444449894, -1.606422220363311, -0.6556137145410497, -1.9373057013864816, -1.0977786921928931, -1.8636151880263703, 0.947067482331517, -0.5203211885638068, 0.3438870783694159, 0.7219243788865208, 1.766013752794668, 0.5047435471600243, -0.19940212900947296, 0.7934939405303685, -0.9743529686648524, 1.2751948491282028, -1.6177878583928424, 0.32769419684155254, -0.6973952102813525, -1.085278104357879], [-1.3310281669782977, 1.165610300776514, -1.1273203102664486, 1.278113930148681, -1.2361013018272242, 1.0557581792276398, -0.47052365912901273, -1.6854384919496845, 1.300353735711647, -1.9827405990373053, 1.831184052173219, 1.7702872184758767, -1.4516923647381454, 1.7783123937974277, 0.43076354247849835, -0.09355186671128335, -0.8268372754999778, -1.502655583701395, 0.2791992489340247, 0.9714253272167999], [-0.23112104577707404, -0.7750774213362903, -1.0575437022852037, 0.43590760478529456, -0.8473296161798802, -1.4784657911116557, 1.3524399511907799, 1.960167082119606, -0.016787033120727823, 0.006463342312988729, -0.6326875507305356, -0.012769756151088885, -1.3259429767213575, -0.12338508356859679, -1.210424857342725, 0.14408060484930774, -0.716083767552659, -0.586327026354307, 1.8537614714091841, -0.31412952784150283], [0.271882450769958, -0.9554778092453944, 0.25888604023792805, 1.9311202873919315, 1.164112471273032, -0.9612735560722907, 0.10746612742365524, -1.3123567019680333, -0.5016612574792125, -1.1253434539177292, -0.13478380310389415, 1.5567144100030648, 1.730130002205212, -1.3547643603719952, 0.6896054438022254, 1.4046154981765957, 0.7694765912269683, -0.49774887805801793, 0.6916737065240794, 1.1635699900754437], [-0.07822642416760672, 0.6339881256211757, 1.1159179084774347, 0.12670424177600248, 0.256524869037869, -1.9432913837010228, -0.35022565555788443, 0.410039910022145, 0.9198165844964046, -1.0515368305924508, -0.027483417105055974, -0.24823571829639368, -1.6416190836871327, -0.7056418914218483, 0.5673994128707571, 1.1672964626895919, 1.8844126118664941, 1.9690051832599327, -1.4182844069992409, 1.0043259554833366], [-0.17129089579339762, 1.9009844971844738, 1.7980922367865277, 0.00771128420996936, -0.6876611694107422, -0.5372525676685447, -1.3961777601382943, 0.4953553678965643, -0.9031130413804003, 1.333829059088278, -0.010054975829349555, -1.1361272136443743, -0.08149316307154075, -0.40393782953583734, 1.1446756847121362, 1.8599721737698047, 0.5938269801261429, 0.7969854402142098, -1.6172723753877207, 0.7406716215488336]]}, {"bias": [[0.6168639978174848, 0.07589259839911522, 0.873402416504228, 0.33636164902370247, 0.8191968541918941, 0.09679018479155688, 0.5243746131096068, 0.6757292494850058, 0.6974778311775942, 0.7811021924848903, 0.857833064071689, 0.07449191391275523, 0.1986209656799236, 0.01590108932055223, 0.6802390317561279, 0.7440974154319808, 0.8910745915788371, 0.04891640708907952, 0.053675362632022994, 0.043007699184140935]], "weights": [[-1.0097621398079273, 0.7874291989408446, -0.8757269542662174, 0.7975751366233204, 0.36218241003974017, 1.434359658613607, 0.46280680439755484, -1.7766178609222383, 0.0593568302830656, -1.7742251748577327, -1.2754658878513547, 0.7295355564179844, 0.8009339686358059, 1.5932649885623618, 0.5016662877629923, 0.38718861779843605, -0.6777868072717519, 0.4185739330217353, 1.5808151906344485, -0.711528572043012], [-1.76363940393307, 1.056108704188972, 0.815236377397623, 1.2064011084201356, -1.2837321760109441, -0.7742016270283583, 1.7541263654579549, -0.9134040643728301, 0.0023892685781885525, -1.4474259193746142, -0.5157191521980349, 1.5233417502315074, -0.7632202423002781, -0.4914005510777262, -1.9381037975908528, -0.6888435954518344, 0.7427333868341752, 1.3647101079224995, -0.863638894049056, 0.47511792160783983], [-1.3440254114954029, 0.6354294930385032, -0.7039717458178338, 1.889030016328709, -0.9731584914763318, 0.23464083432540628, -0.35718224167092183, -1.804320283590871, -0.9341823293101981, 1.3860629417587442, -0.42794594305692923, 0.603050197332804, 1.3681636361054315, -0.5121949357582039, 0.08741411033296886, -0.4624853062225145, 1.2162523336027067, 1.7262101046137999, -0.3356405708085215, 0.9372492005235649], [-1.543278387300008, -0.28808343316615037, -0.4621823935531748, 0.7678875535884897, -1.0193060342248552, -1.0760060982856365, 1.152349830320483, -1.6422023189398183, 0.6573197348240125, 1.7027127765011323, -1.4871565295483662, -1.244739127098181, 0.8826448421805195, -1.6388856302471977, -0.8737779604554432, -0.8053808483740608, 1.1154611411145994, 1.9292357040676897, -1.6482787437624022, 0.41441355901557175], [0.18121033084445104, -0.09785934820436504, -0.8740270065655316, -0.19889861998261793, 0.5165577067563549, 1.0482328495864475, 0.3159033060185221, -0.778740852664972, 1.7290034221685096, 1.438125258849856, -0.6118029034873493, 1.6533303385410565, -0.38600510890173734, 1.3543513740991382, -0.8365963036367807, 1.8199158514766598, 1.4843124101740468, -0.36871580655804914, -0.6373916330872915, 1.2258252820682634], [0.8769936403374028, 0.4654309966025343, -1.686847889967301, 0.326579646588125, 0.7850761101608654, -0.7222011295947643, 0.058973921474313684, 0.5943173948311151, 1.485130125656878, -1.1365139089860365, 1.3606259141298271, -1.339619038767684, -1.6617099993308155, 1.0242174623327336, 1.2424767027380201, 1.4769935095051299, -1.9231627802248927, -0.084601229080139, 0.8675491494062064, -1.200656280923273], [0.5949347641487592, -1.8518901427210674, -0.24374858139443978, -1.597717927380082, 0.04003687910605036, -0.8538959585773007, 0.8254487564021544, -0.7449162146616661, -1.9998985262330162, 0.23970789565541262, 0.8559839814266565, -1.0606460736979333, -1.9247422372306597, 1.7531980524451547, 0.09682203169154269, 1.7836067822640622, 1.5788721152818583, -0.0813017804056213, -0.5165421133662389, 0.38002072079664195], [1.9065713098530592, 1.2384666148221912, 1.7229180571066998, 1.1357719827516477, -0.5341095457457499, 1.267485118340966, -0.5021642389162668, 0.8312884280052373, 1.923778646783346, -0.6457589694866535, 1.5298553948010731, 1.4956468115493586, -1.8490617322313128, -1.1335906854004065, 1.259807934318296, -1.8698053487535917, -1.0877103980382103, -0.40890281750964874, -1.6206105438160137, 0.3457864404780655], [-0.6287952934208256, -1.8440700239340027, -1.710240999139677, 0.2952999016163318, -1.3290282624298384, -0.3384137287850515, -1.109442960027787, -0.6682264678511456, -1.6684127433199882, -1.9975043531577383, 1.8396929353985763, -1.726830118034445, -1.7171091663913343, 0.3744434120570226, -1.3522215902126549, -1.8189551787466067, 0.05135536503673421, -1.7357100765481563, 0.941242628049864, 1.095206787585747], [0.8993384003130145, 0.4210504120712377, 1.1728934371865636, -0.9330468542774963, 0.5476045763087041, 0.41409409674006437, 0.9563539940135595, 0.8783441451998399, -0.24419000795468504, 1.2738343310503693, 1.4414468729576169, 0.4753255101718974, 0.809257076675749, 1.4502044581562394, 1.155939272253454, -0.5858046963324277, 1.3325836847602925, 1.2084859767242628, 0.20511502552819394, 0.26252405107411647], [-0.1587268500183603, 0.9744274212970074, -0.2341731125660833, -0.6944739645356419, 1.8005238864261037, -1.3392094771512002, -1.4613209535856444, 0.25284252048467026, -0.7725238285744362, 1.6060128793151773, -1.9621015936476707, -0.37289022038322184, -0.28116081840496054, 1.7588017014819877, 1.6440307223142314, -0.868395872416285, -0.4692934398600572, -0.19623122509762592, 0.9828039753494582, -0.06512330383383969], [0.041507690425595545, 0.971557164038662, 0.7999691025411995, 1.9183691600645583, -1.1927293511057075, 1.0199716466602418, -0.27941069038390154, 1.1514785110950774, -0.1352647897791881, -0.3635941861120804, 0.5781286661284799, -0.7037303329652786, 1.6074682929931732, 1.281554081079046, -1.712052500204011, -1.3843984134925376, -1.1049422297264107, 1.6486789606067638, 1.4292390926340053, 0.8681858889412255], [-1.2764396777194906, 0.3098017692142925, -1.8387814032382943, 1.6042728871055774, 1.5117445965062717, -1.693592503465113, -1.4619586112357248, -0.031824088067074374, -1.1914004641313745, -0.7453329836881699, -0.7707175979002678, -0.34784351637524535, 1.610929408458997, -1.4556115989206528, 0.008958886716723402, -1.0164477583510525, -1.676416853286994, 1.421963046705359, -0.8481586498731382, -0.34059488537525917], [-1.9778481072132434, -1.2033670983963014, -1.7579605788160362, -0.31714733158275044, 0.30176979930251235, -0.6874860817643969, -1.144781691325004, 1.305531203157532, -0.012849799068890722, -1.1125455554443597, -0.4834618584040906, -1.6230364830002224, -1.464480676107732, -1.4160356876934697, 0.9114222498614017, -1.36674925254062, -1.0249912428520345, 1.962873978781876, -1.7542031533278752, 1.5802894787754918], [-0.9885362910299715, 1.736736025331711, -1.203633497817489, -1.6153739995638663, -1.3684471409059111, 0.12023299766876638, -0.07407833955333443, -0.56080100552037, 1.0789555478551183, -1.2783503198497743, 1.4470136041639594, 0.10084270856593047, -0.004982545576606601, 0.9703835037821746, 1.660919763666822, 1.2514131651796898, -1.4566149177849228, -1.849579295326472, -1.7417065272538919, 0.60788879408324], [-1.3140545639063355, -1.4052975260315077, 1.7570373174522076, 0.5866813877108896, -0.5574496191426386, 0.9297182172186385, -0.09569567455910288, 1.6324604108407952, 1.889758918364906, -1.0698798136359042, 0.8790852724017917, 1.7383901125336023, -0.3233151255370963, -0.005310680750024943, 0.8010637768031201, 1.1138682126595802, 0.21154519769051205, -1.5621795461510537, -1.1054318252385147, 1.4809077468690721], [1.8628901012400059, -1.6766065026512567, -1.1087685744963425, 1.8001726879040945, -0.6521940275985907, 1.7787750138362668, 0.8676887835209057, 1.851958123932988, 1.279834728259985, -1.8691302575780155, -0.2627266621243578, -0.47067964005495044, 0.03296471344513918, 0.6876171896108274, -0.33077276248573195, -1.950641231625653, -0.9147320471784699, 1.4020091978550289, 0.5132959385234415, -0.07695148197753765], [1.077210688482383, -1.987319610343194, -0.42277188977194813, 1.1410348288063918, 0.03731868971375185, 1.6989452912486276, 0.5202634561619037, 1.0614738280419314, -0.8013603737074355, -0.9932746939324946, 1.7717779726948186, 1.6125227534375997, -1.9551854956156727, 1.2304863188782256, 0.7826784521498804, -0.8159544511581829, -1.198014694774014, -1.7458579734165545, -0.9122883214346391, 1.5066771541893864], [0.7103638394862282, 0.4237858888290438, -1.175555830667939, -0.16303988684015325, 1.6194139981150837, 1.3426243186242286, 0.23693823499200617, -1.973618802740015, -0.9822080903862282, 0.9528116444882979, -0.7641482322434339, 0.9890852163109103, -1.2712470473980453, 1.1423776330652107, 0.29342221245594, -1.2973600754681587, -1.0590038092945515, 0.7078214044584672, -0.8011329630569914, 1.1293613499778283], [-1.180841775421666, 1.0422799798270668, 0.5014227319928137, 1.2754004499012708, 1.8907876496396607, -1.2874064208401856, -1.319060319018163, 0.678167614062398, 1.352486999695409, 0.497723273915585, 0.7709795295379238, -1.7009895994351298, -1.5409024104496027, 1.1921598052165145, -1.6485628630502562, -1.5830853496282127, -0.45817137487348125, 0.718744589733447, -0.37598167885415545, 1.0830457784665737]]}, {"bias": [[0.1397320720360823, 0.532685652773641, 0.9661867031591562, 0.2884953133910588, 0.09834227582045674, 0.46861588212313465, 0.37908299679578394, 0.09513527746965367, 0.23342406517908276, 0.7121174331226112, 0.23130885282141855, 0.7645924062173706, 0.5789568481602612, 0.9867894863101857, 0.40368518955743915, 0.30353008767982603, 0.4190269423782711, 0.23423734123655193, 0.9070664119909597, 0.930922334376864]], "weights": [[1.679082987769406, -1.3778689482736142, -0.9674290729040758, -0.7421413060636537, 0.8263895800041396, 1.0916823169512413, -1.9503370874461026, -0.05558298403332795, 1.619986627214307, -0.3277020191024995, 1.4991771374858955, -1.0639397543568982, -1.8679600568226218, 1.114458201453743, -1.5992046923477838, 0.8975811415234873, -0.9330078283533592, 1.5316608285513316, 1.2501068120245553, -0.4682980013810507], [-1.6095401638662894, 1.9646357783622181, 1.1526284624806342, -1.4626094286237352, -0.9169724063753648, -0.6958788203537929, -1.1850251683081297, -1.518289640490027, 0.8645887321268892, -0.13624167473322935, 0.4301517658005989, 0.9922931613237811, 1.926894548007433, 1.6278687879322686, 1.9122280526193505, 0.5002358027294158, -1.0484335802425093, 0.5993169302149144, 1.8426914080651158, -0.7122020784066496], [0.9309163564210152, 0.887938903400399, -0.5057196766277685, -1.4379940712012735, -1.525709777784709, 0.41728724450593546, 0.23893154741713207, -1.4618397195766684, 0.9820415574741892, -1.1216236383318394, 1.1684751773716768, -1.2817310770674668, 1.383963491571865, -0.9823703175540155, -0.35986338937485574, 1.5216730908525258, -0.3019163936591518, -0.040550137371526684, 1.818155128689538, -0.7290275650569336], [-1.6485594709543343, -0.1425348060089422, 1.327394272986731, -0.4396847023447261, 1.786811955054116, -1.1906997005889615, -1.7161315746006274, 0.2851184297861482, 1.1171473654193482, 0.0035320692454661184, 1.9880760124704682, 1.0969774448273832, -1.5798211246679172, 0.38455845501129016, -0.49889782684339234, -0.15808054102275815, -1.8818890202376495, -1.7563047944859957, 0.12096620807475933, -1.1964112915071285], [-0.26099592542840266, -1.5550440853354286, 0.34406692471369604, 0.6888414241234124, -1.851799621814426, -1.7999098193189296, 1.5566601418203558, 0.8287055215430632, -1.8854849436901007, -1.1639388391743593, -0.759855694879616, -0.7232117108318028, -1.5268465702284875, 1.533490698214174, -1.9091441914551472, -0.8139256998281081, -0.6300563864057014, -1.4915559523882211, -1.5254158552276804, 0.6878748323021164], [0.8945029731661371, -0.9048337258132149, 0.38991496925396607, 0.5624215895617666, 0.19546666101211407, 1.9188698077422597, -0.8286814376058906, 0.08552528375170443, -1.115005910199034, -1.1880499450217195, 0.3625578764245896, -0.8665409136792599, 0.8585456003493701, 0.5854293077567618, -1.62257996269232, 0.270794369111786, -0.14768869328049838, 0.1909466710299994, 0.3968922399321668, 0.32747103417757994], [-0.508968704861918, 1.364359967314528, 1.6112700731370895, 1.71106657408588, 0.3756688829640886, -1.3104866557077757, -1.0939144792450417, 0.23489312509403248, -0.8895764111665891, -1.8253740661454074, -0.3788164388004338, -0.1814216385803844, 0.18091672982857343, 0.3435875404803892, 1.3913260378030796, -1.2675670173877438, 0.5259818290734994, -0.5594795080116546, 0.6806665238058036, 1.0024120981376958], [0.12382705871712396, -1.9888730824426055, -1.8780347038944836, -0.9218395485350168, -0.36886941034880527, 1.6543038511280104, 0.7225644347297377, 1.1450322988205914, 1.3613523787889052, -0.7990733728635511, 1.5832184101426328, 0.9774152923252482, -1.0952725899399347, 0.24437363554877534, -0.8240569990905455, 1.7377499292466636, 0.09452517565083163, -1.4259671463328019, 0.9731569926148564, -0.06340161907122077], [-1.8717197588828052, -1.9469661162755907, -0.03696755475723812, -0.20826520426248107, -0.5506144672381077, -1.7103298089287056, 0.42751483321158856, 0.8190829589810109, -1.6614189206418386, 1.7708650146957536, 1.8896204603627136, 0.3962846115143184, 0.8597175108064659, -0.44274507779088434, 1.8940391986118126, -1.8572126280167573, 1.172647990834888, -0.7147443132442977, 1.4679580751667918, -0.15338572405832718], [-1.2987715167746687, -1.7413636059823427, -0.31967995309001607, -1.6830808403045672, 1.7134631903607502, -0.09772977494489954, 1.95311119157879, 0.6192584148819194, 1.7674479529310236, -1.163845709878652, -1.0718920023186644, 1.3205154068858769, 0.9963946429499808, 0.18616663103716702, -1.9530765974883897, 1.921583193661355, -0.27970460055423363, -1.3898038175136795, 1.1008683233677599, 1.5938526623932114], [-0.6835841212196176, -0.9785938852326632, 1.945888552440672, -1.1610802219411718, 0.727043959660223, -0.9057506078188715, 1.2165569779907486, 0.4964556439396097, -1.4835926013827652, -0.7539780300727648, 1.4434846940407304, 1.4012643091379324, 0.15315967899929328, 0.7221701519947925, 0.5194956096066972, -0.8934480832415255, -0.19515079131242263, -1.8834357476361188, -1.7549265759058041, 0.9201151836991213], [0.8757670608468717, -1.7854418239292165, 0.5219418955375104, -1.227175696168569, 0.7293947519007173, -0.7768074514716279, 0.19786260298113545, 1.0423042933015365, 0.34480700281246035, 0.303062973673232, -0.19638577472102137, 1.5041422128569653, 0.14426155347196223, 1.3808342206298714, -1.7747428081511982, 1.8092829345779147, -1.5005461891800596, -0.05298223637407018, -1.885160981810805, 0.6167950744471775], [0.7728581217307045, 0.5052093842863954, 0.10177115775891865, 1.033031937542075, -0.1484544762258153, -1.6886291869472796, -1.272592163986165, 0.42293498705418564, -0.3125022430758788, 1.6908760224974464, 0.43543823544947813, -1.3702050959429006, -1.443696898625595, 1.2073888097574939, -0.9810262061527424, -0.06630277731940382, -1.6342766945321263, -1.3100310160266422, 0.3656787337982301, -0.5431185486492591], [1.943153360007856, 0.034151860489148866, -1.8078905200491096, -0.6434875791572794, 0.21197093414099832, 0.18599421922232162, -1.062279083151176, 1.1370110319465718, 0.9149045023830431, 1.196028758935951, -1.961203436370535, 0.4382787497110998, 1.0226800489049968, 1.8502462262887618, -0.03160341050411475, -0.8691273350264863, -0.28962331282866227, -0.9474827330455686, 1.7088835132959685, 1.9563263295081281], [0.12451504208362385, -1.3033879618339457, 1.222528164558585, 0.3240159827114697, 0.9233496564274621, 1.8792135121139624, 0.4136776870353356, 0.41774834533999794, 1.0588103201837078, -1.420772972910604, 0.7984059191112691, -1.8559591733979146, 0.5998004054022785, -0.632644757579822, -0.34850573134824137, 0.33104888210791694, 0.595411427349188, 1.9603821199637834, 1.7455026024015772, 1.6761613153963273], [0.38132993014894234, 0.8828176263944494, 1.9605288162118688, 0.5778604176260118, 0.9738857613210001, 0.3453137883257651, -0.2363223705153179, -0.41136411971446396, -1.4565154660572213, -1.8321645507832534, -1.090938547995148, -0.14842191318696285, 1.0802080066080317, -0.5236430726877264, 1.888774618130575, -1.9437678524025794, 0.24324075603871753, 0.6833522118715494, 1.1513121991452286, 1.6801683330357173], [-1.920700112725381, -0.5944707990525822, -0.9510513131505749, -1.7234810088121595, 0.024338617161662857, 0.7325284311061631, 0.048585735247740125, -0.559095695457632, -1.603042491496367, 1.7708626456086445, 0.34179237455408984, -0.031248791024428346, 1.294390822112895, 1.8740545811314853, 0.9210018277646719, 1.7656162294948423, -0.7566603657417978, -0.10486752288741563, 1.6135015117628804, 0.9647061028856481], [-1.1238004817648837, 0.8652275241339376, 0.5468393883095874, -0.9396358117401458, -1.5064806922244518, 0.6261395920846975, -0.5616508509346132, 1.4611027426349943, -1.9472943516675132, -0.7711428583409674, -0.5337006308354186, -1.2817016399442944, 0.8451806444604042, -1.2489583101843396, -1.3025419242540166, -0.8530075150579197, -0.16944179061736886, 0.53411538406236, -0.9758130300245922, 0.6278892480288483], [-1.9647468844126328, -1.1604821333680109, -0.11053951153644492, -0.7780796919742898, -0.14254288879202104, -0.39755423100076337, 0.6933144885543219, -1.7804321102966103, 0.42914605089618574, -1.1563176304146285, 1.5533932899132266, 0.20409641556533709, -0.5174084164705963, 0.6721259487901405, -0.7730595732517149, -0.8674485788632729, -1.9391268167539848, -1.095898830263487, -0.7902058830929466, 0.10060113318960973], [1.2016466109002106, 1.6776604908871504, -0.15945101335612133, 1.4709954561632168, -1.4086627811808294, 1.247044702971194, -0.5842545273098865, -1.5541810285852455, 1.023586295313489, -1.5748639073945108, -1.8219346820659754, -1.4564841146035747, -1.3825647230523566, -1.5763435390124552, 0.7458731677821047, -0.8895598131054001, 1.805712138519307, 0.8547444806070126, 1.4016059457869119, 1.2776655361576692]]}, {"bias": [[0.8614144453214937, 0.5124079344676196, 0.8760190927828864, 0.15877679338473427, 0.5992771730967443, 0.15114000181107412, 0.7217462415254584]], "weights": [[1.7878009685751852, -0.4109606244208579, 1.1031610471240212, 0.7723015082256128, 1.984489756492085, -0.7086525648673914, 1.3687803235722935], [0.3691102576190959, 1.1337183337355752, 0.3282160666003109, 0.8039132263064421, 0.32906300892676965, 1.2549090579161417, -0.526525045327134], [1.6276959740425965, -1.4127396436138255, -0.13669223111514306, -0.4437098330270741, 0.4816798459867946, -0.0704608688052275, -1.9492627326059662], [1.2192541073936836, 0.3924285232253508, -0.9966120110368841, -0.7173362457720027, 1.294722693429855, 0.8153179627093947, -0.10202260540613484], [0.21818259306251608, 0.11282002180641415, 0.3151237278886767, 1.6281886732484114, 1.503904302232538, 1.8769789349695518, -1.653347494099338], [-0.6912235861281077, -0.2981535579366654, -1.6613423612022689, 1.2173434004962829, -1.4859717139566917, -0.29381456146094864, -1.1450863910563576], [1.833798805609085, -1.0084442534576397, 1.6738793211055238, 0.6840840680680409, 1.6814998228438762, 1.8662769358068716, -1.9872206130677585], [-1.3708055756970974, -0.2959468538894914, 1.7440211627274946, 1.6104313355764255, 1.523795764456187, 1.062872535663987, -0.5108782915323613], [-0.6962703070575635, 0.01137095627750373, -0.13012421262639373, -1.5377144849181477, -1.995708360334226, -1.0639484796761134, 1.2089750503643253], [-0.9196379975744953, 1.8676681652786664, 0.3488753369387321, 0.385854213118912, 0.6527904775405102, 1.0826843542755342, 1.5039518944161117], [1.879811730901788, 1.4758924286574833, 0.7872114223836477, 1.8428553436945574, -1.143148000557642, 0.23213782041732411, -1.0571152778398551], [1.287989562734218, -0.5131879981754239, 1.3696235877735936, 0.41982994160501663, 1.143598801398277, -0.17928473876563755, 1.419937950618264], [1.8208723218148108, 0.3627076757907455, 1.8408922671649712, -0.8468316796383517, -1.44349860437901, -0.9379838632017687, -0.34258863736146017], [-1.9983548824282824, -1.0985295733563603, -1.5019397903803644, -0.7883333050876069, 1.3566845454143022, 0.2973484835867226, 1.0785158638549444], [1.4802790876928822, -1.9412744525755032, 0.46974407017069586, 1.6488260441189473, -1.6927171570390125, 0.5844163688945239, -1.2050295854789357], [-1.3023161729414747, -0.5236170468291532, 0.4766774693013538, -1.6748731672182031, 1.77516646779151, 1.0899435576718322, -0.4760297517925376], [0.19989280933757714, -1.4224692193151727, 0.14090382316038985, 0.7976263211612076, 1.4029131447445633, -1.0393985730152693, 1.6478644819064123], [0.8028190626247746, -0.5962152697610845, 1.8425364323019933, -1.3520752523172446, 0.5843880049526202, 1.6378927429712964, -1.0118151279261327], [-1.5115104506625854, 0.88883023228271, -1.5076291431331637, 1.0463064197771286, 0.13160867009862898, 0.7973928996799122, 1.8417629503749162], [-0.357724017513664, 1.9380976773725003, 1.7117918825070375, 1.0265247110899987, 1.886164245535423, -1.7517366827443959, 0.3034150747867046]]}], "input_length": 17, "output_length": 7, "hidden_layers_length": 20, "nb_hidden_layers": 5}, "color_name": "sgibeet", "file": "Ken", "population_number": 440, "sprite_width": 120}