{"sprite_height": 100, "index_in_population": 5, "neural_net": {"hidden_layers": [{"bias": [[0.11840395757103572, 0.06650086234358166, 0.6510784498839893, 0.015965468976003372, 0.6946219834612024, 0.00784327563917997, 0.039360788426500926, 0.981043067335861, 0.5136364836930781, 0.845446393943705, 0.09773098550500992, 0.4101796004808703, 0.9217853821051571, 0.5329884731837794, 0.8627006722888084, 0.2942262792390561, 0.8948339334347211, 0.8885813665810843, 0.4715253175668388, 0.4134576370198073]], "weights": [[-1.4767051974430645, -0.8059141396143858, -1.583136429623487, -0.9380885987318961, -0.8440418678671953, 1.0154605754820727, 1.2731179171551203, -1.1075681175299454, -0.01196761777817823, 0.9285808841410468, -0.7565605634711665, 0.8933963706344028, 1.6793174357325862, 1.1926021342585535, -0.7285357903340355, -1.5174375271070364, -0.21551161253027074, 0.29194926468059457, -1.026686993191809, -0.10263651408448604], [1.2921323584971596, 0.9061192419960098, 1.9000042196971356, -0.3220587175823013, -0.31140924785094404, -1.4093112077490315, -0.20325834721107539, 0.5759827377205329, -0.5984258602862922, 0.3451746470796446, -0.4111886245052654, 0.1841500347779692, -0.9018202963551807, 0.7217990626259136, 0.6579549629762318, -0.6036008248771219, 1.2622564752958034, -0.5628100993614615, -1.465054039997883, 0.453649467553352], [-1.3453053313347958, 1.1542865423190651, -0.23391521815195526, -1.8542011582783036, -1.4952977983628228, 1.8754122492534497, 0.7456125613875861, 1.7714081152486174, -1.466833909666192, 1.1991742466858857, 1.1347366824775316, 1.8316398558471283, 0.07954193407459753, -0.8878465273090077, 1.8184688891309198, 0.7111175450377227, -1.2201850119534217, -1.0280504891910112, 1.8441499562274264, 0.9642300970064528], [-0.4492266515647021, -1.2375799656678228, 1.9809971124094843, -1.8101617428293744, 1.6023958841459254, -1.2625401961218783, -1.128571918707642, 0.8060741611917708, 0.21889279662750027, -0.2697172072464191, 0.14032188922397282, 0.7125495785296265, 1.6720689705561886, -0.14729629947404588, -1.3815850263559288, 0.9341457307312733, 0.37949979706407566, 0.16461088771640187, -1.6952908305273398, 1.3931015516751581], [0.3281931646444991, -1.839662304714646, 1.6749942140438838, -0.3621671015963357, -1.613889437047519, 0.45368254849410405, 0.2118973565406539, 1.1732112945287976, -1.787262862941092, 1.0623111712540827, 1.0885462898682845, -0.10463902638459599, 0.41007829156015685, -1.756578666111721, -0.2521988096892165, 1.1294560399674838, 0.9613540730362762, -0.9955175975808932, -1.391725232263024, -0.654772174411574], [-1.7947607276123625, 1.4264509398014682, -0.38448883761782415, 1.8678578442980545, -0.8995462953337428, 0.6796683910172057, 1.8614652036897659, 1.033130670362068, 0.5008771050909693, 1.5466521198973142, -0.036215436765580034, -0.08311356627333177, 1.196805196945224, 0.7257128005679427, -0.7423570258592118, 0.34217396864978333, -0.5130097606593838, 0.5214434161020773, -0.9495845953235658, 0.9044621525113099], [0.9261989534406592, -0.18132842466400945, -1.3529274604420896, 1.0027646228766143, -0.8253837545087848, 0.3254020721198021, -0.16605193774483995, -1.0153184409076563, -0.8409025172845159, 1.4499311189209507, -0.9720346768729393, 1.4337773633017554, 0.9318109532152139, 1.0821305094358848, 1.7603860151410013, 0.3074081266859179, -1.7643590142827579, -1.1248522336487645, -0.5666428434349644, 1.1664948387659608], [0.9525131259746891, -1.0643553599243032, 1.8355303566699477, 0.5054888420768218, 0.797787492281707, 0.8720213568284265, -1.3107682438627246, 1.0895162597733044, 0.9639077996642085, 0.011618890940795268, 1.6571631967692215, 1.7180173610306504, 0.30741332499011653, -0.007893173563900735, -1.3026872458796706, 1.3298848393046576, 0.16060857732600775, 0.059203022656497684, 0.5095220119455615, 0.6293664742565857], [1.479753898745905, -1.118168507015552, 0.921067172877875, 1.2253454349920752, -0.4792360875748751, 1.3458788977749432, 0.21190752981510386, 0.38304165567565773, 0.0966234405708688, 0.9796049490944458, 1.8921089394931156, 0.5326767442948341, -0.9981763830801751, 1.82924197094491, -1.0011088460145654, 1.2985010833678405, 1.5437811644072066, 0.2971705733475769, 1.175987680940088, 1.80803181125159], [-0.6177644254531982, -0.26395533051452125, 1.0624927301777363, -1.7779885392081427, -1.559460210605097, 1.4398154448096756, -0.2771850654618797, -0.2456254895513652, 1.2600424962139267, 1.7032486317938456, -0.8653342826796258, 0.45201115780372003, -0.46047282566556413, 1.1545033651813195, 0.09833245419659775, 1.5475745450712672, -0.6313107667319593, -0.7872625133614295, -0.8243305200135778, 0.7243359552786188], [0.37080067057848565, 0.437729096698976, -1.1862158038847164, -0.60629663470205, -0.10401621073333844, 1.3799527998836174, -1.3458451378466934, -1.8844080465885424, -0.22602757334677914, -0.29598198129861775, -1.3220367059847238, 1.9459987539548318, 1.2097322577708454, -1.1413123883154102, -1.535499515711316, 0.4801571221214971, -0.170053557567738, -0.19275528358633753, -0.9391560760559097, 0.46567443738521286], [-1.6799377542651692, 0.6153942526548342, 1.8126535805965829, 0.5007699844139473, 1.5037513690507334, -1.9236782671684414, 1.0998665977107196, -0.4008903057343769, 0.9175035289566336, -1.6990569162795337, 0.7685300622365578, 1.6536888291484972, 0.3160193130310498, 0.924049662031877, -0.58999002712204, -0.1549199255233149, 0.5411943975217306, 1.0455619441265176, -1.7624143031097579, 0.8782787061848234], [1.6777385092850974, 0.16535938668441696, 0.9820771107854287, -1.9443427389264176, -0.9498878700692139, 1.3537297937742547, -1.4445062865955967, 0.6394106698538042, -0.5406025408682344, -0.9217640751910685, 1.4571022767135364, 1.0174997050088703, 0.5331207600162267, -1.9510756432601126, 0.6939140860766027, -1.015512486766983, -1.994739014804762, -0.704442488972294, -0.1848182284191826, 1.2513733698494645], [1.133759735472304, 0.22033382310778205, -0.05860248962035053, 0.01625009476718864, -1.5289557920682215, -1.0468313909555054, 1.6668006135162545, 1.2189119148194485, -0.7125111799090962, -1.2593627149906483, -0.1838767057087427, -0.1533396857220155, -1.1520803772283452, -0.16963129600350735, -1.5052081584474908, 0.6691484404957855, 1.9375581349015398, -1.7834486258985152, 1.1239785782827383, 1.8447146647351755], [1.773338718501007, -1.1559392008533451, 1.6045382483656394, 1.3387002834771469, -1.2617343833554377, 1.7144500225362709, -0.9182086833028946, 0.582495622984355, -1.8616010835208807, -1.6882492495894268, 1.4755018616490672, 1.459074897930694, 0.9933147250974086, 0.9244312238921717, 1.6410113273056934, 0.5647526700067362, -1.0207045623825182, 1.7035530072896745, -0.7340683855066406, 1.3507795361299357], [1.0196204264788715, -1.6822200262972689, 0.26436941990408336, -0.3528437669062927, -0.012549954339358571, -0.5189925928421713, -0.3079999156455102, -0.35145206766078374, 1.5391890146208262, -1.2146294340315342, 1.7186292345715168, -1.5739059107160989, -1.412119253793965, -1.260052570133571, -1.6235494170680398, -0.5086152768207755, 1.2621628187024587, -1.301029760432253, -0.8388870622876281, -1.4560786126166745], [0.3655072713963148, 1.0473850506557048, 1.2509283917578058, -1.98077050590995, -1.916162941927332, 0.08274538520074515, -0.19947782949078485, -1.1603941744623687, 1.5230727971797213, -1.0853226249424455, 0.9785850984633444, -0.4706689832730149, 1.1191165653827118, -1.3323139086336258, 1.2244606530336548, -1.616355707770298, 1.03827417389302, -0.9404342203982288, 1.827516067000269, 1.4504464784606794]]}, {"bias": [[0.7589739921030357, 0.3849491830169667, 0.47208078615624394, 0.07644903723451835, 0.4333742622730603, 0.04877273028995255, 0.9255702579818115, 0.9431145776866536, 0.5788704414032962, 0.47283833868431513, 0.3496937199658703, 0.01457511560900382, 0.6121276983675632, 0.8957126226310511, 0.11925348012714143, 0.3697150917117876, 0.11998615942166069, 0.24519853115580825, 0.06275147863335151, 0.45100089814591615]], "weights": [[0.2688113481483754, -1.836326178490732, -0.1356558476220755, -1.7792685953280358, 1.66720870589837, -0.015693333901126483, -0.7122849837760388, 1.1162409432969458, 0.8645168461420338, -1.5464112376250654, -0.5726496707829032, 0.929103491541698, -1.9680768646420184, 1.3335082776319016, 1.147302420872513, -1.949450666127745, 1.83906608912775, -1.2766210206989355, -1.403541132891886, -0.7989647210976547], [-1.8962077921793568, 0.9192672559526867, -0.24301849182052582, -0.36232315234177737, 0.10439248677829216, -1.9407934721780413, -0.9414762496950271, -1.6470519067921114, 1.8741308994485713, -1.8927731559069767, 1.5644794988826027, -1.4679105776190964, 0.497594444687826, 0.6553539949703815, 0.6083033859580058, -1.1466294542190671, -0.19381092849210502, -0.0989937862402952, -0.3212098220776993, 0.5013313805324668], [-1.3571286983130335, 1.92876351656226, -1.054445066792419, -1.1670679627370109, -1.6200810606784692, 0.02501160763427368, -0.22335474135252475, 1.753454532113166, -0.23058673312713118, 1.9664880414593098, 1.2195346863219814, -1.371117307098562, 0.0334796233097876, 0.43681563466556295, -0.856282168599594, -0.4187494490368393, -1.598869779740927, 0.3934986040891282, -0.30085253534286327, 0.34000138265784496], [0.0515607343543496, -1.023033077662296, 1.8157800583269292, -0.7001158491163308, 1.9198988335068616, -1.1071434107973133, 1.4692986186730685, 1.1705178835312595, -1.6169980897055627, -1.411984395254859, 0.2993200663335229, 1.105653658813643, 0.5879648035230196, -0.44164987024058666, -1.8543495181114564, 1.4073292615335276, -1.3451683310170974, 1.966599511422321, -0.47000767679713773, 1.7020860560196804], [0.7415513376290686, 0.15374649166026488, 1.3210057938207216, -1.6313708000923768, -0.7140658487647666, -0.768354513326579, 0.4144813171513517, -1.1694919387952023, 0.345020834093793, 0.5801546269179219, -0.2149682093625862, 0.8119592223152563, 1.2530919845725816, 0.49894501156979887, -0.04786965173419366, -1.186765137807022, 0.08168291011845907, 1.1076581960548704, 0.8098496726266768, 0.3567078915292199], [1.2595834805921369, 0.9420745731007627, 0.16179436770889977, 1.6754509561171638, 0.6781010029104415, -1.6682707962833496, -1.6720721721302185, 1.04683438916063, 1.8087167810780826, -1.5596773554558174, -0.5074751794863439, 0.8214980752263452, -0.23290239797696666, 1.7752191241285016, 0.7496881059644172, 0.8283123801482288, 0.7608004169814344, 0.8068452856883206, -0.20929821414057725, -0.18848515489932938], [-0.4689389740128296, -0.46356615812730917, -0.29667398433327064, -1.3722672006640062, 1.34235777499367, 1.8826214752547985, -1.433094305732264, -1.1087552582582583, -1.2471418974428667, 1.1177926574430823, 1.5540697810366697, 1.0099684564028748, 1.5705633698306225, 1.3697841225011391, 0.6087710523924099, -0.6047763618237205, -0.050092905950517075, 0.9846464881553447, -1.7777700756751962, 0.8405947698774678], [-1.3067881069519913, 0.5172516894027495, -1.9657052723588735, 0.20503034155096822, 0.16149402976757, -1.6436655279510406, -0.923491569459133, 0.807397190435768, -1.528937349097848, 0.035263064342451855, 0.004254501346069972, -0.5197746148125795, 0.8277461888863784, -0.5212100039484424, -1.7773682263184467, -1.0074665018146205, 1.5900033191541105, 1.8341045285636524, -0.2839252733597979, -0.3123633668007515], [0.1596531223499298, -1.9193604809010751, -1.996125375174942, 1.5512214697481004, 1.4732412844870542, 1.314246586690357, 1.2393293874729072, -1.4656033362854508, -0.4720103169376584, 1.4247783463082482, -1.513467523629739, 0.9527121120115574, -1.0716659662086436, 0.25175728124801955, -0.7006486979014515, 1.975956451720759, 0.9132492561379864, 0.47937439689985784, -0.3274371914649947, -0.9591715060432651], [0.6743376449677947, 1.7734539013603334, 0.39034160357354386, -0.5309822082017877, -0.5628040923009303, 0.40804305124303486, 0.6108891016344713, -0.8289121212193384, 1.5304049335465417, -0.5663422189787255, -0.11966408433344267, -0.8491149170209682, 1.5207457333996022, -1.9831468400549315, -1.8668521084711376, -0.831888649958898, -0.7386752976104463, -1.2461436501937913, -0.05647621794910318, 0.2771480393993806], [1.625548801626894, 1.062555208957578, -1.7916133902555775, 1.4676335643183096, -0.9356377004235275, 1.563512129259978, -0.882830740911412, 1.701576646283843, 1.2014257462611027, -1.5340461352857884, -0.4518489120483782, 1.09675902079913, -0.5493166544423036, 1.0744316663991103, -0.8703785030268434, -1.9863999895880333, -1.7607540647261701, 0.7393688215090575, 0.40282337041543137, -0.4474144573215706], [-0.8813545260054907, -0.46683228358944406, -0.6078347430596951, -0.4746680824923617, -0.2032285752008569, 0.3256262431511461, -1.8094862548883768, 0.06655008793970962, 1.277818199138768, -0.6518560900291464, -1.703456405406102, -1.4883015389988392, 1.6870600636713675, -1.4046823117967344, 0.27968323908394854, 1.7217028658915816, 1.4596887729932817, 0.6471309312172933, 0.06819409374017571, 0.24849135150519963], [-1.2281450294900904, -1.9878793851405354, -1.6879950820272658, 1.1904866865043107, 1.2555185080659275, -1.4721154632529685, 0.8322265364461936, -1.6107600110053877, -1.8163191400095298, 0.47208049576422617, -0.9804646984158905, 0.26085932914578214, 1.6158026069457443, 1.0059054176457236, 1.118328237268785, 1.540824363114099, 1.0909736225668234, -1.4348285324898296, -1.5205873061275739, -0.03704366096844147], [1.6673593908660482, 0.47538511328134536, -1.7119217574566066, -0.2758707178533024, 1.13696689906058, 1.6964604611284888, -0.641256688059785, 0.54258172243083, 0.814945887138808, 1.234886903494354, 1.9871372905269653, 0.3651041453680204, 0.1542494177313669, 1.2137526538080903, -0.467989341253773, -1.5840947185784562, 1.104172484929764, -0.26726905304988113, -1.7950850395663855, -1.8875625246815422], [1.475637638054875, -0.8237236468225944, -0.3937739980877266, -1.1727223564545635, 1.4077413645707413, -1.5111398788434225, -0.3552474891393027, -1.7031382154958283, -0.18673514325211782, -0.6237542546679746, 1.6264213353869086, 0.5703735555325946, 1.8018882014547088, -1.512552334934742, -1.8648900233573817, 1.7805691361867204, 0.6448677112263517, 1.1978148734971006, 0.05082485546250792, -0.14981596693548216], [-0.5543069267666012, 1.3829986675004684, 0.99721119906037, 1.7622529555263635, -0.14973021601316105, -0.6957393018834086, -1.6246990870073743, -0.8234457807066837, 1.6335801247569064, -0.2129096332026772, -1.7237869184617711, 1.3850267580495417, 1.761773053346916, 0.5624628619165186, 0.7332168368182979, -0.7647752504557563, -1.499647708024971, -0.7186426359700406, -1.5548155758054345, -0.8365311481007387], [-0.8088649008608293, -0.726239279513563, -0.12781495868017467, -0.6847987956740367, 0.044666847272493815, 0.6141446184342643, 1.7785662861673548, -0.9740983933899381, 1.673159168264211, -1.542197613817367, 0.28675715780769506, 0.9418545168633456, -0.2704018632908598, -0.9986566500055365, 1.1949482227466457, 0.9462473634339892, -1.7065704811412843, -0.8760349648150534, -1.5262854940144628, 0.15104434088961316], [-0.09300273755035438, 0.5100233859773682, 1.8960967403712652, 0.4383817151027505, 1.7497098908609008, 0.2562406912889066, -1.1170309894252233, 0.06379870935562204, 0.05574105381453398, 1.8988113038294467, -1.205985698114851, 0.3206327484333924, -1.3596469554531656, 0.4271980986171027, 1.4365385686771908, -0.4017360293624379, -0.5223785313014533, -0.3010601977130518, 1.4393820685731908, 0.32966326547134495], [-0.5470737335438756, -1.6869493008688696, 1.870237695438798, -0.05070655595182849, -1.3233219529523979, 1.4844863400234116, 0.6430956685541869, 1.2044231437418387, 1.0256972925460839, 1.2359657397774333, 1.5455817497834432, 0.2764737413428002, 1.7909000490303293, 0.5853790872064533, -1.2270024840438607, 1.3750639271295118, -1.5779148858536485, -0.3066842222994728, -1.8328362604367698, -1.4226198549844313], [-1.3787436962378505, -0.28777887616780706, -1.6397966062090719, 0.39852538279047867, 1.5291561998878622, -1.8472238760463746, -0.930622053987908, 0.5976793797209807, -1.568466558552597, 0.06502041033193828, -1.7155232791625084, -1.983072853471806, -0.10723198195870953, 1.8051256551482844, 1.9826279477240605, 1.9669109314605522, 1.5367208472273037, 1.2861132036159826, -1.9374909327798298, -0.2512560778879731]]}, {"bias": [[0.5150212039212941, 0.9729930145961188, 0.6776398536528164, 0.9076523693529355, 0.10868778013544933, 0.5411889745185747, 0.5943512779252685, 0.14825369297362145, 0.7945421150090485, 0.41084747174465175, 0.5811970471607291, 0.2943812684463881, 0.26839888206090556, 0.7082409797651502, 0.5473855238994766, 0.9950950862615561, 0.22062663028428975, 0.5151779951928888, 0.9200659433132409, 0.7389726282090185]], "weights": [[1.7531029594304135, 0.8035187464475402, 1.4661255272418905, -1.757563092242215, 1.8543336094108787, -1.1306270627518344, -0.5343185251340903, 1.5841206496232623, 0.6325119401601724, 0.698774395503658, -0.7327282515086462, 0.8791776457501248, 1.3877096417071635, -1.9234658738809354, -1.7361450072808204, 1.9395800667535261, 0.0895147686961173, -0.8659619976199777, -1.7171437391282134, -1.3570412554787286], [-1.9334315899026624, -1.1209158272870448, 1.8824226621800841, -1.8949928265809395, 1.5248636447081454, -0.34719101504328753, 0.881238807129435, -0.9143203783262779, -1.1349321420952743, -0.9317591298196235, 0.9133921333438355, -1.8722283567934563, 1.8105835557188485, 0.029833454250369762, 0.4307245018464885, -1.8061198353388797, -1.450471025599004, -0.9481923267517667, 0.2566253489738246, -1.6442348990907312], [0.17845308343408783, -0.03138896023684401, 1.782596276716533, 0.06347957556774197, 1.5986719369959217, -1.0219939361307975, 1.8756018924023752, -0.7533921882102179, 1.0302111897195, -1.1561523677781538, -0.3168492367843383, 0.26593397132761964, -1.3966705014581753, -0.7533629138913507, 0.45250702201496384, -1.1879782836841586, -0.799861414403281, 1.5902030510535026, -0.517151039458887, 0.9125459758085896], [1.8059935193656118, -1.2425418642107844, 0.10914524324420505, 1.2752019617802923, 1.016849835780743, -0.6231627301302618, 1.5415398123606754, -0.33394002281460455, 1.025128280174974, 1.4761942769464134, -0.2467314337434403, -1.8380131044172, -0.23929748126916062, 1.5356082036329424, -0.9373890293436276, 1.0512495442393401, -0.30092149238587673, -1.6312806835747695, 0.21426141244121366, 0.3239031393762848], [0.07756138125971423, 0.4604326529009577, -1.0152976089116788, 0.7847808353260475, 1.7511837155930219, -0.05611722357274518, 1.4241323316859695, 1.9055379123924814, 0.8836670437973804, 1.7326517905367247, -0.7340011766993837, 0.7142656265732383, -1.9864347961894246, -1.0190938210146245, -1.4887246970592494, 1.6758612126814563, 0.6003415009634612, 0.14152785409137625, -0.9982908818037424, 0.6051306084702981], [-1.0887140272146216, -1.3404996719983857, -0.696129563369996, -1.1996874949599814, 0.24828147463783568, 1.6683820069619224, -1.2736428068706576, -1.9693594678870139, 1.0629527851695344, 0.3041935233377311, -1.018458127787646, 1.4159665538789143, -0.9919146631664066, -1.5536228023787357, 0.6523251299546406, 1.5937521153685905, 1.5358563638162046, 0.9940171345136783, 1.058977269986905, -1.3609978248518058], [0.08719008091121205, -1.4677653274861857, -1.5180500169306437, -1.8258452142406356, -0.07140738551575421, -0.17246693284730075, 1.4508172659098055, -0.6391654902888257, 1.2246448627361204, 0.2848712858864624, 0.792257821981341, -1.412256862050676, -0.7240467577262155, -0.3119891714305014, 1.1439439145859702, 0.7117925252570414, -1.6358447033272467, 1.3712861953526425, -0.3361483513091179, -1.7444433039396063], [0.5731892909250438, 1.4604232439358196, 0.5831464470403618, 1.3127517825225223, -1.3329836954655772, -1.021983131820599, 1.6138115604207233, -1.8840088742948153, 0.30943437100940097, -0.5426518845981239, -1.2917087855806124, 1.3790851085857554, 1.9713162842714418, -1.9428392828343246, -0.11879616030453555, -0.7419681426217997, 0.41754781728978374, -0.8953521711108836, -1.7045912391138756, 0.19667986293622297], [-1.4883925211963094, 1.8183595582665109, -0.6330796917501504, -1.5491445238311865, 1.5223570722950055, -1.277502855174637, 1.352903961458452, 1.148356364540804, -1.2991815675478011, -0.5652214060316938, -0.2159943860557907, -0.8839167381906914, 1.4817414806207951, -1.57850137340486, -0.7903230228449623, -1.5044802635010037, -1.5774419106743633, 0.30322149839771395, 1.4869093318533952, -1.5505426383120975], [0.10107263863609228, -1.4295910117937805, 0.6607107250805764, 0.7406304076795522, 1.8897478167627542, 0.3020321367218002, 1.794595742698307, 1.2726536496846537, 0.4979513175917267, -0.16762419011405694, -1.3405988560348843, -0.6351837824418296, -0.013027275762684809, 0.7688890013212628, -0.6668718459255456, -1.370377636191686, 1.760466983526023, 0.39469997217478614, 0.714979571204446, -0.38462016528464904], [0.3222590908792853, 0.44043411526570564, -0.11923654483302348, -1.2096388066479689, 0.9136218903862701, -0.7273172824918048, 1.4615844418915072, 1.6427744282355041, 0.9791898813658007, 1.3959514899580734, -0.6919919174292737, -0.1664963906999728, 1.4351687400029416, -0.38210093484185803, 1.6030384757410898, -1.1469577483286675, -1.888949679972781, -1.2844173337046119, 0.8932367395685574, 0.45939386005337823], [-0.9728764608553226, -0.2061368708806599, -0.9029643639732079, 0.5946803392198086, 0.5419124305025553, -0.32843710127641623, -1.2879986496595106, -1.5192479802670134, -0.38038835097021373, 0.6004596789886869, -1.3547568483849264, 0.2711336268583353, -1.5359694618392377, -0.5476121563608682, 0.10523196743475571, 0.9681382894763888, 1.422770581890366, -1.1986095955259475, 1.4218191375758789, -1.6719065089121576], [-0.19572747310095862, -1.3644858613377808, 0.11800950423688938, -1.4659197662613095, -1.8584749912384688, 1.9723362222710996, 0.7003898164343543, 1.4100760502264742, -1.573663193585726, -0.11873866692616097, -1.389921555193594, -1.679478639691018, 1.485921494836786, -0.1374512726434629, -0.71845008261114, 1.691624667085894, 0.8777510899752672, 1.590298296746668, 1.4701284604562805, -0.9780779869644096], [-1.7504128569234694, -1.1247915465692753, -1.0734257704989352, 0.9678289494458276, 0.759910577930309, -0.7051470210306303, -1.0496656717160078, 0.09406620544235045, 1.9065998899331733, -0.060423550948700555, 1.2346937267309888, -0.33903017302758576, -0.21162842468267895, -1.4064552568782367, -1.4571757185219343, -0.40120883209503244, 0.182489155153287, -0.9541700923707066, 1.7398211381990798, -0.3306259218196739], [0.8168763191964987, 0.32716299952972916, 0.2198625713561695, 0.9489906044902585, 1.6631374765575697, -1.2050847451800233, -0.19411279876051823, -1.4711803183006813, 0.5598482801829121, -1.4238787905454227, 1.05504660594693, 0.8157130745556112, 0.20531772179796715, 0.6049291367938543, -1.2931852408853652, -1.233078481073282, 1.0998447277437662, 1.8499369176107145, -1.3565285137766652, 0.7297933492429891], [0.3622803047624914, -0.8002069399290024, 0.267967614940253, -0.16173177196567945, 0.4075684188573292, 1.3132490978254676, -1.896450321797483, -0.20622580518669675, -1.5763790058556757, 1.683904341556067, -1.711569656853523, 0.9530167523882405, 0.9206504252435517, -0.058550028319050984, -1.5655213481661683, 1.731634751051606, 0.8674999788185742, -0.33954247339405397, 0.6915610856956835, -0.2304143081770902], [-0.7503085773954732, 1.7262264379690473, -1.6676450881134919, -1.0752296172334952, -1.8365446346156826, 0.49945890100140966, 0.3806042441910109, 1.241836160009354, 0.058430077924280344, -1.3206441949700536, 1.3070333583592593, 1.8344998874409324, 0.8876137066017202, 0.31394264129194704, -1.141204658528289, -1.397244038932555, -0.2426939267817545, 1.6249473533612924, -0.40757454420312866, -1.3914842461959829], [1.951204669723258, 0.28414596643323575, 1.5988355250701134, 1.1370153106430068, 1.3449603464104722, -1.33033637954685, -0.9106333514619567, 1.5908925264912543, -1.2828218452228257, 0.2660118668862981, -1.2492656385194167, 0.6488952638787797, -1.5775010888239036, -0.2814035781197881, 0.0740995658097856, -1.787169141616927, -1.001498798797809, 1.2343835829612773, 1.9487015475962246, -0.0017178175333931733], [-0.9783078986248657, 1.2983084772641469, 0.1418356511374732, -0.6263801737767452, 1.6655971287156333, 0.8804149766528857, 1.2042323221242928, -0.8173576440061905, -0.7081079949781768, 1.0018527436479379, -1.6065889477188482, 1.1820059218000312, 0.8733561202533253, 0.869332675784507, 1.9415608385192002, -0.9673879803115621, -0.10711332141138019, -1.4836561318934605, -1.259943924721734, -0.6341791942121553], [-1.6808422086333774, -0.9682624467014636, -0.49584971620656004, -0.2869335064710392, -1.035170643652532, 1.415532933199494, -0.6285061899264726, -0.30432840477636747, 0.16780173194154724, 1.9603478357226285, 1.6613300058851932, -1.9108486332379755, 1.068441787228295, 1.9566334375085752, -1.2143983194884225, -1.1881335295659587, -0.8485615439563752, -0.19656830175742446, 1.01007163227162, 0.9505454485503613]]}, {"bias": [[0.16257585983405187, 0.5593006370851326, 0.6033803203786205, 0.9847940649928159, 0.734162792157246, 0.7557616853741022, 0.2691163958534999, 0.3349082829883162, 0.11395417705273625, 0.5375038572845278, 0.8127309132405466, 0.6417181978869394, 0.3181814344483941, 0.22848202583608568, 0.9930466629401579, 0.7332832115910316, 0.4004722852275001, 0.24320236223481917, 0.5548712091283574, 0.5562839841432716]], "weights": [[0.9841792015846162, 1.9636365319573539, 0.4334052401725148, -0.3406435138068886, -0.5882156563450702, -0.8752980569082176, 1.7633363433751486, 0.10010852787315017, -0.8942898769680987, 0.5785222475205889, -0.0017807289596372122, -0.9132034400181421, 0.16698533331383336, -1.0948768586555988, 0.17482169409228954, -1.3385569919006106, -0.6797725203980116, -1.6248631395940376, 0.0723830654314579, 0.9194904952413525], [1.3626705732597797, 1.83349263942468, 1.158831893527481, 1.5490621547889307, 1.6186124355377016, -0.8336742690083456, 1.4560128862863158, -0.9867410427005385, -1.7051955088035533, -1.8860771198563508, -0.27039656193632045, -1.5259204310507735, -0.34410979174529865, -1.399726328428871, -0.29267459753959546, -1.5676155123310513, 0.014180952426464, -1.2407771055322039, -0.5218790960163373, 1.9022805871174842], [1.1220979726802858, 1.7595340718995263, 1.5149370200038423, 1.4372796581106564, -0.30938307613562577, -1.204568769813703, -1.0516420904563044, 0.8398329432054346, 0.13194777830359072, 0.3463467155585902, -0.2109833912287331, -1.613833329244747, 1.907934698795759, 1.7011850451933932, -1.0082158261845948, 0.7670675497996933, -1.648659109924051, -1.2172328063318907, 0.03541951739056026, -1.4489252020333843], [0.8559478376426961, 1.0801726300158765, -0.42981478214330027, -0.5793385220957288, -1.076658576481508, 0.46295658105197335, 0.08911515646323354, -1.440727196875053, 1.7074920071149475, -1.9386882668631449, 1.8733998049249148, 1.290509326702249, 0.20980078874926011, -0.39331983687172745, 1.160212738975643, -0.3557734433566986, 1.4051800121177611, -1.286899275228906, -1.4623768141157019, 0.18087497398467933], [1.0800016818752516, -0.5771937338761233, 1.1808125092850186, -1.9673912792753354, 1.3464732992261492, 0.3330334310425669, 0.7920415998400974, 0.3135403516806643, -1.4888000105436086, 0.043279205494390904, 1.4313922087529996, 1.6935395802700857, -0.5395605999633903, 0.4168092832106489, 0.7113660796263672, 1.7640002947228037, -0.4820769899680193, 0.6941801380496817, 0.24267872796114176, 1.6365065351517338], [-1.2607428332623982, 0.30292948561531485, 1.0231809736540258, 0.9703659068413732, -1.830645558020013, -0.7988717608456479, -1.1926352077556523, 0.31655861620605963, 1.0864278241980858, 1.2235344423804757, -1.978248588676263, 0.6747499874629033, 0.022197138809809225, 0.34777091770254076, -0.9285506720157621, 1.0091575671912345, 1.0389153552797818, 0.5172469244592235, 0.11481867300009085, 0.30023327527456845], [1.546789610971394, 0.9591402632333792, 0.2754810513318686, -0.9304996564444639, -0.6178333975837309, 1.139905778212602, 0.3956919974557387, -0.05968280274825455, -1.3655175492614129, -1.4708300673135652, -1.0519293183436362, -1.1116636790439838, 0.15482703058185798, 0.3046635155535711, 1.419762916146726, 1.7143497221354438, 1.1237311363878426, 1.5984639683174646, -0.46904414865995614, -1.5577656734480287], [0.14439224983607035, 0.4906357023020824, 0.8447805805242514, -0.4538396917900904, -1.3429829268172369, 0.18950349672833866, -1.9913654500972435, -0.783715170497667, 1.4173011009398797, 1.5887518193408465, -0.4867443899239441, 0.7929289178333954, -1.8880750180203978, 1.0102046269868437, -0.6567130495478217, 0.5257570034977119, 0.7312098671997322, -1.2535711810906691, -1.026782608521187, 1.4812322070745476], [1.1244226477796655, 1.7313331233891351, 0.8967338501816728, -0.9799155586714043, 0.2775660120994172, -1.1161478446312367, -1.9104113803386182, 1.2313780689813267, 1.7649656494090449, -0.8653408838075536, -1.0070834394633765, 1.8673684628323457, 1.3807300263656668, -1.7623816443418487, -0.828374183916559, 1.7923886459954637, -0.5982830938515455, -0.9681459422425007, 0.7084119227651033, 0.5422049366635107], [-0.33679422434057527, 1.6390246382873004, 1.9333609168682848, 1.9871028634300747, -1.8929673698077232, 1.5166716775945814, -0.21216776967645723, -0.986481771814284, -1.3031924915783737, -0.16861559674386672, 0.43096791882098806, 1.431184711374243, -1.8772841362748731, 1.2581528908336344, -1.8176144057944348, 1.3781473084691158, 0.885258635437495, -1.66509899520012, -0.2847366537211471, 0.18552312294642137], [-0.06974455807832447, 1.9236103059940688, -0.12866606338906816, 0.3317838110404616, -0.36666844757354466, -1.8941094117719963, 1.8480475891643127, -0.47254632887326675, -1.1452468607855062, -0.4994288710945889, 0.8220794975036503, 0.319478375817404, -1.865490358277028, -0.19397061305169983, -1.5940417112907808, 0.9618737345360318, -1.9805032439669121, -1.2852857541343434, 1.5148132306659279, 1.3681698958298152], [-0.1692527775181083, 1.845352143746084, 0.31998326931038434, -0.33611728995053713, 1.1666740670836808, -1.5612233258759725, 0.13365645018715844, -1.8486543698377766, 0.4192510239734557, -1.7040551284690486, -0.3211506893698517, 1.5466782461969908, 1.9322191715171972, -0.9643452139686559, -1.314723359994066, -0.09687671815382215, -0.9759308503528126, 0.1701878834079249, -1.8321909491341968, -1.6288599921426994], [1.1609666559785392, 1.5137560087108186, 0.7011464148109248, 0.39523465948551006, 1.8640118191547792, -0.5752663651186571, 1.0140365043130246, -0.795533075029283, -1.2148192657082317, -0.3073358231455381, 0.1614447902341265, 0.15525194031204714, -1.5164188381258588, -1.3322098813800167, 1.9437563683559413, -1.3341566178962512, 1.3087533062985086, 0.7126483889609925, -1.4629967252314988, -1.6944718338685738], [-1.1978587405804388, -1.5128506831945647, -1.5141217568920617, 0.5717690142930136, -0.2642150037908677, -0.5376856533162271, 0.9561532754413999, -1.0812348015447455, -1.5931644421631543, -1.0354928199371938, -1.6369501536422573, 0.8820669754967705, -1.432923386318945, -1.94379685687134, 0.5095624671192351, 0.6088417600244327, 0.8454314286257962, 0.7906944056480296, -0.11602532980366576, 1.3316322233136058], [1.2468704074306936, 1.25224484859893, -1.8856693034758196, -0.6433884436193154, 1.2039087680776261, -1.0878606035988407, 1.9299660019101093, 0.9844674232123398, -1.5541330351771059, 0.2884817301138698, -1.3131955703772746, 0.025114870529790334, 1.6555922000889374, 1.3585533313346119, -1.7732483037299835, 0.5148374043135076, 0.9355549740452251, 0.3757471259720955, 0.11034637134549419, -0.8013978457467208], [0.9380237099217132, -1.3430317048644302, 1.357100192952649, 1.4814806895635102, -1.0220527466716867, 1.8068798130343664, 1.68432411378252, 1.2790720598834673, 1.8385657590083797, -1.819996316127793, -0.42248454446702377, -1.9526982931315593, 1.9383422675768203, 1.4818363312932399, -0.40321479831830587, 1.0015037429467815, 0.07270949700961005, 1.2729718806118213, 0.02369044996966796, -1.0641282085981443], [-1.2319290840887667, -1.573365295760234, 1.6276367291287008, 1.2492673143063344, -0.23405409998890825, 1.4540172408117429, 0.531372420265579, 0.2088035148247025, -0.23516694545768102, 0.7364349849391125, 1.5613111393452983, -0.17718472459359624, -1.8359820108249716, 1.4185595363466788, -0.06938868622661909, -1.4647390346637859, 1.6280960281899182, 1.5585939073680577, -0.919210087455959, -0.6674007262919543], [-1.6515943253325638, 0.7738580363723582, -0.3369975807893426, 1.8379262130149585, -0.20918188906399404, -1.082654814399581, -1.3115855715235392, -0.049047194201722544, -0.856362114238082, -1.2862594522179478, -0.3434932845017684, 0.5885291446119334, 1.6501395413879676, -0.7591980658740125, 0.13894422568673992, -1.800655593618965, -0.8970937027940349, 0.36159849224667795, -1.7891263774970878, 0.7188508261430626], [0.23656757404143836, -1.015961869223112, 1.9484203771208262, 0.3508139645118802, 1.2511269103662341, 1.4615298726658401, 1.1278710454999232, -1.1069312487083898, 1.1056382804399116, -1.96695258616352, 1.1430378862965949, -1.3517126387484688, -0.2806011848864087, -1.792115936373202, 0.10992595701397256, -0.5179102066606962, 1.175578784272524, -0.8986855237714657, 0.2590467939831367, -1.4445919865906824], [-0.9151978779415635, -0.3456409538689318, -1.8072344376749165, -0.5444987920018001, 1.4854576407314095, -0.6498010740212861, 1.322315157082182, 0.008053706024648832, -0.01884111445994341, -0.03733298467330437, 0.9916326457783455, 0.5144184787819861, -0.44340564473037336, 1.462863056195903, 1.1978576991773897, 0.01840933017829105, 0.06234075570608599, 0.28318513048032745, 1.6221187511187631, 0.7959134152491099]]}, {"bias": [[0.7024330428472495, 0.8749375167971365, 0.9995673555086313, 0.23236124847340978, 0.7631844837638126, 0.2851384135357238, 0.43402922662607146]], "weights": [[-0.6047836812374396, 1.2521801607939622, -0.840434339643866, -0.9200346710533926, 1.0543695728185574, -1.0640330324050287, -1.9794813758425764], [-1.8151270276328462, 0.25912596379148534, -1.0070800815598324, 0.03619570205349021, 1.1731467464442011, 0.8428022732327802, 1.1143864605346612], [1.8847284753144695, -0.7947849426507481, -0.371817180993089, -0.13876049166802717, 0.4762833328400813, -1.533799415213546, -0.10973633555229512], [-0.5263235074993506, -0.17190778104062687, -0.6598519919424066, -1.0953436175070514, -1.737060439486548, 1.5279591507957289, 0.7471902955799092], [-1.0259434421081295, -1.3502698992575137, 1.5080178825732071, 0.6389653434042217, -0.4477357769923378, 1.3579810179578158, 1.7885621831602014], [-0.29542831291350424, -1.5999923900809416, 0.5898811647647868, -1.770172047315854, 1.4015743460686148, -0.9754663313443133, -1.256380077708827], [0.39158308108769324, -1.4775818192837749, 1.9971031343990964, -1.6980707822863157, -0.7195477651223094, 0.7323159957467751, -1.8884482839191716], [0.9028691493687693, -0.49838376564809694, -1.1407378834828727, 1.9368238769910513, 1.960197573769694, 0.3082180630894178, -1.396905082083665], [-0.18183918613159866, 0.19387421944508176, -1.3464214859063297, -1.9466785769194042, -1.6984475595828878, 1.3885697266558865, 1.097002119855846], [1.820260526394652, -1.1281898792503298, -0.5774836453486913, 0.7251098774487281, -1.4312907142706615, 0.33071465725006366, -1.7617017161349056], [0.9784574321071666, 1.9027150254545835, -0.230696695282663, 0.5102797683589677, 1.3824513849843836, -1.779136321800002, 1.7928521739666539], [1.3485266705219323, 1.1683962880035557, -1.5625394454889037, 0.7161198012749863, 1.3387934257398921, -0.0532637318608673, -0.09722205560923936], [0.5303589613975759, 0.06335373520004906, 1.2262538925864321, 0.3291369860872635, 0.3110881254400084, -1.1429218908783416, 0.06499003181825547], [1.5734997563019473, -0.45080759233399936, 0.9359735190803131, -1.0983006958486068, 1.3207157758060895, 1.2259271937519136, 1.5868948877887457], [-1.163450990225078, 1.430660237760423, -0.012218195578248547, -0.11182054512878814, -1.5665974386312045, 0.9375488673277079, -0.2704755760120552], [-0.3941133923653659, -1.3317482637212392, -1.6389648841421325, -1.1722363835569722, -0.6250770791237135, 0.9763825216440436, -0.8858953357276733], [-1.5500810436922476, 1.688306332664279, -0.7357247802684843, 0.26296820753869365, -1.4924397967016247, 0.14948080068631375, -1.307917022675794], [0.03392818608636183, -0.8311088588631126, -1.1893931563742806, 0.9991468697845938, 0.9872127130344657, -1.831914380825609, -1.6762180333354322], [0.05006885437106545, 0.6055046593051716, 0.5810497360946969, 0.31221846879615134, 0.18197002354633174, 1.1150194407021368, -1.280782634206599], [0.18606966873501385, -1.3775309485141696, 0.6375397209576437, -1.5353002760185417, 1.008567796368201, -1.413525252080217, 0.03509130165785912]]}], "input_length": 17, "output_length": 7, "hidden_layers_length": 20, "nb_hidden_layers": 5}, "color_name": "firebrick4", "file": "Ken", "population_number": 440, "sprite_width": 120}