{"sprite_height": 100, "index_in_population": 17, "neural_net": {"hidden_layers": [{"bias": [[0.9472258712996114, 0.38716524249226025, 0.33682217122934177, 0.08733685892953191, 0.570224540317966, 0.6714734586289957, 0.3395029455153262, 0.15527499065108896, 0.2359139385925484, 0.7737257109698714, 0.0866039021363958, 0.8514479792514569, 0.8769122568730916, 0.2000554839231441, 0.30868823274347734, 0.4091235157748361, 0.2828339097305581, 0.034863415128315145, 0.06866785466102443, 0.11696776077650817]], "weights": [[-0.7894467737978648, 1.375681931081305, -1.5122088415843438, -0.9737674844832931, 0.9001821169814992, -1.0526883055604683, 1.2996159273382637, -0.7030828488587892, -1.187049128924222, 0.5677485524124362, -0.5947366709964643, 0.2504532745416155, 0.6273409860078387, -1.1349795915398158, 1.62416147153139, -0.6420957872076571, -1.82338339426591, 0.870692163999879, 0.35363448804750686, 1.1665874546862902], [1.0628322755892285, -0.3140477983910168, -0.017151572258462977, 0.03836345795922602, 1.5282378460175425, -1.2114970392474866, -0.3835678797806592, 1.6840003683172884, -1.0508252103912592, -0.42195687667600357, 1.86994164112981, -0.17539912415840053, -1.5603956619044874, 0.28565545158707817, 1.4318714559430759, -1.3127826641915363, 0.10997291647373464, 0.8071013011646948, 0.210473950031433, 1.873555605561966], [-1.651175969830577, -0.4386436732094148, -1.5616412232387442, 0.9056416991734482, -0.627466195395749, 0.11582460474784506, -1.7989502883920383, 0.4329532278365513, -0.7093533436963728, 1.7000747417993374, -1.907304000469201, 0.8168363302709438, 1.2649424190420593, 1.9526160371366355, 1.3583623718955726, -1.8890974457499001, 1.1129818745736673, 1.906812334732186, -1.2836137722504404, 1.0450205909736958], [0.5226613189972373, 0.5215363205049628, 1.4802297857152649, -1.4390323939373006, -1.8653379483983628, -1.0975552208377142, 0.30807536138574365, 0.16006609436149155, 1.215666735361189, -0.6597404849530415, -0.6566231057832095, 0.7071855010423622, 0.7044193171718134, 1.1135132161135304, -0.9269323630404886, 1.498331287514827, 0.2410116729793783, 1.6076989830285182, 0.5935335974245568, 0.5690186227957685], [-1.2201094266952426, -0.1655986174339268, 0.11775587848308522, -1.4842105842303188, 1.7818427995862445, -0.4915384766025239, 1.6420554292536398, -1.5894277580337501, -0.5619543541141705, -0.18219115731648916, 1.5629997873400647, -0.5144662966044962, 1.4258626432268957, 1.823478408180355, -1.7232562104536369, -0.2117674952898958, -1.6093524307557154, -0.18696606467748644, 1.5350239127476835, -1.1119463174083672], [-1.9509015608904163, -1.9022406306891777, -0.2669122815507783, -0.2920200574560692, -0.379062981336979, -0.042627508921494695, 0.904253896395554, 0.06430095225583132, 0.14074664111910895, -0.1402644241507729, -0.13399126992191368, -1.1062126392172713, -1.6708023499051414, 0.8843459068195556, -0.8886252500166236, 1.369111771535541, 1.3831926071363734, -1.9244234075740962, -1.6821431328147534, 1.150338220004318], [-0.34546098158897465, -0.9376987680305264, 0.15671975807378846, 1.4142918786498693, -0.9355238504034586, -1.4443852918289677, 1.7823578250516352, -0.23042870349634414, 1.9476136934925958, -1.938465742946629, -0.07234836245527676, 1.8764984298874627, -1.522921255829385, 0.965183114195594, -0.4897749862244125, 1.291425339723809, -0.4275170582581618, -0.7899756188272704, 1.2310642626108486, -1.0036307629078958], [1.2075525987158864, -0.006874918462252744, 1.707019018982654, -0.22395423128442538, -1.11553647311275, 0.7257765708515405, -0.5406995716408538, 1.5473820685488273, -1.4408464161742973, 1.262198573261724, 0.36371850802458194, -1.5095595248094735, -1.593150381787812, 1.0271486910973846, 1.6396171858864617, 0.17519202330222106, 0.40909034258146315, -0.3874240278022798, -1.8388949318163, 0.758064593811568], [0.4124531086880574, 1.4750877509552636, 1.1349670436836083, -0.39697047060758495, 0.7782879461954084, 0.5093399654014688, -0.42819517713004673, -0.6863187329624814, 1.0124945635688922, 1.734593930700806, -1.4757743616871348, -1.6521714091655295, 0.5581564657600073, -1.8880368445650246, -0.8573132096764415, 1.337213139246333, 1.0789566669624429, -0.861463171476184, 1.607256222840285, -0.3845157151387353], [-0.8615516182376259, 1.0759440791192354, -1.8143229145751931, 0.4572786320836193, -0.8371112628663302, -1.086871098653063, 0.6941697119335553, 0.41622233352478233, -1.4189386431916278, 0.5539604652530477, -0.12639808030186872, -0.568324791436984, -0.8895052020990093, -1.6256170408765311, 0.15928928179687674, 1.5740627240474065, -1.8077333407269127, 0.17571115354786926, -1.2331581405876109, 0.18350469864713004], [-1.3735371299198453, -1.155927658891196, 1.7887996253466123, -1.2671545753371434, 1.2386559589000865, -0.14457176668793048, 1.1361894565721857, 1.1063879631671067, 1.7883735225539796, 1.0628022837414823, 1.8536755544008807, -0.7749244568636398, -1.1391720066550564, -1.8436986187293942, -0.7854894662840173, 1.0816815175440095, 1.321226029361089, -1.4556209807494125, 0.8883626488483563, -1.9070943477535072], [1.408056240195379, 0.5381709094005136, 0.37217973065659926, -0.15230038494715537, 0.11694192471567666, 0.4650935574771591, -0.33350970062987484, 1.9402194977928366, -1.7827039477881166, -0.13001247825242235, 0.16688138093695315, 1.816214846968812, 1.7128650940781198, -1.9764905098240773, 0.28035942160981886, -0.4414306371826684, -0.5451631743913796, 1.1864535186258953, -1.330429764075173, -0.8379657766095878], [0.6686536631373192, -0.6233093272089723, -1.0527705595400225, -0.47016608557785045, 1.8885900055760763, 1.0763196099547816, 1.8377282292568902, -1.2128079951375077, 1.4015210118802885, 1.8302046624746087, 1.4651177967148103, -0.46681441807317636, 0.9055266754133107, -1.5923138947233912, -1.2380887954305404, -1.790147218533201, 1.639485625490508, 0.7393979985721346, -1.0990063479038534, -1.7250791995592727], [1.5840672042957973, -1.2868376384087838, 0.30343920218662834, 1.2881050133019998, -0.10494259438101361, -0.9846450702283178, -0.042983258138342695, -0.3352141078700388, -1.3226275094342923, 1.9475070465373232, 1.425737309227821, 1.9977824077567141, -1.792229607314618, -0.6186727491606634, -1.741382615242014, 0.322158945592947, 1.097780735629867, 0.7651431639259689, 1.090167707812912, 1.6205054741528664], [1.4155568769182318, -0.8016930319404452, -1.4955234263683392, 0.06195612409868412, 0.6368855452479876, -1.0650141478405248, 1.977850526244739, -1.8181303761000924, 1.8752252799668243, -1.0621488538578383, -1.805483831800092, 0.6805353017008384, 1.7611314807651985, 1.1310276835491986, 1.235139742664367, -0.044592696158193945, 0.11390060418268488, -0.7418331538168479, -0.4074136779558275, -0.8477364843845066], [-0.5296434915656767, -1.7938244647615877, -1.404954128326915, -1.4950547205541902, 1.4817717283618363, -0.7501852303797176, 0.6327888616242126, 1.5653064683991218, 0.7759323566340393, -1.343962124412796, -1.510494670548963, -0.6473533996519647, -0.14576439161640975, 0.48407849052743845, 0.9086877305512515, 1.6618156887778097, 1.7038842778209498, 1.5987904922006217, -0.870773377498689, 1.8143020361257527], [0.737644290759699, 0.12328341938240461, 0.4119183418552921, -0.7327668041964484, 0.47532567262613457, -1.0092862124744713, 1.6238327548166, 0.9309142458595581, -1.7193430663937534, 0.38837424193369996, -1.6238448987839424, 0.8109436072033618, 1.9708387386938022, 1.546410567465485, -1.0016696848846514, -0.6382878724414107, 0.6015109300645403, 0.9921043934838232, 1.5871563311924892, -0.3524018587101696]]}, {"bias": [[0.9650229628272684, 0.802751822482664, 0.638436935619078, 0.5194986266649118, 0.245634335906327, 0.7861133492888966, 0.2668468773393433, 0.9635279630268603, 0.22467990579022745, 0.9508130504219854, 0.9633854584531768, 0.7571559628313083, 0.04140664183766418, 0.30831834732496677, 0.019566976347839216, 0.9653271665479536, 0.9975252086085378, 0.23755708366822215, 0.5092046206138733, 0.2989883357006078]], "weights": [[0.10304545789396036, -0.3306517959941626, -1.8615106518879556, 1.3826814038987676, -0.7957935251923574, -0.6673488002474715, 1.1044917102248504, 1.416007364190183, -0.33566875651454486, -0.424304927990367, -1.4224520179071445, -1.651762154610196, 0.41444636801692436, -1.2865087381235472, -1.6875352566270791, 0.16033883983927533, 0.7953448344014462, 0.12688336733757577, -0.2364547809986317, -1.6550381315272156], [-0.12588032847650465, 1.2424565550464028, 1.556322567252617, -1.9230634048288469, 0.3501145107511343, 0.9091466077336023, -0.48803555200009274, -0.017165221828649102, -0.5687999568192965, -1.4044675243042568, -1.923544166384744, -0.7038072635179615, 1.5028124278405803, -1.1886681249756537, -1.1694765146326334, 0.7181533418607886, -0.4280644720949818, -1.411339917488791, -0.6121244364928411, -0.6596351857224874], [-1.9737904079051942, -0.19157367489562427, -0.8783231169653458, 0.47626687908726106, 1.357828869168077, 0.9184833156295915, 0.23915615715950445, -1.157685229156193, 0.8592141947325, -1.1198704499403158, -1.0073904891843322, -1.259772423223954, 0.1520047647831344, -0.41720555769020296, 1.0571266229267606, -0.9896129487205947, 1.7567168043264805, 0.829617762017929, 1.034063148044467, 1.9296535313594219], [0.7931398508364769, -1.8575496324773373, 0.6985472415689991, 0.4976805183058932, -0.012064771524317397, -1.1633002743989613, 1.4732950815370067, 0.8077170072888435, -1.2910331649513633, -1.754981221250961, -0.4296778905468863, -0.7212863701644769, 1.9305826694686221, 1.9317825525602093, -1.6446360319692959, 0.012328061186744232, 0.34980860507491585, 1.5429712577832757, 0.5177239574582662, -0.5702980019674411], [-1.795799346902331, 1.5886599658082798, 1.8534355477115745, 1.222918639559735, -0.35528782889175936, 0.13377696804130013, -1.105150272701351, 1.045007855202793, -0.626089313990017, -1.593113563578357, 0.5029455318394356, 1.753784168536153, 0.410261596190189, -1.9418210421887316, 0.1463274403942174, -1.9231524070940327, -0.08920054423202428, -1.4465357893588582, 0.7951926669869258, 0.4558157778193124], [1.307896639157602, 1.644645649304735, 1.989883841456495, -0.5109025904537612, 0.6981820411044364, -1.1703662781874598, 0.6521639791494342, 0.9019291465547457, 1.0459917257138045, -1.6257701152197273, 0.3019100270110626, 0.7617241714122676, 0.9317928855644335, -1.521163117179991, -0.366491815195507, 0.7722079264924706, -1.5658912111528314, 0.5911765301273348, -0.6039298663500121, -1.022917604324539], [-1.2753691722439666, 1.0828578815401793, 0.5833337454345595, -0.4211775718405697, -0.17250728670913462, -1.4985412846986867, 0.9607251826219918, -0.8616905983276233, -1.0103980111959343, -0.7882253333047977, 1.488896811680064, 0.17284609308811305, 1.5871251533174204, -0.7305970255732013, -0.24076310585291782, -1.3970587495680902, -1.5918633591949591, 0.38953896430106116, 1.569686701044592, 0.7254277135021541], [0.09289391404173042, 1.3411525350898108, 1.7971805570463766, -1.9994611990218303, -0.607371871803875, 0.8965832248038677, -1.6476040935273368, -1.5404320098255813, 0.9362088719252815, 1.5649879525331132, -1.9709193925159458, 0.026018935325117898, 1.4918830895689403, 1.0012001638946244, -0.39424935517432846, -1.5074396360457114, -1.8304596393396033, -1.8323400640153031, 0.9448255936782513, -0.3013050018680703], [-1.609425757342616, -0.18590864806888918, -0.6698187634215826, 1.9930736282369148, -1.942218477877192, -1.4808336411545424, 1.9313471112425922, -0.558098582206016, -1.4860394879091596, -1.959031729064351, -1.4905609318456272, 1.858671433267919, -1.2020332378502072, 0.08085154484185653, -1.3046290609801865, -0.3731969390395884, -1.8590686872430164, 1.4795537089860331, 0.9472715533044305, 0.07481652910007508], [-1.3952826685691364, 1.8842761253435345, -1.5881129676072199, 0.7693004185668184, -1.393699984016746, 0.08268322312867982, -0.04817518945593635, 0.28330698091335105, -0.4071503249837023, 1.7393724374660988, 1.1453974259818178, -1.5615941173605368, -0.5441574569374219, -0.4261360263284337, -0.4902645659316365, 1.3678756421059406, 0.830288841687115, 0.37724883914501994, 0.7612357536211007, -1.9376261073980916], [0.8794716952023949, -1.6426852491487085, -0.38925244620059063, 1.3040245281370577, -0.3046687016056091, -1.5258838539396233, -0.435667306821268, 0.854207629359971, -1.4106901555178246, 1.9502873762339523, -0.23288847085205866, 1.1223509746865585, 1.506037293507212, 1.2502955891606664, -0.020609040473167806, 1.0860652261918258, -1.879443475126123, 1.4574616939734932, -1.7335277420000819, -0.1177505687569953], [-1.5968300956143953, -0.9639390230920788, 0.3154257780328926, 1.016886303578263, -1.5062883404221261, -0.9659915339605032, -0.3850741605434207, -0.409715573997794, -1.251874300354617, -1.9402998694193632, 0.7063722266308656, 0.9013124017349763, 0.9277682739929269, 1.0483547964895288, 1.4695559559535818, 0.96074311239258, -1.089182704360268, -1.8286866167192866, -0.6689111326872088, 0.006635848308327308], [1.3738734276686806, -0.664575008310242, -1.6171593196177332, 1.5159979634017313, 0.9075890819641224, 1.938295341676615, 0.602102951321319, 1.632218871954764, 1.1823377722706607, -1.6051160198692025, 1.7261300261357237, 0.4734408536232073, 1.7382281042450907, -0.9746267413905714, -0.6413857293968137, -0.8491538765577911, -1.829746411999392, 0.2211762581759804, -1.673422086574333, -1.5362817744038844], [1.1048775951431855, -1.5942467851703235, -1.995975622098391, 1.6201676918688839, 1.8516796112131715, 1.74766239731025, 0.7339229571899342, -0.38313079591574795, -0.10351853277813206, -0.8173291319860208, 1.98239159034684, -1.4949278061113778, -0.04971877243778389, 1.7948276291288057, -1.0786905680923207, -1.2801868557188727, 0.1741017767161841, 0.6962931213044783, -1.423335865070158, -0.5611334799955627], [0.48717994193923886, -0.8673293913690094, -0.8128231583494503, -1.8733138236821865, -0.7502202486517762, -1.0382651293708074, -1.7046073276461509, -1.3988614032002809, 1.8926065554155183, -1.7404998315648714, 1.2532090516845167, -1.3239268380394154, 0.07723634387924783, 1.64565453901371, 0.8365009816924642, 1.4856143742711998, 0.28291417668269014, -0.9914370218481103, -1.3673779515005728, 1.317815389684652], [0.4974504936827242, -1.3728482090543794, -1.4298070636746512, -0.4700184533228877, -0.48914110563257784, -1.8380229155566554, 0.5497308463439343, -0.7337099750612279, 0.5531707840906477, -1.8019718701967014, 1.6314987096352884, 1.6372358759663208, -1.5040287804531824, 1.1669275567038513, 0.23896491406730425, -0.049602638594511195, 1.3403430882750844, -0.8833540882639745, -1.496672394206287, 1.6821370800829039], [-0.45825937463037825, 1.7430230759327197, -0.2420815461512995, -0.39775983858474273, 1.7744237548488764, -1.2142931439536278, -0.9604303099205147, 0.9280616729028703, 0.7872546453032765, 1.1904543289357274, -1.92244187531132, -1.3260075291505493, -1.071999727969624, 1.2160431766754747, 0.13331753428941884, -0.6437229079458389, 1.829279317156923, -0.07995217542613808, 1.5240288884272095, 1.0557289494146365], [-1.634708886966619, -0.7793750675478575, -1.0186737611149308, -1.5693136205736322, 0.49962736150860154, 0.6950399010115551, 0.9934886621186121, 0.8145793335791933, -0.9400003574835316, -0.41792624146429347, -0.9764085092377051, 0.662641349423235, 1.4703817309002312, -0.7574050612245662, 0.14055592550960672, -0.4528519678296199, 0.8348939294873867, -1.76676062535627, -0.9038519262119475, 1.1859247774666604], [0.9562808119718951, 0.5686674282440594, 0.13435473484653215, -1.7339024485018415, -1.7694121167561563, 1.9550040002440277, 0.7048522577808956, -0.586285897493954, -0.13385182451680455, -0.9127517139054686, 0.43654539884930577, 0.8252131090465564, 1.287959174516974, 0.19399310073096387, -1.878847681159285, -1.7129053705647124, -0.5309777908678122, -0.5736082644675009, 1.5339142447912555, -0.4392767690619346], [0.5107672543813475, 0.8656060371261325, -0.4929926192342373, 1.9162857075525679, -1.0318727059760349, -1.5553881304154409, -0.19837710268158526, -0.7561514971853929, -0.8112898536340354, -0.8257025868687475, 1.621808460508816, 1.2504726281259306, -1.0498337273287226, 0.49031796774544434, -1.5587783600181493, -0.5770128249706485, -1.9720264454722263, 1.338662959075295, -1.6819025470292024, -1.1670185618411844]]}, {"bias": [[0.029390458518799067, 0.6766101042362632, 0.9598267776852395, 0.3309966819172101, 0.24139953050189333, 0.11853311538974931, 0.6603451158150975, 0.22483389068789006, 0.5296790382116865, 0.9588191953111354, 0.4378536513111846, 0.8594236847845106, 0.15317236232909048, 0.6535709627542551, 0.8032550469501982, 0.04715626538196027, 0.9028008739072486, 0.6676161040588007, 0.4874109333943174, 0.3095611533736238]], "weights": [[-0.9218482572821514, 0.7552193110986414, -0.4318545939856673, 0.4838015709698329, 1.178601731622107, 1.5758707686759692, 0.4859529670607965, 0.8094032156554443, 0.9784573001730896, -1.2045806864210262, -1.8869428703565672, -0.8625701290377563, -1.3591431194049721, 1.6868028407126783, 0.9101093771277267, -1.0280315559664768, 1.9603886641126338, -0.8162155059946286, 1.4903958525104057, -1.2568242532085518], [1.765667582572228, 1.7320789776415149, -0.8571798839006877, -0.5556955458328581, 0.6799198889517046, -0.45605880468520166, 1.0242419820731778, 1.1509714376637623, -1.5837889258082698, 0.32743160637488344, -0.7964293906156201, -0.40455831179348634, -0.5856194550940907, -1.9775547226085357, 0.7561729954052083, -1.6883942110517416, 1.7939569644784048, -1.1416947584811266, 0.5241550400975443, -1.6297652009215522], [-1.8894249168127164, 0.962682548457451, 1.671562406277618, 1.0066129664213923, -0.953394411194568, 1.3346312650690906, -1.5015483128279654, -0.3602828610794675, 0.5321169716354213, -1.4357772941885658, -1.0081074570558006, -1.3373426134264577, 0.7226843163504393, -0.6738372370859715, 1.7400157072516556, -1.18872318274102, 1.481298475807285, 1.763953351801577, 0.19990549974032046, 0.14784422382315565], [0.17738932133149454, -0.535893034381679, -1.8143047860614958, 0.9101836424379006, 1.47385076888762, 0.7375440483495712, -0.10639999543384704, -1.554042088229108, 0.7417848177310202, -0.9240042697697564, -0.9406888896692869, 1.434823609555572, -1.725311977064767, 0.9918228933384059, -1.197070207180475, 0.37536470579408343, 1.458639795051321, 0.2956861085616578, 0.31903132659553846, -1.01239323033289], [1.845612059725965, 1.6903438026380608, -1.4642571129725845, -0.8881928365502181, 1.9000356479040068, -1.6512101851152736, -1.4123644651441896, 0.3783185929379731, 1.7126050302101223, 1.9590513948993928, 0.3116162537194884, -1.2760137681873176, -1.3782609410786608, -1.1097742546894795, 1.9841227687483594, 0.3535843723834744, 1.622172417497501, 1.7501109825814907, 0.2807263668289588, -1.8027731930920767], [-1.292736703304656, 1.8220442080634331, -1.9503692040129912, 1.5942293264052712, -0.792123211575559, 0.3995297699205649, 1.5560151487011225, 0.6570893564901747, -1.3758105035840305, -0.28728131457660133, -1.3492429542416282, -0.6323287797137302, -1.3565409085059619, -0.10553220821589715, -1.1836489613169023, -0.9040628691192323, 1.8987260341970584, -0.47074458631881333, -0.9031637111156687, -1.9917520846757553], [1.3481423031559334, 0.40694812655897694, -1.536162627487803, 1.9880052165354, -0.843689475955081, 0.07490371821095687, 0.7428098774242549, -0.37696589122953705, -0.7798797677559688, 1.5167561972428123, -1.1989951351445218, 0.14358530298116978, -0.24295095531278443, -1.2158533082263348, 1.088587005633412, 0.2612090113121526, -1.9861364354359337, 1.8876292196763829, 1.8071019090015308, 1.1898162085801571], [-1.3843902755565582, -1.0397892928022165, -1.7145688086885849, -0.5995745703234534, -1.8665778293251947, 0.40133419690620054, -0.984044119140953, -0.8542825134145189, -0.07900665549226105, 0.05865996020945685, 0.1920176730526335, -0.6449738210329405, -0.7909526409094361, 1.7583037573839424, -0.256207478996771, -1.937044022265034, -1.0770464750220121, -0.47662777396318745, -0.7180149924008239, 0.5948926323444401], [0.9855455281777026, -0.2797116245740354, 1.6066522501212837, 1.7802799088362602, -0.08506518799453966, -0.5221453527013131, 1.8612499517829377, 1.0062162174216471, -0.9397827812690069, -0.4733390038521921, 0.7424793563671339, -1.6666115288526027, 1.9412701154980692, -0.1751395759848049, 1.3652195740847501, -1.6093059742778948, 0.2506609493364196, 0.7169171257840303, 1.1703695098371405, -0.3235881630172237], [0.3426989106275653, 0.6551619476711723, 1.6933577731218596, -1.7452427429007367, -1.0633482278624147, 1.8994604216535742, -1.2662772529181359, -0.9690187034351379, 1.290876526814511, -1.9965586542260567, -0.7957591254824412, 0.6708290245493496, -0.6558090321337757, 1.5786024926174211, -0.7773495322065482, 0.08767458095594405, 1.8783209713327205, 1.1083969876774655, -0.49636235112832994, -1.15664762357373], [-1.929731103804841, 1.9783985818826344, -1.2955883722314807, -1.8575881718807898, 1.3160109496081978, 1.2138275837159185, -0.6098055781535003, -0.8905958353300347, -1.0644225669494056, 0.2890406129728156, -0.3530409608593881, 0.3092267349136759, 0.9240526383091576, -1.3310274057285252, 1.5399709710003227, -0.9481041402255892, -0.6012886293464801, 0.011791884742848868, 0.6660211619902889, -0.38573832090272475], [0.15689033491700277, 1.4983227652544486, 0.22151453127939869, 1.3663122439121782, 0.03786661248409784, -1.2143251964950843, -0.4787259337921861, -1.4505677005646684, 0.44250770518417504, -0.3641369032614472, -0.7094856223861807, 1.6897442573321309, -1.3736889100610519, 0.2003163693828207, -1.5925084601890145, 0.09927732343959628, -0.3729530649647357, 0.8984151972034269, -1.55885595548534, 0.35628319335795977], [-0.4589945699440374, 1.1015696338233618, -0.8250063246926946, 0.5648834457620708, -0.18484625962415757, -0.4454235199983714, 1.4931826264151704, 0.9333691350777737, 1.2427499803913529, -1.103446959158192, -0.45492567747428225, -0.5435207101072561, -1.7366849736666858, -0.3533356735298985, -1.3149218990278606, 1.2509918620404705, -0.273579536079922, 0.26269766743297485, 1.6245946051842504, 1.3403502208345675], [1.6586042968779524, -1.4581137780102504, -1.1554355586087768, 0.5472790666839589, -0.4483895812290699, -0.6451346855986508, -1.8042104073537457, -0.3263409921485181, -0.5812227708567179, 1.6059106275427175, -0.3213761608941348, 0.9522439401824441, 0.256751201570784, -1.5434736562297031, 1.0087201085489386, -1.9516469064083517, 0.8711710234004308, -1.5529841067116714, -0.42972890033669175, 1.3876185988795662], [1.2643254919067068, 0.010907312344651476, -1.1733922585826018, -0.546549968187962, -1.2750957764229547, 1.2337897500998665, -1.615835083433216, 1.0839806177044098, -0.842738935262668, 1.2217880097872706, 1.7831401557686606, 1.9270665684021098, -0.24915937192948956, 1.7032042014542297, 1.6710833336140811, -0.5693244034821734, -1.9363049593912045, 0.2860194399140972, 0.2105485068321662, -1.4639397210441345], [-1.1408783164734957, -0.8448081823192584, 1.8585177155529236, 0.6231489455805108, 1.7909187305145258, 1.4886025330765182, -1.8031964572657655, 1.0102461134337966, -0.45298162918456164, 1.1088517822915307, -0.2195208339493444, -0.9878306027204071, 0.7118314013045737, 1.4518710062547262, 0.9321651081013287, 1.8708957797186851, -1.0404244998425738, -0.0885487782685157, 0.31166734947860686, 0.16990159709134556], [0.8157289142952839, 0.8342767527394681, 0.30662904005003044, 1.917889402916439, -1.1018186476874563, 1.8476974400511272, -0.2689306310157038, 1.7042094562752754, 1.3173447371245488, -1.6546743570166793, 1.6478770745115066, 0.04933684476394973, -0.7799394908207344, 0.5989411061770915, -0.9962119719566171, 0.21227143595315523, 1.297591241709923, -1.43893032247703, 1.18786187953011, 1.0732546536893328], [-0.18496759739336444, -0.2992418599477271, 1.9023713412635699, 0.34868403970532746, 1.1625788228952123, 1.2524374590891743, 0.30529732403593357, -1.3695599442346724, 1.008091546770474, 0.8888707726604657, 0.3633319131206174, 1.869810412668936, -0.8590268790194169, -1.052381131352616, -1.880933621108793, 1.082508164379854, -1.99256295225008, 1.5096990198289424, 0.4758058429059022, 0.2111167852019471], [-0.35037000621400916, -0.6959799178143964, 1.9607773826840376, -1.3111025156542704, 1.417183806860613, -1.5393039061198706, -1.3886623701680443, 0.6138397552395616, 0.7350731981269436, -0.41439395556720093, 1.5129340176998696, -0.973846007572488, 1.1489702468212601, 0.6802449232943597, 1.1091531976543, -1.937515975827027, -0.0883463881717379, -1.5588813828717019, -1.3559391832002219, 1.3811272309723495], [-0.7022160621166136, -1.699976071738571, -1.6443286104041572, 0.6958603765111042, -0.7507319795227994, -0.5357188657724987, 0.22813244061496007, 0.23458068530969634, 0.23009790264725494, -1.8031653923811142, 1.2608617989523236, 1.6752424134094097, 1.7747278132372997, 1.4578809043672254, 0.021631417322834245, -1.7327300425219314, -0.9487861584532142, 0.07256474372637944, 0.30379259643540557, -0.09743050796023356]]}, {"bias": [[0.3162992272521331, 0.13866526824974124, 0.7708702427152275, 0.3324404132762536, 0.21962607418353985, 0.7708315526203526, 0.7509574001686804, 0.06283232026621444, 0.7118139136362456, 0.811874988480124, 0.9316415630642505, 0.4530353834310943, 0.8982304161144918, 0.768176024605006, 0.5456195268806043, 0.21352120072597847, 0.8644163904181639, 0.4608020006312289, 0.44710384865181607, 0.5366345710494668]], "weights": [[0.9873830587379828, 0.9387779131226597, -1.5762974719909435, -0.9601046321355149, 1.6652437501314123, -0.9538159624414031, 1.3649127323181474, 0.6607255850400255, 1.5666083406855602, -0.3416806219486501, -0.43777392023530703, -0.30478167150156654, 0.9727208978587591, -0.058014376975090265, 0.054430905702208765, -0.01981017756079373, -0.08974813906039136, 0.05432120247891259, 1.0232626882684581, 1.8501966450657314], [-0.7525018614404111, -0.4312134549150177, 0.6920491485950793, -0.2551704306810483, -1.4292187352309043, 1.1125256505782706, 0.4135736767662621, -0.3711147938063508, -1.7050500462957516, 0.3073236756305353, 1.6191546494582956, 1.8014176917861588, 1.3841679418842947, -1.557007308864872, -1.299737290799277, -0.21679866981326068, 1.2660932185484772, -1.9734109345237965, -0.2449058186770201, -1.3305833018203956], [0.8900759108259555, -1.8640947029988504, 0.980587963282185, -1.5267738194429583, -0.3423195545715423, -0.6795794835376978, 1.1466649345821809, -1.291754000795525, 0.4129149926426723, -0.7443150922308046, -1.2173695366377566, -1.1550834718283034, -1.2751763326251444, 0.4726971963754649, 1.5365649428129857, -0.48565165455360404, 0.9758322250865321, -0.2864974627809356, -0.4571422156208724, -1.9008375820972296], [-1.1620975728200054, -0.8986768383622237, -1.8116969625752182, -1.2062530150701836, -0.831383358549425, 0.41235128257979614, -0.9855948659670473, -1.5875891770943595, -0.1473218859314427, 1.4913072972998114, -0.9459281764540957, -1.1408983446995644, -0.8789883817069315, -0.20990023266808455, -0.27874618102754534, -0.9395826591015366, 1.4461004898365286, 1.6906973685476512, 1.7760480569340285, -0.5005539321107269], [-0.5845671246639985, 0.9911910772751202, -0.8124130489252033, -0.9295094552014698, -1.3798257265614082, -1.970472501361653, 1.4132614177056029, 0.3548740057922033, 0.5170790700445167, 1.4772745780335446, 0.29398021824499887, -0.5497665904855418, 0.15201757519229098, 0.7924847847244165, 1.6673832947330225, 1.6380791528681273, -1.9504825922737505, -0.17057543692451071, 0.41280237826295485, 1.6952514130652938], [1.278356821379763, -0.5467024921700481, 0.10155283782519975, -1.468538611496717, -1.050615552711451, 0.8335952047447024, 1.7175542555123733, -1.6816222928413809, 1.2755157786360436, 1.25890509149332, -0.9084908607844158, 0.26584950846183997, 0.7554686321363397, 1.285321407343023, -1.5623276797970487, 0.5546058182217943, 0.8928745952632609, -1.937804534229786, 0.17549473523126835, 1.8425469071513665], [0.30491043338079926, 1.3938579635432982, 0.957321837699749, -0.5839631650402475, -0.04146952885851407, -1.8172354279150906, -0.31898323473522483, -1.7571590291266688, 1.6226331059473056, 1.4016448963343686, -0.6330512773251571, -1.710229275549601, -1.4617192691982863, -1.385230298201063, 1.0595974258122225, -0.8286945072024912, -0.7609719612058043, -1.078547472889885, -0.6201981494213729, 0.0428910955473234], [1.8591820191982547, -1.7113482822920352, 1.5219909523311337, -1.015616450767836, -0.6875134297728445, -0.26936108390344105, -0.2308394142277823, 0.9296234330910789, 0.49044544556668823, -1.6362077489930158, -0.81949122983234, -0.08405154082083666, 1.0907127174492182, 0.9562217516373068, 1.1007749091176122, -1.0744598280272846, 0.04683091944446982, -1.0748440391169791, 1.0103072860867175, -0.5264185806230586], [0.4028577530740778, 1.8172522321662332, 1.5833224094150493, 1.774214631864543, 1.3365144487108087, 0.19974756824568818, -1.884561099168009, 0.05464666965692677, 0.27891878043397966, -1.2709391965064003, -1.8883086123758575, -1.1381568769911068, 0.3561713872226351, 0.6272092662508011, 1.6230671480169243, -1.3994512040771276, -0.07928265750202668, 1.554083578529843, 0.27615341758077294, -1.2849826921281213], [-0.029193189557030763, 0.9044322014926838, -0.8559551612249519, -1.9498486019771324, -0.46246147040774455, 1.213625683423082, -1.2364536975864566, -0.8648775964040261, -0.9415145957246192, -0.521906594132659, 1.566714877580352, 0.72665840584787, 1.55989910229022, -1.9439183815916659, 0.48136898796744854, 1.446799278709983, -1.6516540768863566, -1.8193599166279495, 0.3954490179388359, -0.3225729526877701], [-0.5216676095483566, 0.4858820751862689, 1.5096494495718509, -0.3882433837671111, -0.5400437226473733, -1.3838696628102327, 0.5930596189039887, -1.7813643466835507, -0.24455997606873492, 1.0480977022997924, -1.1197390158074993, -0.8106972076266694, -1.1092447079836885, 0.17800295211282835, -1.6611258858738265, -1.1672329203554215, -0.23930988896174155, -1.4092408448688842, -0.29521546907338525, -1.877986806412725], [1.9342124438088968, -1.7534595641031538, 1.9500292728287585, -0.0528775936288981, 1.1600015100634824, -1.1973098117729606, -0.5613113561057759, -1.2654969147575188, 1.6468576830688053, 0.42953855272517716, -0.7736798766542825, 1.799287789107022, 1.518584358095866, -0.4200072261656089, -1.1927465364056506, -1.3620009725111855, -1.6883056821125533, -1.6886222733036225, -1.3208824949284819, -1.8807248906238114], [1.9173633486648338, -1.6890074339776895, -0.824825990482267, -0.21181142943530373, -0.32268296781494943, -0.3203310176531997, -1.0320814603977646, 0.6193898589821609, -0.1982505399328245, 0.1026573811215381, -1.3211920182817627, -1.006944512563181, 0.9296025126967651, -0.7428700747132804, -0.9711993953261451, 1.2511923740319824, 1.0257008998304782, 1.9578853530102425, 1.0325941367699922, -0.4912265606603792], [-1.5089109826360039, 1.113899344425556, -0.6010805588910868, 1.6159182324022483, 0.4375847737422065, 1.8954623389159626, 0.1509466721493209, -1.8008557422661968, 0.1682996737684963, -0.7899974752378234, 1.107088983728505, -1.5992307628674194, 1.4798582414203114, -0.6719884830930969, 0.641943673116879, 0.449505825552877, -0.41542765105415613, -0.5335015351315593, -1.3777942650441468, -0.7515046090043178], [1.2272548605458438, 1.4130268948890583, 0.3141661888502383, -0.31202282135612025, 1.2496660210438972, 0.369212208697411, 0.6704383685282496, -1.6550779939334226, 0.8667910248520387, -1.3559408722992083, -1.889707093697416, -1.2839461974148314, 1.6401656733601562, -0.6952256623025352, 0.630623382261688, 0.6174670972247522, -1.4707412517666798, -1.8265378839565516, -1.0286032709465274, 1.8476702658830386], [0.27805601466975016, 1.786843623872219, -1.1277065184600477, 1.7262933371867044, 1.5971306307786493, 0.8205639552750199, 0.2674504041431418, -1.0009409737470745, -0.7273000676574837, 0.6519404623198777, -0.4962127066466868, -1.7357445221264873, 1.7488398557208624, 0.13740325821375476, -0.8018171505696756, -1.084764563647517, 0.6855370539083463, 0.3654849228506678, -0.3399226094377097, 1.8631595659225075], [-0.22395651135123407, -1.8881380957120517, 1.5567198322932172, -0.48378421895841006, -0.41697124686170994, 1.0909226065047966, 1.364604177974214, -1.5972680391148955, 1.0519861843538316, 0.005940337742820656, 1.6922252450789395, 0.4267013947601259, -1.8049577601488536, 0.37312557548145797, 1.5645810181463053, -1.0872846994711818, -0.373178741260785, 0.8777697428567652, 1.799105755240737, -1.8064024608583105], [0.6314618696453529, -0.9801840628216532, -1.546177533630765, 1.0867952185154772, 1.8270981858300712, -0.7472020590931949, 0.030159320626514052, -1.086691422249494, -1.19691095486451, -1.317538013840648, 1.8506120618630768, -1.5173102633661464, 1.6094275703374277, 0.2584022752133399, -1.8890791351289837, -0.12935880602016692, 1.664572305024044, 0.48197557224915677, -0.7757375689505652, 0.6670824038149012], [-0.012343113560417507, 0.8704652330800808, 1.5896902147328649, 1.039796463258352, -0.5227288722454966, -0.5783916551199155, 0.16970733873997057, -0.9643871837939528, -0.649408299913437, 0.8648060329134002, 1.5131303513365357, 1.7751363952643153, 0.7415687262281687, 0.05102249418143279, 1.8699418742551739, -1.8635171626929634, 1.4598150531505607, 1.5791611562663044, 1.9114444136739168, 1.2416874300702974], [1.2446933158051126, 0.6093036667184624, -1.1979632755516465, 0.15863974108919, -0.13525207391679572, -1.4709875396568473, -0.874129102859162, 1.9920738283766508, 1.8124975842920872, 1.218458529952208, -1.4589103181943268, -0.5390931368722818, 1.7695091715927407, 1.8995151214050954, 1.570477228337119, 1.5194767103920759, 1.5101741643585775, -1.8999428366618698, -1.126774859229485, -0.974919186336769]]}, {"bias": [[0.1273623589116213, 0.12503605365711346, 0.6813500393792304, 0.033911413693839876, 0.3992242380278699, 0.08633775775461783, 0.4601533368486934]], "weights": [[1.3551477098843305, 0.10196778865670408, 0.28841017584325934, -0.07833380960139813, -1.9398509617025717, 1.345022269666928, -0.33686125303028813], [1.9373395197345302, 1.0191322610128375, -1.9841129363155918, 0.21744006717702424, 0.4538604586509769, 1.6801241931105468, 1.5576816593673075], [-1.9458390680409612, 0.698963794348674, 1.9591823779571924, 0.07442106482227206, -1.4726148147081255, 1.6018796826714037, -0.00996580492534438], [-1.6606169056530349, -1.2743219052670107, 0.310237216513396, 0.562945817262483, 0.9483958044547269, -1.8701287381556901, -0.511731905846029], [-0.16386325942836333, 0.1067679425588377, -0.23850169339620475, 1.978238407250719, -1.2477836667449602, -0.4883292897493723, 0.691867040888456], [-1.5485842114330328, 1.7411489625530643, 1.1682074804624292, -0.4918888064248823, -0.8903220623682171, 1.0599656060145435, 0.7311842508468631], [-1.3185303163614863, 1.6038543208511151, -0.5186291415314579, 0.9730533586343619, 1.416194407598712, 0.8330640564452203, 0.598142220248929], [1.7163569651714137, -1.2762946140047995, 0.9019525962702684, 1.8888101219459212, -1.9110198402506176, -1.5799836906996125, -0.9409942941519294], [1.9553559435616092, 1.706775839661113, 0.8116157241233526, -0.7114021181715877, -1.3670368765425964, -0.40623372090655163, -1.8334434986287893], [-1.708032716196604, -1.6879496667988891, 0.035920178685104, -1.1459825063925235, 1.4541942926223377, 0.9470457106190882, -1.1374434931213746], [-1.0313755078898281, -1.3966078799306683, -1.589427589945286, -1.3092326773805523, -1.0775276357948749, -1.5664286392198234, 1.0991231519896303], [0.19269460344114986, -1.8217189936675484, -1.4666627708329312, -1.2510572150507366, -1.5731657130764396, -0.4548074702431584, 1.0953462298162333], [-0.5767702986280385, -1.6971699787294905, 0.1518877276225128, -1.6796137826216775, -0.01683336022986026, -0.7040286606585786, -1.8705343451643], [-0.22082956448079782, 1.167784007623906, -0.02349696216823638, -0.5287998032486549, -0.033549532459490106, 0.8036304669319798, 0.8854111768776471], [1.8056948635192538, 0.013556733595910586, 1.86510068689357, -1.6059190838897406, 0.2717872897513902, 0.4757322075733996, 1.7612501572789858], [-0.02300173466817368, -1.3057928960103973, -0.5566134023817959, -0.541860965149247, 1.7140787510427322, -0.019342874768941698, 1.1582334228536042], [-0.8616171479508838, -0.41197618240439926, 0.7656554953671342, -1.2806005872007553, -1.8969098085913338, -1.6881973858757058, -0.6502269237847975], [-1.5522197543521323, -0.7933267401236828, 0.5579420753631124, 0.8503635694673259, -1.5817882290090863, 1.225486218540461, -0.7753002241402243], [1.6182058149833995, -0.547436080121666, -0.18938732032174999, -1.2141084224532035, 1.7268876117591567, 1.736513513402627, 1.3049592048638097], [-0.8627942021744004, -1.8598690009551366, 0.501638258145086, -1.6221727633196736, 0.41622138611453297, -1.6105176744642518, -0.9387233719152785]]}], "input_length": 17, "output_length": 7, "hidden_layers_length": 20, "nb_hidden_layers": 5}, "color_name": "darkolivegreen1", "file": "Ken", "population_number": 440, "sprite_width": 120}