{"sprite_height": 100, "index_in_population": 16, "neural_net": {"hidden_layers": [{"bias": [[0.32364264261754494, 0.1325388176633212, 0.9173855595889585, 0.25967490676092464, 0.25475299374143356, 0.7543709887306792, 0.7476757055214069, 0.334519929504119, 0.6015100816559079, 0.9125117799853693, 0.2641759939141446, 0.8870832302262623, 0.8038468821569122, 0.7852136149692226, 0.5862817161102113, 0.2251179505048444, 0.7018469080815225, 0.10301170344638022, 0.35114857024484103, 0.1599368551899778]], "weights": [[0.15983664058747626, 1.601876421341423, 1.9301885233379883, -1.0993368159278267, 0.2999011437698522, -1.095613441298696, 0.0562600132619715, 0.4434012743895037, -1.1894696673867458, 0.6636237943127528, 0.3365482152057533, 0.13586414034591066, 0.8066813360687841, -0.19155035929197473, 1.8840519751941325, -1.4362596440078148, 0.29874870994814584, 1.0583633519157947, 0.9061392766719223, -0.7373905175495308], [1.9872386377280198, 1.8245268292520844, 1.0384449384514767, 1.622732250593994, -0.6794605596895851, 1.5532450030099474, -0.9504209473221503, 1.3197734435253854, 0.6107242061139444, 0.1717103393476398, 0.0794645133501084, -1.8104986454510348, 0.4465023645904398, -1.3927627064925123, -0.2592872660693737, -1.2378192893287872, 1.2808332009359211, -0.702386185125158, -1.738086969003494, 0.04449315877472326], [-0.4111701745356062, 1.8386433856139082, 1.1846967081662272, -0.002656902260592453, 1.5864868019966374, 1.0002415376961982, -1.1438738389104097, -1.3466939464983803, 1.855342987456972, 0.22515272212725668, 0.7120788565770972, -1.601780856983324, -0.8108871373284505, -1.235450902660645, -0.1714553238338543, -1.9885358387559227, 1.6354245763328157, -0.04736470056728548, 1.1689112655694451, 1.5184977543768592], [-1.9298690522335669, -1.0050725454124332, -1.2428228124328737, 0.497193608707168, 0.6084818279347921, -0.9847455331982853, -1.1409606506679486, 1.271131546903192, 0.7542701124641167, -0.07111213676132122, -1.5757701502896304, 1.6664187647066555, 1.3835777458950869, -1.3000682506781889, -1.8367243964808195, -0.8925086510019171, -1.3834543167145439, -1.9122283988665485, 0.1817858759212756, -1.9558483096387618], [-0.9786888547185604, 0.7959418462118357, -0.14118869641029486, 0.2735156328992261, 0.46906213054335, 0.4980729742336747, 0.584219927058931, 1.7506965502468597, -0.7918038524197559, -0.30780004434718444, -0.5869537416748152, 0.07598946639427151, 0.797587309723728, 0.6889477442570398, -0.91784290073939, 0.47345626690014564, -1.0569919846657907, -1.9672711902200546, -1.1387678900975673, -1.0944768181798477], [1.0781495262965106, 0.09373262811142835, -1.1394144519322587, -1.7683845474203013, 0.8003999039399576, 1.0906444144956589, -1.5567097038082913, -1.2843740707165985, -1.6760100399206128, 0.9661394663100857, 0.8087756033154005, -0.7822701253874742, 0.16939291228386066, -0.5324513028865616, -0.6878754102950695, 1.4804633608419664, -1.5016924989577287, 1.2422030636760266, 0.42155079889966673, 0.9733913459909616], [-0.11653153556400397, -1.6146230828630537, 0.38589077010138295, 0.44947904805535055, -0.8117981295708616, -0.38962663962536004, 1.4047335347386714, -1.5372034583505956, 1.5840204837674428, 1.763040501402267, -1.9359790726504467, -0.12436858667465867, -1.8742658599532338, -0.7285975264405309, -1.1730941824141734, 0.19521737178386678, -1.8478546410663612, -0.4257979671837715, -1.426213317901655, -1.30250836660155], [-0.5190692850902816, -1.1462047521729821, -0.36682612390483627, -0.35768887856971787, 1.08554475997849, 0.773257420062242, 0.9004564833621727, 0.8950752640490376, -1.4330177692428747, -1.1046484362134525, -1.795548629321973, -1.1161566090160644, 0.910388667527311, 1.7616359629436777, 0.8301609069242026, -1.8990014857207633, -0.38547272891628515, -1.9741289657518046, 1.183451728773472, 1.8502840378569623], [-1.887897012844153, -1.1445875204936007, 0.40465476908990006, 1.6951059053369502, -0.7519259087342482, 1.7897205101711058, -0.3802590442777394, -1.3276029989418645, 0.3898923885855936, 1.52758774107328, 0.36705463732437016, 1.986622549378442, 1.7320023517733172, 0.6129599858449994, -0.7265666358906091, 1.8950021829588417, 0.525596937711772, -0.19388221868146527, 0.045108042856125685, 0.6462734004466029], [1.1971453486817296, 1.362243375523843, -1.0108918255252295, 1.0331886949336049, -1.5075580148302778, 0.9817423187162104, -0.8088135076100071, 0.6090262450228083, 0.7656337083827807, 0.3958733126150964, 0.6681725508224252, -1.3487702998337854, -0.0014010783984343966, -1.338483812944931, -0.30776969980750746, -1.1850383521129713, 0.7083528486698563, -0.04396335614860236, -1.6816272688213907, -0.9177367699000851], [-1.9925330766502034, 0.05922575713389211, -1.5590635855001902, 0.6111141305987537, 1.02384200111364, -1.6622508908975444, 0.03628746549325701, -1.7362783464600593, 0.7445456726489943, 0.6343443462813707, 1.1442244025225232, 1.09984702724527, 1.3877779056537292, 0.731496431983699, 0.6240933412067147, -1.7603405101773872, -0.73645986901247, 1.4948987559105653, 0.12653780393464498, -1.0077255578963853], [-1.7921273137946345, -1.2423532379202653, 1.8407148449923767, 1.1165037674918494, 1.070669803609865, 1.0115448096982695, 0.47260533187350706, -1.471238730700796, -0.8713660814129529, -0.05871686936027487, 0.6973684904512374, -0.26695622711198963, -0.6901647053902953, -0.9964136347389201, -1.5824751838762885, -0.30100444913595403, -1.3515415482009812, 0.5333755782621039, 1.5569155064293754, 1.8207877511590325], [-1.9958328860615135, -0.7311577457165681, -1.3458742816458247, -1.0205343062851169, -0.8447174628614551, 0.2607541279718988, -1.554265731543774, 1.935401802026937, 0.4686840848444347, -0.6681675784761896, -1.9765209013880694, 0.20883606227422025, 0.9452496299364341, -1.8176755312650794, -1.689298250377644, -0.5435563961703949, 1.4540630507434877, 0.8175647918504358, -0.40828164191880534, 1.8516815152726926], [1.273657850091979, 0.16972079857589506, -0.7143357034737403, 1.426242084598956, -1.894130665189088, -1.4226286782776318, -1.3830259742689983, 0.007394071805289837, -0.5913060775619119, -0.24939990926776412, -0.027277385693433853, -0.4181729168609629, -0.7036014985976164, -1.6558899455033878, 1.3060531055263103, 0.9137656282927558, -1.817857787120948, -1.0290350913568735, -1.918301279005742, -0.7596947995892767], [-0.6477332132487672, 1.3451548868736545, -1.3407701617578476, -1.7475322524123542, 0.8461099717329077, 0.3139608170274131, -0.7357246236624446, 1.383999351110985, 1.7206185953048752, 0.9808974626449047, 0.8467112662957486, -0.7741123878350287, 0.9497055403936532, -0.0023771999053052717, -0.3911470859067334, -0.4632845047808587, -0.9175152775373658, -0.7864671489282467, -0.3844808085259852, -0.16043834026224024], [0.6930035895296465, 1.6654632957148867, -1.9052781080246528, -0.24574646550867119, -0.6901392822443411, -0.5363304298885527, -0.4630496544964471, 1.689643292947821, 1.084189478408029, -0.10255297694308174, -0.014466566665375602, 0.6159783732932897, 1.7008038806460655, 1.819302818508246, -1.5433056601235706, 1.0393592592484562, -1.057581938088744, 0.8322082925578504, -1.2886847074047387, -0.5517712998227329], [0.42221159830943344, -0.9669372598261332, 1.6981455999847173, -0.8312765161643458, -1.8717794463121806, -1.6525790420203443, -0.4841157637326656, 0.34578855537511277, -0.9921096637177347, -1.39620007957758, -1.893813293667447, -0.757814414918399, 1.7032454381640414, 0.5643528920598038, -0.17956500467210645, -1.6206750033841089, 0.05465139169580002, -1.6301634951534978, 0.3476508118630126, -1.3645161502379048]]}, {"bias": [[0.2991258291820478, 0.7514090276737787, 0.0004765551506160648, 0.13606347343166003, 0.8619297015057878, 0.5541515741170904, 0.6051150316193407, 0.7540375146093271, 0.9655089305094791, 0.1277709497028816, 0.9847622233931469, 0.39269640348922186, 0.10867291071326235, 0.39782139491156465, 0.7273313505950578, 0.4403380986804246, 0.885750192386365, 0.5459823513151635, 0.9404820423972462, 0.35737512095234125]], "weights": [[-1.8324603462790674, -1.5215904779577087, -1.5221593265458, -1.1726245577283891, 0.4088036567141953, -1.7708530817090047, 0.22134690435132987, 0.7057264893848139, 0.45588478616347583, 0.23630431865209012, -1.9443842656768844, -0.9907544921604905, -0.9108965779168603, 0.7236820849470131, -0.19658709409877195, 0.9111443911050991, -1.9963404824770263, 0.22741135156762704, -0.2534867178099778, -1.1079144186308771], [0.19451171638111298, -1.112217617531091, 1.0272473765637415, 1.2072037408197351, 0.45602060395189614, -0.35273281859725447, -0.36470845975620847, 0.23352085225926578, 0.05215680500653841, 1.4640915440146736, -1.007681998157603, 0.8623070083638522, 1.4432154772018082, 1.441263670422003, -1.08761191418674, 0.31066650132031004, -0.698548002907768, -1.4693492498988636, 0.48504563274262713, 1.2555000642585403], [-1.9228446849769854, 1.3716420645047709, -1.6436087079851545, -1.9505416523807009, -1.8419508921995047, -1.7160745978121672, 1.4785057732358804, -1.6575396220696708, -0.5687387042537857, 0.43398310753016744, 1.4534145895105275, 1.3411723197012866, 0.6365005542990456, 0.6582537797612176, 1.9673635041461317, -1.6049396412877734, 1.0685110280361472, -1.8002114158239473, -0.461454196149476, -1.1377732103496991], [-1.5304512713964553, 1.9403200325773788, 1.2414755419361607, -1.1964391079017318, 1.2408308924182738, 0.6822095352047159, -1.3962223653217203, 0.4110834914760888, 1.8775290344739117, 0.9765331288731143, 0.36169286483566276, 0.27193499951961897, -0.8216424261206843, 1.8418284467279706, -0.220362108772151, 0.38683178177191424, 1.7050016903956586, 1.5527157458499925, -1.7700161333859294, 1.0578702081769253], [0.5515117934879119, -1.7891947820703087, -1.5679461655137907, 1.8337451854606668, -1.685359172936506, -0.15970818544624166, 0.4207441180098064, -0.4305415312111145, 1.073985017321351, -1.9668139348273055, -0.08063223412161324, 1.5102495230863044, -0.4012140820491781, 0.36902148148985203, 1.886961546973558, -0.27706252280755006, -0.8483809345936764, -1.0779905578259572, 0.8522585434187202, 1.2442540233778163], [-0.4889804166470664, -0.9303941383479177, -0.911818718004108, 0.8756623594548989, 1.4265801313552697, -0.7775070586592716, -1.3083996484070601, -0.0053084294653640285, -0.5319699787690961, 1.4386799037339366, -1.2912545360162166, 1.7847830327805214, 1.8497262897380429, -0.3992556446812454, -1.4822392770365411, 0.5741661879299622, 1.597068063491673, -0.32029719655558564, 1.1976601724643925, 0.8682572803694515], [-1.697516269760862, -0.6028861388074889, 0.2361756204552763, 1.2604130614495226, -1.3792903578526263, -1.880032152303981, -0.6190305820994646, 1.9525137300330253, 0.8762403681927213, 1.8402618744924837, -0.10152338202476852, -0.25338181662034964, -0.2061190042696377, -1.7353941040293166, 1.5942579438601676, -1.1807638724800884, -1.5810545800170068, 0.8201206041745737, 0.45303412136765653, -1.5655333821371626], [-0.3473000254986589, 0.8506578328251093, 1.6878568872402897, 1.4879046909389655, 0.6384339342481993, -0.8702302371840074, -0.2603691494113063, -0.5923783573487484, 0.5067741489091286, 0.985225479582057, -0.8374666068081464, 0.8079818693299927, -0.9828037058888102, 1.7512696553818277, -1.1546118367157212, -0.04205921032565252, -1.097798395253002, 0.5503207911783665, 1.7186274969537507, 1.9797392910967817], [0.4223052282363726, -1.5943912713517978, -0.7988539882275587, 1.3192254959368053, 0.5591608378018571, -0.10875307609912355, 0.8735207210957228, -0.7169298821354126, -1.5866438569394248, -0.21594784337369788, -0.21291545468764284, -0.35249240447559593, -0.2620690184157395, -1.9357033310147052, -0.38451986215331235, -1.5430527482280394, 0.4414220715106314, 0.006446719873106854, -1.323307629530794, 0.6561270882235681], [-1.7951146385126444, 0.9613677073027134, -1.9800375646819353, -1.3080041568730674, -0.8667275654961495, 0.7529779865506203, 1.7229383577757371, -1.75905057816587, 0.9036183981047632, -0.731136439048448, -1.4426702697909217, 1.6990544706736137, 0.33582167601368873, 0.6835780185548854, 0.8511556306149384, 1.169173156757053, -0.5900161042155014, 0.39202862200981636, -1.0701439453318313, -0.8266597855782489], [-1.7133491586872798, -0.4558857965410339, 0.5009957495642454, 0.26035860356110474, 0.23687455155262516, -1.6012517017318837, 0.7327675847635775, -0.9034237138102852, -1.347553729625738, 1.001429493868283, -1.0881444732617997, 0.4871660876909747, 1.4396243198964882, 1.6814530643885872, -0.7419618752062433, -0.2558583050182386, -0.30534121266624226, 1.4203583059812606, -0.7417037707996683, -1.1532397045210807], [-0.44432358319368115, 1.2002322170591908, 1.8905554196198397, -0.6649288577483583, -1.5631953503595208, -0.1997267637176665, 1.497521575081834, 1.0887629004980668, -1.720920804644435, -1.0266194753549693, 0.07954445634087204, 0.3001640458639008, -0.28177652335185055, 0.3011573319737484, 1.3980442734015996, 0.30903180211927284, -0.9777718873462167, -0.07862309117263866, 0.33276572124481785, 1.798644647482556], [-1.148406705214708, -1.6486532860650436, -1.6249571513664804, -0.3018881019491033, -0.01869890354878967, 0.668628170538343, -0.7786062096487565, -1.7026309704825877, 1.0311919764458475, 0.00718886866242352, -0.2783617189511318, 1.6613964354220658, 1.1970010912975946, -0.7937284617176763, -0.5005915991936605, -1.359353569025779, -1.418661067543007, 0.8250124862722714, 0.9512405648640216, -0.9839980490855522], [-1.103641960421971, -1.4848729999089976, -0.28681546691299165, -1.9113452450230275, -1.6100312603988063, -1.689266058918406, 1.066533044968546, 0.6877781492937793, -1.42259183145043, -1.4176210050576796, -0.77371445506996, -1.1447550964268869, -0.8651449348306652, 1.944717495982149, 1.7852953041796598, 1.7075827898326836, 0.7680827007939754, 1.5966477920905882, 0.6872289371531348, 0.06676100767278248], [1.45134251733589, 1.2502044134700894, 0.40677819121530145, -1.926164884366072, 0.623345584963352, 1.8954774502270024, -1.4044470794893424, 1.0400568596131174, -1.606350195484683, -1.241414290901703, 1.362288387008184, 1.842185099189988, -1.7633531073742534, -0.4355054892613728, -1.3876818749268387, 0.8339029940327407, 1.0345405282701337, -0.8475554183811047, 1.211338853081831, 0.39315020611912477], [-0.0006141503981971219, -1.5743515060357027, 1.385601228372633, -1.009499819212416, 1.3165234896620435, -1.2802395158732391, 1.5629407582073345, 1.8467780997806829, 0.0417978418761078, -1.140152444602315, 0.6268707212417604, -0.007600119645092107, 0.9270663926792766, 0.28980220319413474, -1.1936187662233966, -0.3003014916656048, -1.0434463483187302, -0.39084969590114893, 1.039766743574845, 0.4919623614631936], [-1.1887287662598753, -1.7529416958698376, -0.04910277684628328, -1.0124361065083898, -0.8712279544073365, 0.23260549727001756, -1.029207546031214, 0.850471967933951, 1.5370623915420794, -1.493061671851653, -1.598938037777363, 0.7456656427928832, -1.4457270494487782, 0.5248412382649157, -1.9860887870771822, 0.13799310963998979, 1.109174728709149, -1.7737679581139858, -0.15499355737729337, -1.788890799919646], [-0.8703433836274259, 0.2374896061280185, -1.3252401690569497, 0.6410280819719376, -1.4821042979602854, 0.029731405307325875, 1.5307235579372325, -0.3752971977463333, -0.2653779096422535, -1.354653597459195, 0.34130962384956165, -1.29873799613304, 0.23658173197165633, 1.127727298071557, -1.5689666211469167, 1.263193512586485, 1.6012089316111746, 0.7827463693328296, -0.5250242776633431, 1.886845430446849], [-1.8073402390866686, 1.5698433393150228, -0.3816067199575648, 1.3029572654346837, 1.4069821382887375, -1.1819132559451768, 0.8547720329599549, -0.783574898222851, 0.68006139425081, -0.989103658154598, -1.4124741089355468, 0.26783983340154105, 0.5673676546742672, 1.7770297426505626, -1.3326727863482355, -1.4250793390697716, -1.6761881160354193, 0.37241365114169556, -1.1611039791905977, -0.7072653212621969], [1.5839290702552735, 0.64349455351682, 1.192632403860928, -1.2072898571703958, -0.8085580158655392, 1.212661164895727, 0.7969254252010227, 1.4890311068612365, -1.1822871663313892, -1.19103529469706, 1.0633035384066671, 0.12038894423417901, 1.188641695551703, 0.9294084750439757, -1.6287370625332365, -1.6327838481961576, 0.38662665398935925, -1.8465503136323718, 1.9367763990409896, 1.3442898190686448]]}, {"bias": [[0.4475613252469075, 0.3116397989139702, 0.4949329908647424, 0.6978673833119832, 0.983577879663979, 0.37873258535760246, 0.3719264668191068, 0.7369715559204314, 0.7500075936394553, 0.8198652041432225, 0.79805283092067, 0.7504577670905165, 0.5171081201336598, 0.58763501290658, 0.8187209457519677, 0.7582623764729953, 0.3302489880756433, 0.2737606814858923, 0.7706767013134639, 0.9424474576292236]], "weights": [[0.38826248122800733, 0.7422598474867486, 0.9091438458351222, 0.7858564507500212, -1.8868546887081452, -0.4826997968048299, -0.18556505986969807, 1.0753524586692045, -1.275395949583614, -1.0454852295104513, 0.8627483347736016, 0.2922725836407789, -1.5607305032897476, 1.5914988235346161, 0.05997088200057776, 0.7218392942395448, 0.7413378122549896, -1.384416384585018, -1.2859827627318818, -1.320469348499259], [0.040337878314589126, -0.3600350435984794, 0.3342662286545983, 0.000304744443097249, -1.7484167685325644, -0.48891864582326505, -0.13142748347043343, 1.886796691425753, 1.2924172023797031, 0.058657628638102643, -1.1572872036613808, 1.4885370045970747, -1.9770919830618294, 1.6899977957486736, -1.916823710274238, 1.4894319661072202, -0.269692723745218, -0.708127418757428, -0.04751532486512078, 1.961371068959675], [0.8079693679941475, -0.520146224910417, -1.445055937436868, 0.5392820545131012, 1.0536188900965726, 1.6580395050413403, 1.4131137516022734, -0.24594305423204021, -1.0229793967983354, 0.6027808331275617, 0.6308749398031148, 1.9780402729750266, -1.8780094228403414, -0.9513561924520628, 1.178802904294177, 0.7014348445179963, -1.1232138047241933, -0.8423254890486129, 0.6100005549140275, 1.6212185708522209], [-0.2783177762906792, -1.580316069039489, -1.61915543063043, -1.5913055578682727, -0.5244494331081739, 1.6808928511097276, 0.8466755197130733, 1.2277005916531425, -0.5422813235495987, 0.27901983656346063, 1.166694768040256, 0.06286012838707711, 1.6331947034310526, -0.18049208600891742, -0.15596344783693228, -0.8045332417925581, 1.0450985997119941, -0.9659570147086667, 0.30334270160432864, 1.184820955021051], [1.0385126189673906, -0.1841054443262622, -0.3342893154327613, 0.5317150872653889, 0.5204068884098136, 1.4833446147459437, -0.9812898541317052, -0.15904646408954282, 1.0356143968145655, 0.555732307154738, -0.9859868587734328, 0.3861135552054975, 1.666072778571253, -0.5405171451769055, -0.19167845476155954, 1.6221666289163368, 1.3232162200947784, -0.6638970918111355, 1.4898248322031638, -0.13689157038238475], [-1.1978711631762553, -0.281676712288188, 1.566561766562343, -0.12920065496184696, -0.0136197493579715, 0.16081367272461744, -0.799937527342641, 0.17948420849854152, -1.0149899210529814, 0.9819660248229223, 0.5563453673936851, 0.884209630468868, 1.26530994071204, -1.8162534067478533, 0.7475837747658969, 1.6695287653822808, 0.9373927561217861, 0.49331361772096827, -0.0025708564890911667, 0.5377377907023368], [-1.4130566437280834, 0.06598425861906021, 1.5779971059643167, 0.8719117155332685, 1.0168414048940626, -1.8527368172207686, -0.004826514301415674, 1.1309996878766895, -1.096807162369445, 1.23236773863781, 1.0626600792123964, -0.20528275869710022, 1.5044598049484499, -1.5510216441680322, -1.1377734878351875, 0.35164004194681864, -0.8656062770136761, 1.4667671340103006, 1.0564763828035981, -1.8144140933541308], [-0.47320643040511134, 0.7727171468495149, -1.4142607791634898, 1.332485258797202, -1.6746567144259923, 0.5793035260135735, 0.07060306907555747, 1.9360237255336084, 1.531264688497362, -0.8784743242674531, 1.0243700946669754, -1.694737102463781, 1.075269350116105, 1.055357309632214, 1.1556554187750168, -1.3786801516553897, -1.5477131318024284, -1.3103970704574994, 1.5988559422333908, 1.1481340966218339], [-1.5863554995817193, 0.1014194513944573, -1.9610319287859208, 0.5013478087683536, 1.3003068450778787, 0.1379536911654693, -0.044544587414981685, 1.071171552982669, -1.16055487119112, 0.7584807638773432, 1.816418472870435, -0.42971578517624476, 1.5692019687918166, -0.717130769136419, 0.9932488329366413, 0.9370581932107567, 0.39160942618311445, 1.9347670305312765, -0.17486362708516623, -1.2437204962042734], [0.2247353273225725, -1.6713099545247978, 0.7307627582504765, -0.576044123530489, -1.9648223642060185, -1.6654304790186552, -0.577293307226582, 0.13733441447942019, -1.7194861813965545, 1.7329037808010344, -0.6899104252875854, -1.1355187856240825, 1.771448822874587, 0.053380986838078126, 1.6638883441400356, -1.6973363883271917, 0.7359324333972705, 1.9563512024331624, 0.11184311699786953, -0.8606089971061914], [-1.8446075059353229, -1.6074244041823342, 1.1091869054685604, 1.242147798209321, -1.1436411400313804, -0.8459084634786427, 1.0233270002233286, -0.529562997423835, 0.14919220900114727, 0.7802831108111317, 1.5997383474799256, -0.5639455724820039, -1.0927450726876469, 1.14130362942316, -1.9014770429612997, 1.9443814814413583, 0.07231580861527442, -0.44747531778155025, 0.5051552936748465, 1.04562198059071], [1.0245843211274024, 1.792682569802567, -0.31146209816895887, 1.427351358496189, -1.3212704581924815, 1.7475427125899556, 0.16559966901482204, -1.4349424663070671, -0.60240898157689, -0.39839463040129575, -0.550819974086032, -0.5011472169506899, 0.2212149241476764, -1.0514533603516507, 0.8184074534495034, -0.8639158296921208, -1.725604222670054, -1.9894379067677455, -0.27866875950999814, 1.6972127998099724], [1.074238674002502, 1.9162859754539858, 1.6162003147661195, 0.7182657404730368, 1.08816444294022, -0.9042515883682181, -0.6913059109399486, -1.6681955231190253, 1.0002231989724577, -1.7658049858072031, 1.6694347906973337, -1.4752174916793788, -1.4049017231441163, -0.868797855628245, 0.13178681724537, 0.5941608229590396, -1.3353707167020321, 1.2666593130808144, 0.7234669195200225, -0.20989755392752363], [-0.05424246369857544, 1.3980724393747153, 1.7292410859892335, 0.33602737016237016, 1.6050210415287496, -0.5258415183701906, -0.6401147813814072, -1.0479422699464274, -1.2906083382617513, 0.1822557472140871, -0.7415846472410261, 0.9125293973682673, -1.7728881128010179, -1.81920052783817, -0.5511389731956058, -1.1686228561680752, -0.4624205426161718, -1.596323613138853, -0.33798376610499226, 1.7517223864025255], [1.2206985256226637, 1.6098068057238892, -0.627140108549054, -1.4109071224806002, 0.78215186545432, -0.8785468443381843, 0.2826881782667545, -0.8403248883933561, -0.4147281432561356, -0.04305990169265339, 0.5157007424386446, -1.744309279566258, -0.1640055302257637, -0.874076622218233, 0.2409829285552081, 0.8901692953640432, -0.4259915978722475, 1.3978782559686205, -1.4030942910644288, 0.7966187691639259], [-1.6749529162398376, 1.4570838898181027, -1.5694480210655963, 0.3079538321820334, -0.13773413948059865, 1.0509235916446755, 0.7687912573495916, 0.9618931752432354, 1.2966718391002168, 0.45007086993193335, -0.46110543763373046, -1.6138670548420255, -1.3044916327627814, 1.206919330518204, 0.9991557387399976, -0.500989233801171, 1.0962952262157972, 1.978837991409062, 0.2766420925682569, 1.9353427773976328], [0.4980194077906823, -1.3097043284666938, 1.8902282233745762, 1.2663412340810551, -0.7302589376950115, 0.6459599287358291, 1.5721232087628194, -1.3679970445716791, 1.6982575085704519, -0.295315130526542, -1.1478239033844004, -1.2992172481273814, -1.6268095410021188, -0.28586521057698633, 1.1050469174361277, 0.05114268040560699, 1.5007175136709305, 1.0547603819454818, -1.620827443979604, -1.0657056031410836], [0.9062223254044626, 1.4195017162030998, 1.153462933373255, -1.2174144154349285, 1.5442735421116534, 1.3104335133727236, 1.696346091694565, -0.7202348795948823, 1.9046197020922464, 1.0117903676137514, -1.9972365884727417, 1.4001235935702914, 0.5202979669449119, 0.6199015015101592, -0.6912924697610978, 0.469463777642257, -0.17986702633876872, 0.7790511574233707, -1.3516206454039512, 0.8218511318075516], [-1.193814861852462, -0.8474117505929573, -1.0603835883932193, -1.1574452898278458, 1.5644860079297849, 0.7136829406802345, -1.8436194309948517, -1.3229685045329722, 1.059005092113328, 1.142324931861939, -0.0810427726341243, -1.9221678975645244, -0.7264367562359646, 1.2865271136588134, 0.11954512199179268, 0.3336779339366771, 0.7007701634001724, 1.028463973065696, 1.3366195253010855, -1.0055043243418935], [0.12325249659160553, -1.8353099733689344, -0.6088077931115401, 0.3543408541307387, 1.4491153266460044, -1.4593634324026739, -0.10650113772467407, 1.5472050292655517, -1.6580223002400496, -1.291257434120416, -0.30260530587214385, -1.706956314551316, 0.5431498983579193, -0.36421356207272515, 1.182226651018591, 0.2591120852011026, -0.6742592054776773, 1.483239646903555, -1.6876083783175035, -0.6952126936508791]]}, {"bias": [[0.4601567383139292, 0.8756038033283536, 0.3824730220144943, 0.24234424885517558, 0.1722626174118267, 0.8702189935796203, 0.4247368169993241, 0.6644636311777261, 0.04695745449746136, 0.23010886366658878, 0.8588052260385114, 0.499133981332204, 0.15323321353513186, 0.6463492836916711, 0.6579784526074051, 0.09231146357475728, 0.9607862762092789, 0.8011431787621751, 0.18968192885711854, 0.33323753863217365]], "weights": [[-0.20683674694904086, -1.7102820250171593, 1.9289827963581025, 0.829286855652557, -1.0353539522260098, -0.7075102317718054, -0.6529554697591995, 1.6058734107901707, 0.1837762793366582, -1.9926906207863047, 0.7122081826752069, -0.5666497004813853, 1.0016312429573535, -1.2308590260542518, 0.6813185755877877, -0.9248354281935112, 0.5654424143671601, 1.946693682666361, 1.4771387251215407, -1.2896169025811566], [-0.6172745368268617, -1.8036069036447078, 0.5229987082799861, 1.4185146195841911, 0.8985218944082876, -1.7551452213416967, 0.24832508200926195, -1.0295040822692947, -1.002804859353576, 0.22416164434211616, 0.8561038507910954, 0.3595513240939945, -1.8344913174143223, 1.138959741765798, -0.9708617459133158, -0.9385643532436374, 0.17888977254068994, -0.9706998899895138, 1.3617435099136213, -1.4957648591859023], [-1.2114479291086395, -0.3670096179909135, 0.8031247675425304, 0.42793191189335866, -1.3665987890487394, 0.36775458676845263, -1.7559700653914678, -0.7162367901967648, -0.39103346319741705, 0.3713753789743359, 0.23636912332678284, 1.1392900332664806, 0.7253826062540316, -1.8516148080603032, 0.38456197966237715, -1.6417222457486185, 0.7609526715404891, -0.4555432584334995, -1.356258250637011, 0.6573443740204268], [1.3029324783252068, 0.8379698353143561, -0.7144684076065291, 1.3790016729965155, -1.3295533220985711, 1.0113343693431416, -1.1336593039946035, 0.13771243734648753, 0.2059907383253945, -0.17909828605178824, 0.8068348936591034, 0.4218798865687341, -0.5486771623416535, 1.1886801552418156, 1.8580320186006518, -1.0401667426349421, -0.2605221471826975, -1.6051361167650255, 0.8302980080361873, -0.15704675863216977], [-1.3995439543007153, -0.6770615565533835, -1.6009937014397102, 1.3415341071533056, -1.320502971419376, -0.3189506788371088, -1.4387756249519477, -0.840028707206387, 1.9557427370865148, -0.2028718375146772, 1.9251669418475572, 1.149744935875916, 1.0968604195467742, 0.7683993126488282, 0.8196644571166458, -1.7029054410419815, -0.7853634380936083, -1.8854279341713105, -1.6480812792008344, -0.0035297527557203168], [1.3342287291753596, -0.740765467962861, 1.721943222866836, 0.6341139818295805, -0.1440372487933499, 0.123619908460606, -0.8032569137950922, -0.9798155164173341, 0.06831704958438722, 1.0653747654951613, -0.6951498456631677, -1.983215080321092, 1.0092772335056477, -1.7448593217901984, 1.3542814254232747, -1.6264184255657916, -1.6714346626082164, 1.1429519724373671, 1.4117684925787102, -0.7748058481148665], [1.3203317171400006, 1.7306861914982399, 0.12724564110560355, -0.69666674443735, 1.0877901428257832, -0.268434905023168, 1.2888524649440756, 0.7902573288543868, -0.3914629092759534, 0.8909838320671151, -0.5833718448968455, 1.7919991433774491, 1.0972990194220391, -1.8296044980135666, 0.2253767609708639, -0.6833570090068242, -1.0685490073071429, 1.0237517193742587, 1.4971100047192536, -1.357188088398921], [0.5110274246295128, 0.8120886203652438, -1.7428665824027023, -0.7239476873379762, 0.5839635333930291, 1.7567210985982538, 1.8510702635862213, 0.09199387555441074, -1.7431438652462075, -1.5324949516566608, 0.707669561278728, 1.8266998815087523, 0.6330881344967567, -1.56184204629478, 0.6305117605547639, 1.9505102124460953, -1.7031322729732086, 0.9713116385537894, -1.7060081973927876, -0.2953494757967232], [0.2623355171077333, -1.2191612207755118, -0.33561353914980563, -1.8027592166016353, -1.4642283951805175, 1.6378908350685801, 0.047001045136394914, 1.8158876951560643, -0.9732508069856989, -0.45499966922816926, 1.8787122184083365, -1.3745470041042487, 1.2101375671239727, -1.6667349791735022, 0.5985261700575863, -0.019625718539114434, 0.9030510971689809, -1.6503541615486172, 1.7908704337005492, -1.4660921241888745], [-1.1027149531169536, 1.0988131641669647, -0.6294004379001872, 1.5885994690115655, -1.605058227763743, 0.8955335878539095, -1.5122039582951912, -0.10591555177291445, 1.508854922805984, 0.3876382934231719, 0.14571538450479915, -0.8260925046634027, -0.4960022762214882, -0.4385328815590781, -0.760868406668004, -1.0535525257114569, -1.4769809475018354, 1.6157921127164139, 0.5600360135675957, -1.4909085351163331], [-0.5941514789639211, 0.24788036354716825, -1.2944579199069204, 1.4326078279183792, 1.3675942966643029, -0.6478139330466872, -1.7151094072423532, 0.5849699741099386, -0.24977500650661844, 1.5953653857001782, -0.7007476032800528, 0.3147405653441919, 1.0965161816588465, -0.5175559645027619, 0.1527785751256059, 0.9413006595401079, 1.9361834896258014, 1.672550087888594, -0.8309265492370717, 1.4531960874743133], [-0.14487224706170077, 1.6438829274087219, -1.676879067748927, 1.2801161081924732, 0.019538194935817543, -1.6420674156619346, -1.0920143857027695, -1.7833808039671353, 1.0148443015209807, 1.3720708047140535, -1.5279449995389558, 0.33444737921817413, -0.09169049915875194, 0.7256940019063065, -0.7911788158649697, -0.21880766731069912, -0.6444924583921603, -0.7781313103160845, 0.7597694196895604, -1.9384887165168898], [-0.942074402038994, 1.8276896220458858, 0.8059125812866412, -0.8439340699333115, -0.9560549450653726, -1.7583442831507052, -1.5151656550555734, -0.6826773468278491, 0.40887606691578204, 0.9575045091307368, -0.7458879327356667, -0.5008160891018778, -0.9446409238447351, 1.0571009358279335, -0.7713700652320727, -1.2977013231263346, 1.3008920296280277, 0.15736485902616915, 0.4416027573205086, 0.9709833177184635], [-0.8893080067892223, -0.19502425658214406, 1.5384642714643673, -0.9593448236265356, -1.3441578457968957, -0.20070869496274657, 1.9561367164687486, -1.697852820831569, -0.4859752001608477, -1.924578227217895, -0.7406464316913417, 0.2152759454987958, 0.6904626097215334, -1.2066986188573954, 1.6418914076845441, 1.8902109262199782, -0.738447633132413, 1.9609096226782454, -1.5018211179525154, 0.6726851136564016], [-1.3008721730836537, 1.2225811484576021, 1.6038328655013516, 0.7667140356989335, 0.564618039505457, -0.0814177168534389, -1.7883210600772972, -0.579131197829998, -1.9547759482202745, -0.7524220232080361, 0.11992358486696508, -0.29639166916818427, 0.30865104183076975, -1.5091967548301315, 0.9783522755155931, -1.8808049728481637, 1.791644005120408, 1.0130647088751221, -1.1930324168134359, -0.20902521920027306], [1.2507098247066941, -1.2898858156985544, -1.1689812228383452, -0.027172105582054407, 0.3640349860152923, -1.90856360694838, -0.7856961578745918, -1.6151289761905878, -1.8089818253481376, -0.46971666451755834, 1.755554494592566, -1.4166177715335215, -1.6883767131324974, 1.7132841926329045, 1.969543339989246, 1.3160626717674155, 1.9931760591673977, -1.7230351239126667, 0.9754059437161331, -0.064598232609268], [-0.7851854080150846, -1.8539481209298967, -0.6065502674585606, -0.7632432965078757, -0.7514210982045451, 0.15450277442994143, 0.9956691174706358, -1.268153274779273, 1.9384312934426067, 1.2489104068887582, -1.9698389556725053, -0.9183268640825388, 1.9333909748968958, -1.690530663005903, 0.6087035420057476, -0.3056392920781077, -0.40005575254353554, 0.8566071763779326, 0.6244657592931424, -1.6802108811478624], [0.19419299601360196, -1.7995825986103111, -0.7933968376981082, -1.2556456905643647, -0.8783500279667567, 0.060242308673321254, 1.6241108635309676, -1.783254417244748, -0.5668219105093906, -0.7228685937487214, 0.8022921077548966, 0.2838498212352367, -1.6060698832619154, -1.174499953549239, 1.0775761043226093, 1.7694075796383082, -1.7730310274968732, -1.1473660179053655, 1.7470827435703251, 1.8912790113466214], [0.7394488570483633, -0.3088170404642234, 0.5511336504150139, 1.7063172751731726, -0.468052070530212, -1.5004654387456862, -1.293268328264868, 0.9242656421636224, 1.2908800432779324, -0.42118194292713884, -1.2499526324948502, -1.2223743230312412, 1.2512135230796733, 0.3847641597119198, -1.124197893035832, -0.5725121330328831, -0.8412359540796057, 0.7741172929395654, -1.246340408672089, -0.4283317180533843], [0.49395209046235866, 0.18251542004270016, 0.696031416707946, -0.5306451378865611, -1.1550728480530337, -1.5496890025043615, 1.3147906811335668, 0.8009976945200039, 0.4030661704715066, 1.5642607539258502, -1.652083259571432, 1.1301773223790095, 0.707856815405056, 0.20020774606634584, -1.2563860981258883, 1.4757334360400955, 1.1987213728176909, -1.9534303977528662, -0.2573960328175535, -1.2959790454681444]]}, {"bias": [[0.37070322317606785, 0.46912174915942917, 0.9618495273096728, 0.8832235507503029, 0.14724141730894802, 0.6024220012689453, 0.8671230294181363]], "weights": [[0.8018361065205437, -1.5142990713193027, 0.6113975215656753, 0.6372793895273117, 0.9048580828964332, 1.4330129472736295, 1.4554107624543176], [-0.24858556866184234, -1.3471005189760605, -0.568097420643908, 0.5417872812229496, 0.2875799239680754, -0.17985459749339539, 0.9361639263401713], [-0.7827547420376035, -1.558688249638133, -1.7178219100366845, -0.3272325011395578, 1.4157277531862822, 0.6884882960684333, 1.5326939213486073], [1.9529122296279495, -1.0793961747182568, -0.9983489034102737, 1.2643314368829168, -1.4008247697495197, 0.8320610358938274, -0.9572320855429854], [-0.6541936396000603, -1.2912457159762534, 0.6753070525662754, 1.5826101002478232, 1.6194841353962213, -0.6087074294911927, -0.9577563827630575], [-1.0572808701475016, -1.9337425380633522, -1.3678170998506105, -1.0169487386420748, 0.37990366742250803, -1.3718516141806019, -1.6258530603072092], [-0.16566280150089518, 1.9847910574968686, 0.5880264381635958, 0.4904584147101314, 0.8301528128804185, -1.0217908403967098, 1.8476524359414168], [1.9844686453016132, 0.4559257884408834, -0.47080847957512617, 0.27401058275726164, 0.4560143053880612, 1.360994921791772, 1.7349124574284596], [1.59498888141625, 0.39994644662042633, -0.011186857988250587, 1.3703670034573445, -0.0920822106732282, 0.4062339874965448, -0.7020907380947392], [-1.8918581119283289, 1.9925866327072086, 0.604570875659785, -1.7125631879007748, -0.5860469390589751, 1.8763243903258497, 1.940094121982228], [-0.558528439755948, -1.7530204347187275, 1.8652219185572694, -1.789018230300715, 0.21913332577803324, -1.5077422054982117, 0.021321928728453177], [-0.42989224628349554, 0.9758698523859621, -0.4087810042579676, 0.49943438089223013, 0.7466591450567073, -0.4558008064567183, -1.6995850474278935], [-1.824915044948816, -0.6241206131986026, -0.10127223373586514, 1.3988301540440133, 1.7451209548948063, -1.3753207994956789, -0.16903276818751678], [1.7717186138221974, 1.4148632679347437, 1.729999101206896, 1.4453693443922502, 1.2448491614132808, 0.5497548799214971, -0.9498058032887169], [1.6026247203801236, 1.9817856203229702, -1.8496989065623501, -0.13799871726692947, 0.45353158199532295, -0.2225444859092951, -1.650388135675028], [0.8292846292826122, -1.7135490207078212, -0.7878404399178458, -0.1273914279669386, 1.7904961713041034, -1.10022617728084, 0.6837185959794514], [-0.2602880720258476, -1.235175868726591, -1.7476277282744377, -1.285248783935784, -0.058642958901000686, 0.5468212038361662, -0.20797472439594733], [1.745507177830588, -0.6008379463153637, 0.8872970746007711, -0.12346547387991658, -1.4044972500153379, -0.18838018702387016, 1.205919137279159], [1.2212845716319558, 1.2274574600436257, -0.9428864980629355, 1.4843215124827034, 1.6819371378670347, 1.6987153345946573, 0.48675736847751594], [0.29375127364559406, -1.5431894251544556, 0.8341206571180755, -0.4937696099585409, -0.09182301020584172, 1.3061761425953686, -1.1352201268760558]]}], "input_length": 17, "output_length": 7, "hidden_layers_length": 20, "nb_hidden_layers": 5}, "color_name": "green4", "file": "Ken", "population_number": 440, "sprite_width": 120}