{"color_name": "whitesmoke", "file": "Ken", "population_number": 74, "neural_net": {"output_length": 7, "hidden_layers": [{"weights": [[1.1815870325103086, -0.32131979314580716, 0.6600222705462833, 0.6100235798429776, 0.7772955102580204, 1.7286882846121792, 0.7052851573149335, -1.9058582696647122, -0.8639804355879872, 1.631654446237358, -1.4624666881817259, -0.6416708545631802, -1.2832719404386972, -1.9884852106725401, -1.1444692501149896, -1.562798069867894, -1.1553808494609354, -0.2690852600284188, -1.7688517881125332, -0.17014878202118178], [-0.09844547735498788, 0.39747558487456613, 0.03889057312135957, -0.32762957007721294, -1.955552999344531, 0.8483128659350374, -0.6761484438371368, 0.010192295976757304, -0.5429345972194004, 1.7884591215638759, -1.1081248740892833, 1.794798810127963, -1.6102143020311552, 1.529526226247778, -0.579809231636276, 0.38379805340132433, 1.535234285164825, -0.6082157377252293, -1.3820801608061917, 1.5640373427142604], [-1.9395731679368073, 0.9969205942738131, -1.1728003955848054, 1.5773958979998732, 1.036226234719082, -0.8913845881859532, 1.922126908018618, 0.13837395168911337, 0.49761881038006983, -1.4851036495494423, 0.004302060942253938, -1.8045968652955535, -0.8917412687454029, -0.28262068349882696, 1.916032525094292, -1.1105975695239692, 0.5495439391388297, 0.15654480927580794, 1.2133211661988472, -1.6753455408064069], [-0.38847399418513406, -0.6715956374166678, 1.064063595880115, -1.626018239139599, 1.988580730294875, 1.7797822043227813, 1.2473692722991858, 1.027890877156457, 0.04254006274116717, 0.08647382817062477, 0.47151451049215254, -0.6977901786103602, -1.8620989897716225, -0.885170707590019, 1.4385073577940601, -0.7583214301796457, -1.8177471923425141, 0.884117659080661, 1.0406443159350056, -1.888737976118128], [1.739750848166361, 0.9120614109997813, 1.4231906072860827, -1.285853198051452, 1.903989960583849, 0.4669225942925177, -1.3268623045666996, 1.1830951507058192, -0.7927343867651095, 1.836113252608076, -1.4006489905531407, -0.7985963571964252, -0.8598636378626408, 0.346201353210037, 0.13437896643898561, 0.18200434814204725, -0.750409398754301, 0.750635481782211, -0.008748329203640548, 1.3486868083428272], [1.5709385871589605, -1.0119370197040287, -1.6845423264762531, -1.5026552769846213, -0.5597876483951967, -0.12142870106400538, -0.021952582394346276, -1.1111264837505508, 0.023584017502559007, 1.9885927527462788, 1.8237619002992664, -0.8307232046730118, 0.6765273738508584, -0.013220881376217797, -1.8918617621327574, -1.2419550748637485, 1.6467363865942999, 0.3585847531731674, 1.106217022701112, 1.0988930410615882], [-1.8827665971168117, 1.0956140883764665, -0.904328198961418, 0.8842727058465574, -1.4519095752147226, -0.9330617187927981, 0.4769329537227436, -1.3050641008512174, 1.2937981539207972, -0.5040292245429634, 0.05970126925524388, 1.8978257339441904, -0.5680618762607508, -0.8788976439068077, -0.15438869099341046, 0.2171952310792511, -0.2534147752047686, 1.0714555653373137, 1.7201749869499232, 1.772339455919178], [1.3149753074692874, -1.5714173050134348, -0.051462371125595485, 1.8594542509475596, 1.149700988129791, 1.8547822560949525, -0.008543114761240478, 1.3826060149657784, -0.9086389120610741, 1.8604814257522477, 1.5129762679211374, -0.9889403069695555, 0.23721529040882672, 1.3545345642655668, -0.16683523643753295, -1.876269824050616, -0.04352976917949691, -1.1247933208052499, -1.5897161261137827, 0.38464298621051896], [-1.5422569460117357, 0.43539618966072346, -1.1096215664716684, 1.276491790500812, 1.604029825846637, 0.2702730257952468, 1.5520719064390964, 0.6227551581476907, -0.034800299793032785, -1.6320794635571727, 0.22232489055827598, -0.6658417337554794, -0.731855688097903, 0.5151994389675743, 0.5434401821752481, 1.6228784701690744, 1.8628104300843575, -1.7461255616153117, 1.9046379695803575, 0.26555720893594614], [0.3400977154919316, 0.1972265370451285, 0.0014186418609760665, 0.38671288155933947, 1.7203119250559347, 1.529342464925454, 1.429849739530626, 0.8773601596405287, 0.7772806929503981, -1.0329986719767854, -1.115628609694511, 0.06525066565634496, -0.3990242078219626, 1.8659767818725554, -1.2130183065646958, -1.3375379141703085, -0.06844624608194438, -0.7485468862081839, 1.9593901724554086, -1.562267665533792], [-1.9230310936529715, 0.9303202825441237, -0.9868234747181037, -0.9591582105415557, 1.7157385093790647, -1.800565354032372, 1.3248013700859942, -0.008590525903442447, -0.6622406461558579, 0.6113866289609655, 0.5016151890689158, -0.3531327210468733, 1.9865943328591613, 0.3124461846828406, -1.509763693024893, -1.297988252889417, 0.4185805071096267, 0.18989832728752676, -0.9094843899210843, 1.421589764700152], [-0.11375905003531672, 1.7752749797562721, -1.3566247595617744, 0.9307515028506983, -1.1196421081766705, -0.6979781731841284, 1.8360273730326262, 0.9508425117121195, 1.5564310391452043, 1.5163422499306902, 0.79580774251039, 0.48209212880646346, -0.0913743588089595, 1.6910503950533946, 1.6063940765418403, -0.45123243115744094, -0.01936543721976136, 1.1541238802474623, 1.0882724239718913, -0.19154315406885258], [-0.7562124660907372, -0.18070865223152888, 1.8371264079631153, -0.04578726907417918, -0.22821854992525425, 1.8393761155519615, -1.34072404166472, -0.5573908444204272, 1.649237284141594, 1.8434906950364485, -0.8141088841301447, -1.7485318357366721, -1.2577566685706745, 1.927971854383018, 1.1579678437426155, 1.0100009736016897, -1.4925468448164216, -1.4245108922747645, 0.4939265656764449, 0.6830235864655956], [1.2220103452043931, -0.28722069899998104, -1.5339170184298743, 1.4034511174950919, -1.8776732322603555, 0.17646859907240753, -1.196883804902682, 0.9246039287421919, 1.369195138297167, -1.0930041626291596, 1.9287629199410374, -0.5951154851054388, 0.2491075991387488, 0.864734462906124, -0.6729220994662746, 0.3704411113676058, 1.1535067178492922, -1.542712462352612, 1.2121919824930276, -1.9175990226749446], [1.2681222946634074, -1.68639384160161, -0.9423717651426631, 0.17961741968030553, -1.1960010494355968, -1.0417243952707462, -1.72462888515541, 1.9519868906022793, 1.1656871262616875, -0.6762988116643633, 0.052744766337170734, -0.9491241203700138, 1.4293992944117062, 0.24032133159848268, 0.8434725768591198, 1.3400062100049985, 1.1602978120365486, -1.2981136403394742, 0.5771800440176751, 0.6435998666563512], [-0.5537380339036666, -1.9627189525986775, -1.6903962306575875, 0.48390097735113313, -1.8834965662126173, 0.7471878629340734, 1.3786521360788848, 1.9458525885238327, -1.2150915108235596, -1.8241832947226406, 1.9736834172392146, 0.5793421960668663, -1.0855485082593508, 0.40845006307372866, 0.08300178123565738, -0.5920868924612712, -0.5765804831745305, 1.1541819038223702, -1.8428863651153344, 1.7597100619084949], [-0.7252709030417925, 0.09980038238895705, 1.3534328464931198, -0.6825748150150184, -0.7346687597833617, 0.36360636401999047, -1.0145760648256807, -0.20801942259372774, -1.123540810452178, -0.2166924834601902, 0.07318659193522326, 1.5764395734777454, 0.9589422611812162, -1.7679684797715676, -1.4733800470023906, -0.38562696716413347, 0.5850457292565623, -1.5546992247358773, 1.7583422050286055, -0.6779824494087365]], "bias": [[0.3321231664621169, 0.1706271264279331, 0.7365952969776592, 0.8586084886766033, 0.4672679589703206, 0.09496244005601451, 0.10826868126170286, 0.20204809768201493, 0.9596621593503376, 0.43656607907139855, 0.9200222724920188, 0.15988657167378129, 0.9061420357909798, 0.6236246145259926, 0.7674657013600682, 0.13420648795816048, 0.5088541823182903, 0.9852367584531894, 0.9088298108708871, 0.48320735963140804]]}, {"weights": [[-0.7507987362536714, -0.47926781565904175, -0.9552895594116273, 1.6036790389076123, 1.9899397572411113, -0.24735812923563172, 0.8756885949929338, -0.10403366989122276, -0.9376179456801452, 0.6441621808733675, -0.22819870740465698, 0.8417953809576022, -1.7305040551305817, 0.3749985462969079, -0.35917904245041754, 0.8351663983459372, 1.1056923605149995, 1.3906766954867953, 0.39429552890077435, -1.570555640464388], [1.834883488096175, -1.1962163502373726, -0.10152488109768454, -0.40550806677203255, 1.3389839789990363, 1.4407842180625616, 0.6285995208477275, 1.85074481286558, 0.8825449764549447, -1.9040911418564508, 0.00306555977105738, 0.29203415964195756, -0.31149841179999527, -0.2479476901704496, -0.561234319513821, -1.0811954695012087, 1.249103959539216, 0.6905264944231093, -1.5611709891852747, -0.830696277498256], [-1.256013173865004, 1.865930785328691, 1.6064765400065015, -0.10912349872259686, -1.0511795443538299, 1.3802310715851887, -0.3518606712732235, -0.36625146282599097, -0.9423806386367439, 1.4550469724074477, -1.5391574579050373, 1.7395301926965216, 1.3061807376203238, 0.10527449078490703, 1.3982071546882109, -0.40458287140483984, 1.2505837607127468, -0.7531338377908825, -1.238954619092095, 0.1560457814516587], [-1.3426301422045737, -0.4481878463418765, 1.8771158224063709, 0.5820898353739361, 0.6242211070500816, -1.0036751698508026, 1.98400610539198, 0.8541588471531791, 0.33478419288360817, -1.0632849399593671, -1.7233017677122664, 1.8893884783606447, -1.3334894394602244, -0.23495396132695, -1.2367033476503777, -0.3366599008521982, -1.8735380844259515, -0.4028243457437597, -0.03214510771622692, -1.5616498299054844], [1.1402297101106789, -1.402534160701066, 0.45790302808677374, -0.20807394669602663, 0.2894141185951664, -0.6962464142961857, -0.9978423223403485, -0.6103852140799062, 0.037239541610201154, -1.7214598550448046, -1.385016954678067, 1.4933188494052958, 1.9281411229070553, 0.8786277018345126, 0.3653873494326887, 1.3526057087566579, -1.248708647591318, -0.7725974646563989, -0.4007975558103545, 0.7253038529513556], [0.12369384900412683, -1.4173424194769804, -1.486225293603587, 1.038734368457833, 0.9416887456745058, -1.266682950143081, 1.2543147874565528, -0.8311366253535262, 1.3224329134910633, -1.047075290045532, -0.3939932681705107, -1.6885168969164441, -0.22487012117840566, -1.6131543326948976, -1.045769591064298, -1.1279030968316661, -0.9724731948144907, 0.3560100448453638, 0.20723935221919199, -1.8249399678352423], [-1.885365527113159, 0.67891976960669, -0.003513754234314437, -1.4928336250293976, 1.4011123366236289, 0.11313792531069344, 1.4277436964383408, -1.074983288576227, 1.905789063314041, -0.6086530156055159, 0.7677921538094061, 0.5294714633341444, 1.9640472560673303, 1.5189488142437026, -1.9384796180395871, -0.22071536390539004, -0.02700820812414584, 0.5909302035744624, -1.853436161148664, 1.433608565381181], [1.689202250758516, -1.279771042188845, -1.840267376423458, 1.6940105509101673, 0.9544910854145834, -0.7206665829022754, 1.2078409297414803, -1.1744805741007194, -0.8987067084470555, 1.7358417499798162, 0.6431812755839874, 1.4145435004089655, -0.7076080983760806, -0.5754914369188433, -1.5350485640607112, -1.7436613427519698, 1.7374721759569933, 1.9634635417430175, 1.7695943352588408, -1.3682262575463162], [0.06609326680699334, -0.2960262321171987, 0.4247810501804983, 0.507840831819879, -1.2335941961442707, -0.2691617104855042, 0.4568613736866669, -1.6551670768186977, 1.4154374242062011, -1.3032970223170448, -1.0554396419973027, -1.8763345854219544, -1.3448379092072522, 0.9518626667883874, -0.2978057062116539, 0.8111606775853915, 0.9701614311490485, 0.6739249224787192, -0.7251524193015415, 0.7155759417554073], [1.996670390686766, 0.2855949269396496, -0.36920916982256413, -1.6073628999320784, -1.974000125281878, 0.439361486697317, 0.925800990694281, -1.9124425114734414, 1.7680085034593178, -0.9606928285383876, -0.045201142866802435, -1.9466150420109756, 0.32270186036602144, 1.259798970658513, -0.406090097634916, 0.965772846959168, 1.4414654249064527, -1.074778387947637, -1.297410058712393, -1.9160247335334435], [1.5012862589678728, 1.0960369740954303, 0.9248975561831387, 1.0268670519931624, 0.25230591831110605, 0.18847121834049618, 1.5764827166049988, 0.29256970265505666, -1.5342083846867882, -1.9098773175525934, -1.8576204161224488, 1.9650456972943062, -0.9809166824077158, 1.347918120413068, -0.4989344853867541, 0.8771648940879837, 1.2183587195318153, 1.078816485918217, 0.6476747562422247, 0.638586469446937], [0.19591968473806354, 0.9045605508289616, 0.7619759238247115, -0.7488376204861384, -0.6103304367817768, 1.6416989199193508, -1.9599206268485339, 0.3981926802179272, -1.446472639822817, 0.24466370652347846, 0.6738616973486562, 1.4593801809824036, -0.6007316680888746, 0.45481505244842957, -1.1730480036217226, -1.763906631136189, -0.5536233108384003, 1.0895689703001175, -1.4266125816167285, -0.28365049959907607], [0.6561891859179609, -0.48205067915749433, -1.6423640195803069, -0.41487033470514767, 1.190063952178559, 1.3507660774156696, -0.6511002520013833, 1.5998731409215852, 1.211061373484636, -0.4085614236898536, -1.1219402603579316, 1.2453657258123991, 0.4526237265055264, 1.522833277207937, -1.3089656002494392, -1.5312286261777666, 1.1430033640674075, 0.8011109317865888, -1.7735958848416047, -1.5429469500157502], [-0.5661776014288868, -1.9642561541976153, -1.8957555490810214, 1.7100295863862205, 0.5603540681544081, 0.2090663960684882, -0.7591256381464602, 0.2134752569761229, 0.8338072925555604, 0.5339543074471012, 0.656732077636569, 1.5492400436910065, 0.9047976788039422, -1.7726159995240138, 0.8835627670040158, 1.6044799584741027, 0.1964601399557795, 0.7713689630351679, 1.0494524618276393, -0.15017422771600142], [-1.6613330155969206, -1.0513695977958437, -1.8713005225793249, -1.4286216746471663, -0.20776839386850554, 1.9283669142037545, -0.9551335599270336, 1.6158721487147054, 0.1573778762019229, 0.11264372775479714, -0.6044469193849848, 0.7095858405356856, -1.7498737666787996, 0.03452637066714237, 1.6840038696733175, -1.1813662924952917, 1.8056754905892949, 1.8317025924456125, 1.758996662955381, -1.382301891304159], [0.27052954232012505, 0.11151310498351252, 0.5110229894109928, -0.7916149093918827, 1.876154964973098, 0.558278769405911, 1.3619885874652051, 1.8735750195206742, 1.0252531710585209, -1.6079112548598031, 0.17288235634006188, 0.8344841967895005, -0.9491284794886621, -1.6885954705104131, 1.99103451708786, -1.4016031954231516, 1.9952259001527115, -0.2958093459930229, -1.4668510763425315, -1.280153077895846], [1.3246013181118212, 1.8979548793238434, 0.6649330186075968, -1.6288058211927594, 1.902365529362834, 1.7729498876495566, 0.02714022732932664, 1.1186626513788398, 0.8083344056359301, 1.8821084615083232, 0.6309034967579068, 1.6683051791851704, -0.12069263031127342, 0.5925377901326447, -0.9145859199949968, -0.9196439264541327, 1.366035063073892, -0.055590210966988796, 0.29556293136484113, 0.12584381506765263], [-0.5868007509075235, 1.1831852677876808, 0.3182917362406026, 0.6740267211380391, 0.1371658715659314, 1.5252237331431884, 1.5266964365536078, -0.4857738334837638, -1.241392610859556, 0.16312554704256188, 1.1804592872800725, 0.18062905791679196, -0.9252194473950595, 0.7337564180483649, 0.15752947915596227, 0.19852231814505172, 0.5422602686194868, -1.3422673181594398, -1.1500645520890171, -1.4722554521003488], [1.8961721258138877, -1.8568526679797084, -1.5367000069779215, -0.5786640045363867, -1.9642981742250818, 1.7511678981706336, 0.8687268418570224, 1.8305912092122636, 1.296181303637323, -1.4111017059785373, 1.4404741158406735, 1.4800720067359463, -0.2909066003233036, 1.9078826131839821, -0.7536101352356477, -1.5490711819532708, 0.25557703246385044, -1.3163470110614712, 0.017824554885465194, -1.6578063180265796], [0.15237439017461085, -1.3708147697114863, 0.09802094774285575, -0.4978197466601113, -0.33348438215047604, 0.6301767636788154, 1.2955552029340875, 0.17156331041461792, -0.7017003124281844, -1.6328132625943597, 1.992767951727203, -1.371414459437239, -1.3928375796882078, 0.0006255778357084907, -1.630429196535807, 1.5338723683100648, -0.4582766349102676, -0.8609525792666597, 1.8385900563702893, 0.9428921930335723]], "bias": [[0.004871942413323116, 0.2552152988866453, 0.27773118575532096, 0.70707692884752, 0.9713193762146558, 0.6999325513037629, 0.281610139826298, 0.7518474848052453, 0.7747928396696171, 0.48498113882699456, 0.9470963985606184, 0.8336664652893148, 0.5509099996332332, 0.9931889560196191, 0.06763486274694197, 0.5017000438095003, 0.6283710431915601, 0.7668100153660401, 0.46808940126574006, 0.4160884930962554]]}, {"weights": [[-0.7984632500620821, -0.8401478393746693, -1.4944792586173152, -0.23712393650690533, -1.4565599670386193, 0.18020501689174173, -0.2753871317809238, -0.597812641025028, 1.4938959674840775, -0.1585901662865039, -0.7304214051853304, -0.5813739681329118, 1.6352640873724789, 1.2045712441958836, 0.9072012269080805, -1.4082629842528807, -0.1151382539275021, -0.2805146201540194, -1.590305797369258, 1.3030747742393562], [0.10176403656168098, -1.0163382327652744, -1.7211195932262875, 0.3223787175210999, -0.5099252136337271, 1.6650439708859537, -1.9014857700641001, -1.2165297541368831, 1.4638769682228565, 0.1853344450943175, 1.9938419271175731, -1.6725823478866002, 0.3116783120959683, 1.3269462605902969, 1.060861836070659, -1.1164246442821204, 0.08828762019237058, 1.7199830802172347, -1.712692341279742, 1.233540765387155], [-1.6269441581439654, -1.1068645194069497, 1.2951924491703561, -0.9041295764440531, -1.1535939440230019, 1.5132677802347532, 1.7354294485653896, -0.44765938203908107, -0.8840489584206668, 1.8880676297336239, 1.510480170751482, -1.4810567393046914, 1.61001973247066, 1.3419308877196543, -0.8157118240768515, 1.6138339346770625, 1.196140935677331, -0.322847514346694, -1.8194257022667384, -1.2179291205585923], [-0.61441768431252, 1.6320723113256501, 0.44730859412119006, 0.4407304602785578, 0.8336770825099675, 0.16804774666107125, 1.5710580553111972, -1.3982977513761816, -1.9369105816634202, -0.701509989738013, 1.267205784013533, 0.9412213766845752, 1.0631385852765258, -1.588312122335581, 1.2608446065467023, 0.35006519490776355, 1.507693396883242, 1.5373175150711602, 1.3162493753194253, 1.605485981732003], [-0.6204253661195467, -1.4595032052982715, 1.304518022129117, -0.9997452758594569, 1.1042091531529352, 1.1823215176639224, -0.2670140332087576, -1.1856474012311375, -0.17087737146659432, 0.5935715866695497, 1.3078592675282992, -0.7598176424399896, 1.057305081418566, 0.8002055063665918, -0.11179602086340346, -1.5488136898706348, -1.645838869822569, 1.2561553354289008, -1.153150313647382, 0.9324427562994488], [0.33282574356757966, -0.45342522621914494, 1.0989055408307848, -1.1894811154233143, -1.951056929078851, -1.4788607138319283, 1.0398548983216123, -1.1623723123220855, 0.8672503467714385, -0.3963795690303815, -1.3796190851439185, 0.8878655994552092, 0.9823500253669546, -1.028987335605481, -0.08680757034699882, 1.652770820430908, -1.4460720139677674, -0.6213199541827055, -1.6382234667812128, 1.139709701483043], [1.5222564512246746, 0.6029293019539783, 1.6925270246542632, 0.5828348154719558, 1.5392651356531415, -0.30233749209361127, -1.9348905478294403, -0.33175488967200994, -1.1049405609080356, 1.7171868099510057, -0.08902461405174655, -1.5738817825741531, -0.40116242479024056, -0.034616807659436866, 0.6625569482121976, 0.8531665399386932, -0.45250826419728085, -1.727551312865486, 1.7963943727479736, -1.1879514697725408], [-1.5894540157157926, 0.9313894920334969, 0.3528927889615092, 0.6807976412200474, 1.357528469551593, -0.26064779029043894, 0.6838725374157759, 1.7244004699929167, -0.09530524476349855, -1.2383297744836228, 1.777644339034325, 1.2819144909761153, -0.5659145886127255, 1.1078709325239706, -1.9694540196939752, 1.003594383693207, -0.9684119185493256, 0.1806046914599544, 0.24816860918418637, -1.0515447948260266], [1.4130884679446192, -0.09081671118976953, -1.184011657705983, 1.7670891049131403, 1.2565544032177112, -0.34183254102183636, 1.5982381889818384, 0.7244802938426331, -0.47469544613316295, -0.27160918298633696, -0.9962108798118909, 0.42869128562251646, 0.6540900740132058, 1.0638365431422523, 1.1454263018617432, -1.8035060042564335, -0.9423553596832539, 0.056603803625519866, -1.8180406732369185, -1.6075399980136007], [-1.008780149738015, 0.7527801619919745, -1.531862272049148, 1.8435982405582134, -0.3922765301854536, 1.8870080998717782, -0.952274181033137, -1.5704749360206898, 0.3019948236168766, -0.7679872104355674, 1.0799883585402, -0.039249897753500296, 1.1548254287477042, -1.9969390336946815, -0.009439274524111418, -0.7435162077302726, 0.005746579489196879, 0.6167598052604988, 1.8705367451328696, -1.2712869216554172], [-0.166835063051054, -0.6108036934614178, -1.38318723343605, 0.5653593034437594, 1.586467396734581, 1.3520512402387124, 0.6333397714747555, 0.8073252842475616, -1.686809125351576, 0.6341773724912887, 1.4809009225421752, -1.8434124174834619, -1.1630390172093152, -0.7117093923285998, 1.8147577666441586, -0.060486199774532956, -1.6276976094184636, -1.6679074251686279, -1.9733548491027961, -1.1856400114637635], [-0.4681290785124621, -0.32412109034348724, 0.1771780029006873, 1.772654629865419, -1.1983631440902531, 1.1010208973101827, -0.4622386831427625, 0.21180357809121642, -0.1757578198595504, 0.13013950050712797, -1.8341456318157263, -1.1858661842939675, -1.9304649536027174, -1.1701898567045892, -0.6966670775136978, -0.47540257013289233, -1.5595018943702819, -0.20450166837315908, 1.7934144982083162, -0.5108293553691605], [-1.564352576948659, 1.5190731769023031, 0.5915564293137554, 1.7607096786908043, 0.6575877786370401, -1.939618303015326, 1.5717631737765632, -0.990495899072243, -1.4876930484289907, -0.7225501983300697, 0.5817914757244735, 0.5164399906804338, 0.5196438579562779, -1.0509903114015628, -0.5090826440405243, 1.0944149343064455, 1.0045132939033872, -1.5257429264868585, 1.8461613482327084, -0.8720948834748543], [1.2660694386796671, 0.8410081199865211, -1.4280028720188733, -1.263049379123936, 0.5584278171173254, 0.40067942496656217, 1.1884111812924174, -0.8649162344352441, -0.7936796337520069, -1.6309403765303387, 0.16411723846073833, -0.6100904030769492, -0.42518149398021743, 0.33103080520732053, -1.7857536918735604, -1.205617108367972, -0.3740808453678497, -1.467351730686329, -1.3804006529047816, 0.7638528557829023], [1.3627717701723037, -0.6042857549450615, 0.4052830290217484, -1.2196438305932578, -1.8895718932808863, 0.046290079943123175, 0.1721940138135225, -0.1066697645458694, 1.9604885005629238, 0.720977694994879, 1.4327941613109414, -0.8451823550485931, -1.4342423093294787, 1.1901286772113058, 0.09244347769090178, -0.8200614623733808, -0.06062505815834207, 1.6882479784070674, 1.5261352568105946, 1.3232989381713685], [0.028216105279426085, 0.32038708464902355, 0.5109202166101161, -1.2929343724044418, -0.9420578765021888, -1.4939033478560604, -1.9453076568985654, 0.21227486886997093, -1.722543146212249, 0.06183353666975355, -1.142158659991276, 1.4761739061188988, -1.1036295355067773, -0.3860883667339232, 0.34510496456462114, 0.3366157283753495, 0.9343911480304685, -0.7420790082660877, -1.393361432064335, 0.03727966825601925], [1.103373376457311, -0.6673523441500038, -0.6029727994642364, 1.4679971180986233, -0.47284524907842806, 0.6347143724449378, 1.4154614916753574, -1.300978628709085, 1.4067737225280932, -1.007155800772063, -1.8784114437565216, -1.8198733028175296, -0.8988676643502651, 1.4394902773064233, -0.316539821654259, -1.1837613425486144, 0.3123374446791032, -0.6412104894258284, 1.6145122020451876, 1.579774305326568], [0.5789522846443109, 1.4307278429246164, -0.21943329129452493, -0.9432843757092528, 0.0988307497540517, -0.3349382715934155, 0.18065972700824284, -0.41212129405195075, -0.3193533835223987, -0.4449224794734845, 0.20584089927124216, 1.5313659709234968, 1.3366835350637634, 0.3926856960772729, -1.0737664612392193, -1.2329369108963295, -1.8436094625424064, 1.938184978482672, -1.382813008483673, -1.710724485042646], [0.2303307376900392, 0.8579424631229653, 1.7280044896646398, 1.7720704568997592, 1.627868765691705, 1.480915307263201, -1.5371203223015462, 1.8169701096933242, 0.12463362670429667, -1.3611778230642195, 0.4915380750607472, 1.4685896136669268, -1.6898405448618767, -1.5064508535449095, -0.24142962670860424, -0.5376395795887952, -0.9487343392160374, -1.7248916528308782, 1.8314183158318413, 0.8053366881146844], [-0.8003047071723248, -1.1131312084583151, 1.454749109381495, 1.340859768049751, -1.3605874872950992, 1.4603276021968563, 0.43113207349601357, -1.8329866994931545, 0.7085040751267848, 1.2931118843662754, 0.15846849618161452, 1.9499503399294835, -0.11383103824128948, -1.891084929126762, -0.6990077796747611, 1.5541364710238237, -1.460416695985511, -1.5958931414683857, 0.6638588278006101, 1.1382738581834424]], "bias": [[0.4090260909012998, 0.4427712418664329, 0.6789764170918009, 0.8369448323893375, 0.15256206771173608, 0.40075344919573963, 0.2809437997709031, 0.5676332108025692, 0.08739115435774869, 0.8951121580195526, 0.9797176507566238, 0.3996688492341868, 0.4381076477265896, 0.9318058625878637, 0.7651098739470528, 0.996100469493097, 0.6251521325043328, 0.07106015981921598, 0.8067720698982035, 0.11590405577986707]]}, {"weights": [[-0.9363581998085642, -0.4681265255519951, 0.19805148779214354, 0.9926618561099598, -0.3634297318514359, -0.23173799731686717, -1.8058046165631283, 1.8311234927933495, 0.31891364442231573, 1.4669667706883827, 0.8517394502129743, 1.4461742562169628, -1.6807632764200413, 0.12614976589885663, 1.4387816470961572, 0.7699918780323025, -0.927697721404233, -1.6654292032540976, -0.4610714465388468, 0.38729516496602256], [1.8431323026260809, -1.6680254401716077, -0.5279185126184562, -0.8146169290511924, -1.5889073328895593, -0.34325347436736964, 1.019632058556235, -1.4018460397536643, -1.9202612162778614, -1.7600539379756328, 0.1195765745442614, -0.8922573215135947, -1.0146168888335412, 0.9889871719823029, 1.3338119797581198, -0.6830399295695768, 0.052117790557091315, 0.37929166111186063, 1.1960133147749317, -1.022751359827239], [0.280252396401127, -1.0647851300432802, -1.2430689457316833, -0.9802272968929602, -1.3132120619668437, -0.557383084501311, 0.5452359194068568, -0.9834239421668549, 1.9905638470486893, -1.3929031668754348, 0.9647838187249134, -0.36478673925418503, 0.7502536816977159, 0.24165113630761104, 1.9628380181959324, -0.41406923990479383, 1.1152875954095256, -0.35767075658683867, 0.3689511323841139, 1.3028662649188214], [-1.098644233349035, -0.6760924514655513, 0.3815616405299491, 1.275787829339977, 0.3710070187682124, 0.7509446939024351, 1.906000117824468, 0.9540238993558341, -1.9371546177102097, -1.868238627032798, 0.1261151363111317, -0.8953160164964968, 1.1317330604759914, -0.957477111165677, 0.11028318434297413, 0.5612431037096384, 1.7823622244048845, 1.167892570617814, 0.9062625134881439, 0.42635599413035097], [-0.3473962575219627, 1.2809610064075865, -0.6773108030338046, 1.198084952667052, 1.1030282188372498, 1.6858251135618811, 1.4020375737670236, -1.5276098589122693, 0.14147351784548645, 1.9956986675283712, 0.6909339782342614, -1.0915842144781664, 0.0993528812498532, -1.4571698417357042, 1.356242053533402, 1.91706470880141, -1.2714314973752026, -0.2445303137861763, -0.6748188003652098, -1.6142013962502277], [-1.53410346239085, 1.829320311314977, -1.6217819979026196, 0.289674886930368, 1.5025349733766409, 1.5519371496897478, -1.2804586639134112, 0.8663193882274887, -0.1841421405582957, 1.3930570826931512, -1.404995787087838, 1.4132447077910553, -1.9753279640137635, -1.0935096049843258, -1.4004387270064123, -1.6917037606444176, -1.024116137497808, 0.7322181658647384, 0.2917835773912527, -0.40407094160635015], [-1.4282219572727906, -0.9824291960180256, 1.869148659593578, 1.3299818467582276, 0.6698884835224703, 1.1349266746276507, 1.2079010333750393, -1.3027005988452198, -0.914180812788469, 1.4979883703056553, 1.3279365270648094, 1.4626815655731384, -1.4001831902844257, -1.3320926133006563, -1.3997314630765243, 1.046087485873267, 1.8465319659491484, 1.6986298628654546, 0.853282976129067, 0.27800538173284073], [-1.2680065864514987, 1.7285539656432216, -0.5065643193601335, -0.14966696062577034, 1.5875423222387108, 1.4709387973415007, 1.160541448565926, 0.27623871115526244, 1.1897761225999308, 1.3440329361746528, -1.6708876746963472, 0.17007754091406646, 1.6700178270709416, -0.49118186887029314, -1.529171146357498, -0.287408786875762, 1.9926443791683317, 1.6395629045704503, -0.11220753847031961, -1.9664285469340363], [0.7996935335215118, -0.9439607844303968, 0.2831311642261847, 0.8000559392994071, 1.820604421155961, -0.0205677946403946, -0.3743421378726697, 0.8770128285538017, 0.6784661818558053, -1.8203700956194973, -1.3785833317534686, 1.6739243075739947, -0.7193094038648709, -0.2948782168869246, -1.9223506191315711, 0.5068118666054158, 1.33375880358225, -1.6947328438627398, 1.649147212179987, 1.3924336172971596], [1.0048195423493138, 0.7730751661302837, -0.13125400280632293, -1.8820662906222885, -0.9811802167224899, 0.0018905770782171594, -1.077686603979354, 1.8153005934913264, -1.7735389906868249, -1.3786744792185752, -1.3077839042224584, 0.2923543037409151, 0.3611890998387457, -1.3816286184245876, -1.5573376637246321, 0.9938458989347083, 0.9787481858106704, 1.8774914869572368, 0.5527997752985296, -0.10686447740278648], [0.5265216092303389, 0.2884350254305308, 1.031141182706611, -0.36334927078874424, -1.1542522545800868, 1.67066473801286, -0.06566068818002613, -0.6246279961615344, 0.393643203663653, -0.09738380533283086, 1.1676668562808672, 0.9727347325380058, 0.7826245013094244, -0.3658469221975307, 0.15387074981612336, -1.7920348667474162, -0.44027157465189193, -1.5841337751418818, -1.7228084199092315, 1.3465375094845973], [-1.579345257171949, -1.1564576344457453, 0.87769609853303, 1.3092318185671346, -1.0478534370512311, 1.5505986207505624, 0.38500408678300824, 0.8099979973074425, 0.2771964157524587, -0.7232941537784545, 0.08028354348879052, -1.3536510648079876, 0.5868495429748419, 1.7995800952801715, 0.2392518774247958, 1.8329566221690548, -0.7270026654378556, 0.6238801808771379, 1.0201459003232443, 0.250188068830699], [0.7512114910500345, 1.5868981303819951, -1.2988465843849393, 0.5611049667245394, -0.6247528533295741, -0.23312111042990047, -0.5543268694667605, -1.750050873725137, -1.537867761453331, 1.2110374821012102, -1.0641945521234795, -1.3098358243456407, 1.2006892166516265, 1.8610090370099628, -0.6649369976186401, 0.3382561080648281, -1.3052363255114399, -0.19457776615587274, -1.8375479518468114, 0.33284694243302404], [-0.7933267881430472, 0.24894780798578964, 0.4770002232903545, 1.841170639081362, -0.7952502607075642, -1.5719789096807837, -0.43824724285207983, -0.6006973436762979, 0.3916865224334356, -0.05689327087578233, 1.5148672667114291, -0.6849237204660654, -0.9939804148927229, -0.915606834540065, -1.9322261059671586, -1.9336530093392748, -1.905076299970824, -1.3578141397470778, 0.5682945501175052, 1.9414907444301512], [0.09951657004067282, -1.0865105161125355, -0.9035104892589634, 1.5332566650386554, -0.9635539514028748, 0.24265794597000045, -1.9466509780645174, -1.13091284965288, -1.9377639534489974, -1.0106827672727414, -1.1820850256372926, 1.531344719370471, 0.2531250335161124, 1.8539310005775542, -1.012771560398086, 0.3188918043878046, 0.24976017262111316, 0.1779386180563698, 1.0127451307243178, -1.5053679019573298], [-1.4766929683862235, -0.16255603441978694, -1.8317837094059146, 0.16422565021206958, 1.2095338117779977, 0.9885525380732778, 0.39561715643963424, 1.7426662149906424, -1.421347072664287, -1.7657771834286957, 0.3964753807210579, -1.4854283047595138, -0.7088442087882538, 0.9143784395853136, -1.9187422428992256, 0.6236490208341308, -1.3117874455654865, -0.12510240762861358, 1.6056941051828133, 1.4002613401985604], [-0.4570379027426883, -1.9054846206924627, -1.5828236053797764, -0.22991103996271134, -1.0105676325929651, -1.4521149954684556, 0.846729452869472, 0.5894648433116867, -0.7938799617160459, 1.336180545493499, -1.3926335310291118, 1.0966917090647188, 0.28739504675677585, -0.6946174223910901, -1.1584245134354219, 0.805617140782457, 1.6338906978865504, -0.9409874870807271, -0.9121464017580445, -1.0511667584238666], [-1.732572775483352, -1.1986248560562331, 1.4039588066866502, -1.8326640674234445, -1.449347949341984, -0.25591338221745596, 1.2096598908480094, 1.2806715714433663, 1.0279537628540099, 0.3568023916093783, -1.8134617588492898, -1.3319566294220233, 0.30355661641298637, 1.2495350651374406, 0.827699353034661, 0.8812542025503571, 1.9290168109065386, 0.5893246031602004, 0.034039274551476595, -1.739806983455583], [1.545780386068531, 1.5395118090607824, 0.5078781722388563, 0.6579486468850702, -1.211783296033698, 0.440808103423167, 1.6353261595313442, -0.9666030663502845, 0.9113411889211611, -1.7363830039486499, 1.1513411346047642, -0.8715008214787741, -1.1380297937395776, -1.2461142789599995, 1.0806595346592909, -1.5666894721961597, 0.965962795661667, 0.5167509247826572, 0.6469896772522192, 0.33369791940167204], [-0.44005137782729475, 1.6435545046438063, -0.9955392455003729, -1.6301522059769042, -0.4038929889657741, 1.0566578071124297, -1.242665788684857, 0.13891916846619834, -1.2840807545302333, -0.8527651433033636, 1.495104571790777, -1.9608696500780827, -0.8297413715798174, -1.676468998011663, -1.2278050180131501, -0.09550675942735687, -0.07290113114378372, -0.5303607718055448, -0.0016181918668971562, 0.7013695393383594]], "bias": [[0.8502185427716535, 0.36333400271672756, 0.6154764235217789, 0.9110118951301521, 0.5096267681175515, 0.8723338241788273, 0.6059774598338075, 0.11712268284339356, 0.11035835662010018, 0.2627102278027188, 0.5138418475969037, 0.3912393873818175, 0.806026113643823, 0.7476091648593238, 0.03563225489147237, 0.6162238137822849, 0.4163476385140279, 0.8394434781201339, 0.576248318387897, 0.3082609809636403]]}, {"weights": [[0.7710303228332425, -0.9017101429441374, -1.765408119052338, -1.2259409100775565, 0.2754513690217486, -0.2125498753541022, 0.7453939053459457], [1.012300287836239, -0.3335828294808816, 0.21200990381089113, 1.903766566578505, 1.6007735520510864, -0.8292678740475403, -1.4084485939551197], [-1.5844649497548846, -1.6522368974970583, 0.8072651994576416, 0.18525124288344896, -0.40797552047215113, 1.843055261054404, 0.5444229848302768], [0.9031553362413525, -0.971530645629413, -0.4006993309500153, -1.1879060028776331, -0.9053276736533236, 0.05207397390001001, 0.0808868929274551], [1.2169173581374966, 0.006611525331750023, 0.7619854490985496, 0.6308571935068037, 1.1527056132983442, 1.0588188237323588, -1.472628531431202], [0.5179745621023524, -1.4425524838265487, -1.8347362856968954, 1.876594108063434, -0.13636925227361063, -0.5982829151195896, 1.059417916765617], [-0.49759080237041875, 1.511573873842381, 0.9459666378049154, -1.457422688950134, 0.827424491255766, 1.6101893312933697, 0.6285876493705871], [-0.09392597445353967, -0.5810022226671854, -1.1088487130231384, -0.6763521009835753, 1.6608555202485844, 0.14818050486378542, -1.5146812222728063], [1.6669810914600731, -1.934529431418873, -1.1116335957365706, 1.6248330612572683, 0.6483275888879194, -0.9802071121714477, -1.0914786797831892], [0.057133849316199026, 0.8055811673502631, 0.6957479016903463, 0.1255952089808572, 1.46597294631071, 1.1836595612778247, 1.2576595370535015], [-1.61774546614147, 1.831608887913685, -1.75598591837536, 1.920168235339002, -0.9615288193489717, 1.5207596573651734, -1.7658358904124127], [-0.44532437806944447, 0.3088545536997822, 1.8946286158927652, -0.9691633551832282, 1.8996026006991142, -1.6164569364799046, 0.309715265039638], [-0.4763419174384058, 0.5997772364297518, 0.9971648735809069, 0.9850280604008437, -0.5207370634191828, 1.9250075490868572, -0.5591478467793691], [0.7689602487228773, -1.7568480330670053, -1.2671232130031673, 0.04793310144357532, -0.10444883542299888, -0.707050069308357, 0.07998767264266693], [1.228459081775089, 0.10215012055599137, -0.633954929982893, 1.9565359380876837, -1.0281533180802134, -1.7323720205006654, 0.21188843326657691], [0.9636374996047841, -0.8646577733767522, 0.7278352061634492, 1.9053376588951667, 1.2707885677298014, -1.3504554634559298, 1.2615645333629542], [-0.6542538420860211, -1.371604602284322, 0.23865308592500556, 1.2547585671267791, -0.4798637234138381, 0.3413214598102825, -0.265548763674214], [0.5843145059832313, 0.6414467293240964, 1.53805312265296, 1.1701975786890717, 0.5586802585435517, 1.9474299590722168, -1.31599586675044], [-0.03963567131109702, -1.7347726001816057, -0.8062883820725779, -0.36580396413682426, 1.4226168934782062, -1.4969687329335652, -1.5103996680270662], [-0.27333087119252486, -0.47451290422026915, -1.1521082737687443, -0.8636524839103519, 0.5514205158637169, -1.0746165156057095, 0.20679492517856612]], "bias": [[0.591070021693295, 0.2775138168872384, 0.10244829361213814, 0.6176341801209045, 0.5121019538117098, 0.12088023247959623, 0.5944246841206521]]}], "input_length": 17, "nb_hidden_layers": 5, "hidden_layers_length": 20}, "index_in_population": 3, "sprite_height": 100, "sprite_width": 120}