{"color_name": "yellow2", "file": "Ken", "population_number": 74, "neural_net": {"output_length": 7, "hidden_layers": [{"weights": [[1.913705460891069, -0.5973695639414651, -0.41273883563381686, -0.1419340721113196, -0.542725910748632, 0.6641027746324304, -1.853816601324977, 1.594284131865927, 0.625660137987738, 1.6569292826913191, -1.795840714410668, -0.5172227691642912, 0.16451433498414003, 1.3805633090392213, 0.30884990968507653, 0.9152373066113211, 1.2075400814178088, 0.8433270796746699, 1.560255751799505, 1.2853773914233306], [0.6438715970296629, 0.98527166115402, 1.6518529902295644, 0.4369081534390524, 0.8225868805119303, -0.04959707868476837, -0.11086359142505087, 0.38917868424030644, -0.20291931113874995, 0.7223989731965874, -0.2879792649751072, -1.3348375889557813, 1.3648764786296645, 0.6617082544376411, -0.5316426542169519, 0.4721209798986927, 1.0839710933771283, 0.6599138517999172, -0.13984357875222475, 1.4632603986610229], [-0.29472455304763967, -1.5389119423116093, 0.9084899852904713, -1.3760560096660215, 1.7100128744094722, -1.6742570027482455, 0.5927733086953761, -0.07204225406840736, 0.4694854660682939, 0.37221930542978265, 0.45399693543379094, 1.4158864834396914, 0.9259670467420218, 0.9159146850765412, -1.4111070546904823, -1.0828085219567174, 1.2402307576086788, 1.9663977191543802, -0.46118196195978367, -1.0916621700715314], [-0.5727749735841194, -1.7492338525695237, 1.896610275928198, 1.1553601442740842, 1.078064901077001, 0.8376159561528516, -0.4647433775027192, 0.2846000366931025, -1.9122421433240016, 1.9442716381167067, 1.343248595497284, -0.597379671605649, 1.2811308850282224, -0.07466054840824521, -0.7005255067301133, 0.4654081117995834, 0.0709597626385241, -0.7946400177644755, 1.6975447435201882, 0.4048693742275633], [1.4214622950098033, -0.7931975427755402, -1.8284700555279159, -0.5272003592359886, -0.3764048383374097, -0.14904003965850388, 0.031387861634005976, 0.7887791824413677, 0.8600844252716837, -0.6193208808835773, -1.8305213166640222, -0.1075997006186804, -0.22181290994934288, -0.8206706535331016, 0.4464082110066747, 0.9954729577777535, -1.3589262383702567, -1.6716247503073691, -1.3911708721821685, -1.9950109048817901], [0.35312363276187053, 0.8159816666278048, -0.0036676360756966453, -1.2611084950698523, 1.057930997488309, 1.4775735670669228, 0.3584626183082755, 0.9934347685446849, -1.1699853143378345, 0.5569292186566894, 0.8025770862463131, -1.1936321790125968, -0.39845159122029417, -1.6600492919652217, 1.4752357854012739, -0.8510837010327603, -0.34790747986893855, -0.3994179856997109, -0.22562989824926172, -0.1920797626419697], [1.9943809614534165, -1.091792186528754, -0.3366322074351591, 1.9852581684144623, 1.7233628718411347, -1.916095475892682, 1.7370120867194738, 1.0000371162984965, 1.0895276486858787, -0.7427128964135132, -1.7459930139313964, -0.31838947566705134, 1.1974336099432152, -1.025521032050381, 0.9927362207098454, -1.4533287946166409, 0.11162811265400219, -1.007714626742918, 1.8245417876428287, -1.5752651501389114], [-0.9505681827698824, 1.7363733043636467, 1.9721672256722038, 0.1057977345131551, -1.0828045499614531, -1.5182376897411207, -1.039063791003099, 1.1950866378528207, 1.7951747184712668, -0.944785497461206, -1.6298864360293597, 1.4704961547773632, 1.2517700976554265, -0.4746707513407604, 0.24375373974050119, 0.45797896724902554, 1.1279908859272418, -0.17528374070095065, 0.4631077719579624, -1.7643255480955382], [-1.6203050394932492, -1.28015936113345, 1.8313565754562706, 0.7470927194079762, -0.5673751177182771, 1.1274187087466183, -1.1799295829510483, -0.8127929426763139, -1.3478011164431316, 1.163513574219893, 1.0542293641609062, 1.3514480942135019, -1.3392513594451305, -1.3372898095615953, -0.28009601088223013, 1.6686607390056918, -0.5594181766266466, 0.4640632184996676, 1.0895500215754206, 1.4401089282544257], [-1.1743660290250637, 0.2211961096890045, -1.7637863780716767, -1.3070535983822569, -0.7518062108931116, -0.8085958384884591, -0.10442959757352943, -1.20145828121146, 1.0296188569795688, -0.3440758681844156, -1.5559999858131706, -1.5753504625159112, -0.8413170329449384, 0.7429064854525622, -1.909994615603655, -1.4883962407201574, -1.5991697120656254, 1.143155905664687, 1.2841313723064984, -0.7508313785012701], [-1.629786080959163, -0.8928197227147829, 1.4902956232972029, 1.186983288283081, -0.7220621546622961, 1.983730842867792, 1.5860746240039427, -0.07577180100787428, -1.4292834397748742, 1.641819779717813, -0.11489227019800774, 1.8627245662355678, -1.5800742979090425, -0.38110496766736324, -1.6060035393835377, 1.5399576550013454, 0.5532148904315299, -0.1767062177595604, 1.2000037659595097, -1.2831113426841045], [0.3054680839052457, 0.7428438644570381, -0.586207698998467, -1.6980962334475977, 0.873049356253083, 1.267569899194564, -1.4530572045718393, -0.009193234962063812, 0.8923445539930417, 1.9093359790969764, 0.35118589430327374, -0.6117693751685507, 1.0794188550955708, -1.413717115671154, -0.3195339504256851, 0.6228434439973825, 0.6976079967340922, -0.2579652554923899, -0.3304410356067655, -0.5517734182660337], [0.8445122584698179, -0.5957167732988524, 1.5126518462812077, 1.097690963304795, -1.8234762562871984, -0.17993098959164522, 1.664112713628469, -0.5443662560896252, 1.8310060262716972, -1.289573250717503, -1.010959431112564, 0.976058978828612, -0.7784657774347807, 1.5834181397654858, -1.026028252885959, 0.03302146453756816, -0.8325796240073755, -0.8312981111559314, 0.6753522886161254, 0.8152244614867907], [0.6657060490845415, -1.6077635970460604, -0.684931353440617, -1.720749235825246, 1.225472496316042, -1.9990588150999877, -0.15435747060354998, 0.15475871770327254, -1.1590380116324304, -1.756856599518609, -0.8263973457028007, -1.1600626597987453, 0.9172910339945379, -0.5670501741806611, 1.6764422691085037, -0.32284021106359173, -0.918854855451761, -1.7799405137777722, -0.6395925882566087, -1.254712833545443], [-0.34593562539220635, -1.3033338784939104, -1.4934232940611274, 1.3591677947970373, 1.5102128838600763, -1.0841560036289244, -0.4220420279946744, -0.47722312944670664, 0.7601125841226528, 0.9615382830086241, 0.6521660193719172, 0.7097383278813214, 1.421093083627225, 0.45424507026790506, 0.5263585612095074, -0.1193137188972413, 0.38944330158190965, 1.7728836030760409, -0.5385484150540454, 1.7150431914966133], [1.5948090265416175, -0.1934232713308477, -0.04079127860752729, -1.5275081938784765, -0.24095729648239272, -1.7006472830997192, -1.1805300745263958, 0.7614306002559319, -1.8397536326855928, 0.8629441859624616, -0.29688650829720453, 1.5758243759877755, -1.64864923835328, -1.8974100123170823, -1.6344441859745245, -0.41676906483433873, -0.5338232570962398, 0.053696333761956705, 0.3635148507844983, 1.1991527590436766], [-1.398037106080538, -1.9751739452220787, -1.012512266329035, 0.9856044609724979, 0.2929672013867708, -1.5077439674391324, -0.9682416028836234, -0.7329252029492421, -0.426993714418725, -1.1329165324444692, -0.9525429052607368, -1.9656215548415839, 1.2498221349217453, 0.6954573232590517, -1.7418189416750027, 0.177611398415654, 1.5172655695398252, 0.3626094558784545, -1.9552000870345614, -1.0807323599794696]], "bias": [[0.8318294742144665, 0.20633918052599587, 0.08068345913635955, 0.5351412112374561, 0.42420427374552383, 0.26411188789986506, 0.696041760844143, 0.4421216053704621, 0.8967365453488866, 0.03756136420543177, 0.22959162495180718, 0.7338211893120004, 0.2503112588157671, 0.5199044153495853, 0.9315921294915145, 0.05783754921103579, 0.7670347949770309, 0.2500168245638995, 0.6616120214586073, 0.7967499455001422]]}, {"weights": [[0.09537011970556053, 0.028983893179408415, 1.7787817881237484, -1.2697852686571118, -0.9136728644161272, -1.7918451028899645, 1.9157430687339212, 1.918811574353691, -1.059555543318604, 0.0031946312689066225, 0.7011076855459542, -0.5098327635612443, -1.5651943590084314, 1.3649696040565402, -1.8383719772853278, -1.4374506829301867, -0.8454176467004944, 0.17249801995200365, 0.41923703466208906, -1.197792606791157], [1.8992187197897725, -0.17587203960820474, -0.6157526817927748, -1.898431106856341, -0.3450671181258529, -1.7570457626512654, -0.8101260205626946, 0.5053303344874847, -0.1001635746816909, 1.7353114793356075, -0.8759406339179625, -1.1406217111936994, -1.881871536059636, 1.3844939197560726, 0.5980487735413722, -1.6648123885419044, 1.5346467299395727, -1.2230689353470892, 1.0903484168433595, -1.593279682089602], [0.004867348440742436, -1.9102076337696183, 0.5895234854977383, 1.7346283874864792, -1.23358406251642, 0.6588226980698049, -0.6638604814629026, 0.6218342278692273, 1.556703863535045, 0.18994091130090096, 1.7475726257968818, -1.1748260982669305, -0.014996432046276098, -0.47467037393790656, -0.8364419609057103, 0.09713787653765182, 1.6469495030293482, 1.6737766277862467, 1.8608049359247048, 0.8677669138975639], [1.4663494243158377, 1.8287946946529776, -0.5316379875544395, -1.100634256003882, -1.4126986287332546, -1.214839843779158, -0.36592558786233864, -1.6146193292714752, 0.08638476146928165, 0.3677177114290595, -1.6797077092959918, 0.6514183812911822, 1.885409577131965, -1.2387944509183186, 1.8589279166065782, 0.37364989976040475, -0.9946683844857382, -0.7786875799424693, -1.1100884592637206, 0.8487233539528427], [1.0177241423109766, -1.34487728412428, 1.770015811205647, 1.4602137419890102, -1.0063989619000608, -0.6848220543985835, -1.079179053557957, -0.14738569375875699, -1.8723071447201254, -1.0634902218492965, 0.2634048703921632, -0.7691277831490444, -1.420894172153103, 0.4905023102904331, 0.8887872699996322, 1.5340458632204141, 1.2672830112013385, -0.735757306635668, -0.7108254776264791, 0.8372423991773332], [-1.2133413616526987, 0.43488153561373055, 0.30271955217761803, 0.24364216361570268, -0.7479547347146882, 0.028138672004112575, -0.8011831225861172, 1.4410016808882178, -0.3632918111670902, 0.2722518534706251, -1.5609527561309906, -1.8422109132797253, -1.3823795261931764, -1.2966932720830666, 1.3496455149380493, 1.32503206266863, 1.3038740403045281, 0.45481953793385843, 1.1887083058643717, -1.3370287602927635], [-0.5328647679220397, 1.0037577135034619, -1.0601850240269473, 0.02821521133277649, -0.915553678360455, -1.9889766572437466, 0.6530971517245274, 0.6098207040351382, 0.819263450812826, -0.5998240491336566, 0.8194040378790528, -1.3735238461183927, -1.849933936985698, -0.42480676454254596, 1.3270670066045147, -1.0361191714968618, -0.24285782863253624, -0.40716272227249917, -1.1237023159786999, 1.0017693146490076], [-0.3475917770316701, -1.391528353387537, -1.38514161704523, -0.3930064004342242, 1.2907559436139593, 0.6422469156372954, 0.5692503308701498, -0.22210516560920235, 0.8088935985254633, 0.1801236881891497, -1.1851960710452585, -0.8554479032202162, -0.8220521342992257, -0.5197791776874334, -0.054739914235999, -1.3306006454429191, -0.10226554100416996, -0.3913768066246197, -0.5556294312480805, 0.29139737691926904], [-0.661137714139648, -1.092953264804156, 0.4751774889299125, -0.5110245244433123, 0.7268910967075364, 1.3875091844134646, 0.312814836824435, 0.5743864743308231, 0.8310639635126384, 0.0198804900993772, -1.6856432067691887, -1.7966045066923155, 1.4192435481135046, 0.45275026103931504, -1.5766164612656395, 0.22098751104107128, -0.8046765821758166, 0.3418110726864936, 1.776026877711085, -0.8488968147624387], [-1.4346327799299763, -1.7518880668818384, 1.4312146136123647, 0.565230667253966, -0.5248234634644677, 1.4908601915392414, -1.4790838175224343, 0.01724974235097898, -0.37655978638908794, 0.611869997131075, -0.91695588528213, -1.4983643261632227, -1.0444876413455413, 0.9043713669146585, 0.49772546923216954, -0.7723884824027669, -1.9213183738592052, 0.0016359141420787537, -1.2498554696286353, -0.4283884119604955], [-1.1609729505803403, -1.0056717177097663, -1.1135533786379175, -1.7169862016814386, 1.6083418248294512, -1.410154482289228, 1.7094549393818679, 1.5259578538506862, 1.7491523892925507, -1.5032415487236546, -0.9892624755734549, -1.948954323164454, -1.3933801272166777, -1.150396706369368, 0.6198211257112964, 1.6641414964230363, 1.8854350179866897, 1.810170721727078, 0.6224262954498299, -0.8270250104479504], [1.710018619418169, -0.01636275825874689, 1.191948476954618, -1.6584859545348265, -0.6299402200110995, -1.8144956802055061, -0.4539088061848946, 0.6245820274285534, -1.7659178617529743, -0.09490364429547515, -1.607092314345297, 0.06478177152038977, 1.3690762714850981, 1.2456971744002372, -0.39225163762938475, -1.0095515425122268, 1.561985938835317, 0.7279225147235193, 1.3017135190704066, 1.6228293593144603], [0.6080997448077143, 1.0117422475897664, 1.2207949579906985, -1.0020427455957743, -1.3464380600243615, 1.2435524480092384, -1.1574588342196388, 0.7064120170587311, -0.40603457187200176, -1.5879678895019849, 0.4967862105841099, -1.5090394575954185, 0.25378422377398513, -1.695429466938693, 0.5976949479709299, -0.5821856084610624, -0.5349498904741137, 1.0059495997317662, -0.3602721248700669, 0.32022931454111214], [-1.4173751536435355, -1.5445072898014858, -0.057678204095994, -0.972135652596918, -0.3430324151764266, 0.3703094498734183, -0.11370122748621014, 1.3092845855691881, 0.1689853988401775, -0.6839916340283221, 0.07815854757798046, 0.9453277412359107, 0.6519400417874683, -0.31482242245310177, 0.5633415045533754, 1.7164218321967217, -0.2450545276834566, 1.9756910884700285, 0.25572647755100597, -0.2551712051888435], [-1.901653586717893, -0.7149544314403862, 1.4302157553645753, -0.27345669045908894, -0.5910513534234294, 1.348590364607627, 0.00045759245772325485, 1.9968524298413555, 1.3528067728290125, 1.2293784312026999, -0.9206757808141908, 0.8974723495041115, 1.9929570645808505, -1.8395361527591394, 0.8942399590936785, -1.2435495532685983, -0.8989215924271989, 0.6922148117785256, -1.956071957220351, -0.9007702213683326], [1.433359218138353, 0.01976220196373646, 0.35999334904999225, 1.295331433823041, 0.04675917512330097, 1.0655580387128696, 1.3822021514524474, 0.196019986959461, -1.6034406534387733, -0.25122524438884986, -0.5303091689277912, 0.2042897452010095, 1.5061224084409726, -1.6006507031488817, -0.7611992399794585, 0.7066139694843163, 1.8783350684118307, -1.9783435655958876, -0.9464382415301262, 1.945531722287205], [1.2122143305510007, -1.5000651774139095, 1.3723456578945687, -1.6426463287947, -1.2801240361693997, -1.0855216910902556, -1.908309282554419, 0.6818073385466827, 0.8453721828003773, -0.6554552659300112, -1.5257226294261077, 1.810889978022391, -0.6896299854576382, -0.27441231838240077, 0.4527979364946315, 0.05696027581429819, -0.5487467443268201, -1.5706367840104223, -0.6867282672409329, -0.5652513720401875], [-0.005184432644216752, 0.22512763481826426, 1.907352891329186, 1.5017654424503837, 0.5472926442859811, 1.6697155538255979, -0.053740713847303834, 1.806783344394944, -1.1113300914006183, 0.23056509976906847, 0.695619290165598, -1.882895690356173, 1.9889939818066034, -1.0580369727703616, 0.029085738189605248, 1.736825464004875, 0.7798644208076104, 1.0991200603136506, 1.0409175512289122, -1.3895163849971226], [-0.7184957081704209, -1.4280546123113047, 0.4999844956154944, 1.6898254606304555, 1.7477499960747354, -1.934560953837245, 1.2084388457632573, 1.3830376746078978, 1.0387806756558082, -0.1842610910411806, 1.1495544749312403, 1.5626254696681272, -0.1356016982541992, -1.1800154874641602, -0.18452771270396973, -1.9206425352191823, 1.0722071332341168, -0.12350467699649359, 0.9260771996684252, -1.6435668604624727], [-1.4787277913716235, 0.15520224258049087, 0.87477953675298, -0.5227658349199276, 1.6181408777400357, -0.3331504964500738, 1.7635677892727601, -0.30575499867176514, 1.0894638726467076, -0.7241061072534758, -1.8911666030035743, 0.7941617255373852, 0.5404911522473133, -0.5024117672758428, -0.13287469185039935, -1.0115577109097007, -0.8890410815519867, -0.5843145604378703, -1.6441950528788531, -1.656190635796201]], "bias": [[0.38426618345855945, 0.15607300814754343, 0.26935892344873025, 0.5227542128610193, 0.7118274547836068, 0.9277688086736611, 0.567780609151795, 0.49087114155937495, 0.71461785655379, 0.5769453967224847, 0.5019822572434631, 0.37669085002476776, 0.8496242584829105, 0.8342883286744268, 0.6477736665716718, 0.20362394818948726, 0.6862578391701284, 0.17734111409471331, 0.12311479864392916, 0.7291068263989944]]}, {"weights": [[1.4079062481184903, 0.9191792655657531, 0.6537211128802132, 0.43496764621990636, -1.9100128092209685, -0.1609397027714925, 1.66984377162935, 1.448086629591295, 1.81808625080243, -1.0956558705839488, -1.9575096007583301, 1.3275835276237111, -0.29941681590874314, 0.4967277828391268, 1.1039655805886261, 0.39873880898342273, -1.074902974098737, 1.1766295440643395, -1.6507196160121795, -0.44588703014424924], [-0.6962138604429882, 0.2526062247430154, -0.8138377323010344, 1.378196806769631, -0.7513132685011001, 0.5622582138785521, -0.9378946707402602, 1.4312575532599636, 1.5215749578113122, -1.7777556022019878, -0.08606985827527769, 0.4074542953135327, 0.1628942119170218, -1.8063090205866947, -1.9616687241504995, -1.1440059510183187, 1.8089356996399935, 0.0343866740176102, 1.4496759212314023, 0.9868717655829968], [-0.37338952264398007, 1.6698691807027863, 1.8945851389939974, -0.5794189507656169, 0.31274466906223264, 0.45678772762740216, 0.030964881690253687, -1.043481704181028, -1.4552288470538564, -0.041292137942885, 1.618533921426493, 0.6105891157274965, -1.790967146910503, -0.10851681920570577, -0.7673593892667165, 0.7702896915223736, -1.9103474966359615, 0.3026459684637537, -0.03597535790990758, 0.8943301553064353], [1.882697809712039, -1.9270372405769254, 0.9984699738658924, -0.21882243263873713, -0.4355528280396115, 1.0766677481972655, -0.34887264376505867, 1.805973946642672, -1.7691844108026515, 0.557229197319455, 0.5975323856504189, 1.0568356387412945, -1.777635682966868, -1.0710632958283237, -1.0195603485219285, 1.4217499286575372, -0.49523247377120816, -1.9591003212049638, 1.1694492332703992, -1.639441541280418], [-0.8474168391160033, 0.720718969904357, -0.4000960658938877, -0.34061555189943915, 1.2399966052875229, -0.8681047184968835, -0.5342912076429496, 0.5085099647754241, -0.053504778008289566, -0.5878938450123137, 1.1417610571849082, -1.2626376535550898, 1.6563386146011125, -0.35692988879761156, -1.1461335455203154, -1.7694564032683213, -1.3523878904525373, 0.17773254073486022, 1.3092796707109007, -1.8196424797671549], [1.8909877544970297, 0.9924932863519786, -0.36841760794330414, -0.5672060956212883, 0.9127920477297509, 1.9953196337055492, -1.842937924302134, 1.5417898662014298, 0.049064459724496245, 0.635629971671023, 0.6438362864352523, 0.5712508327715451, 0.8411181180256868, 1.4739595036743434, 1.3244466312191254, -1.1363030640995904, 0.35058975317482544, 0.45046259358238183, -1.4748770201959345, 1.6463173686598571], [-0.41618711279869913, 0.24816021760853513, -0.2188004999574953, 0.7656030956323274, 0.31750427661439273, 0.5929587926999527, 1.6532546679507516, 0.09725670676508091, 1.7710168860501394, 0.24516630126006822, -1.8342590862963424, -1.3079148591959484, -0.04688156891475748, -0.16332588066177456, 1.043543164544483, -0.6545459464603405, -1.580624855751644, 0.16434056777033534, 0.009689721069437773, -1.5146948855529354], [-0.5088249622710559, 0.7382181264335692, 1.5976082223507913, -0.4034671338818985, -1.1589340354144824, 0.6608251350444818, 1.89409606993932, 1.653807721128334, -0.654528532796077, 0.7446764001744062, 1.7478139588142687, -0.40143217266073705, 1.3893597070373165, 1.97260094754043, 0.9909246072246805, -0.9042923319291916, 1.6531295892596196, 1.3853648869938024, 1.212340647948103, 1.9882981247882574], [-0.08891415704976247, 1.9551341337240538, -0.4694063669020272, 0.17028419654785454, -0.9264120938453351, 1.4725657278318565, 1.0241768601578212, -0.5044687092394593, -1.573636763971375, 1.9482804515959207, 0.899303093306814, -1.0838774119890924, -1.3979707722959533, 1.7203193003765653, -0.8409506431006237, 0.25109538194147163, 0.8359777376524948, -1.4331073942226804, 0.3383120888491806, -0.7935052520191364], [-0.47658932863817327, 1.112580427120799, -1.9998034131253952, 1.0947394127854109, 0.4945176023355087, 1.7926769959916289, -1.13024549547394, -0.9724916608168037, -0.1473025707488418, 1.821051921528806, 1.6756935663711428, -0.49233815691215055, -0.48723789218383073, -1.4117860811183505, -0.8732476756347949, -0.35905539431320843, 0.23932628097337671, -0.9306933578987335, -0.5740888352630176, -1.849344344141001], [-0.7396594294569265, 1.8363810190864402, 0.6942098683317872, 0.5384321264728098, 1.0925190006129752, -0.38514801943514554, 1.3197575230253178, 1.7112843175736412, -0.30261919825533923, -0.9431267213314642, -1.240143260431584, 0.6992071910236888, -0.4810232861145294, -0.7186119060680229, 0.3447823286161973, -1.9596458900275922, -0.23480448142005006, -1.8340451647897305, -0.5643776705645611, 1.1334544146371495], [-0.3273103737091687, -1.6166585527241644, 1.542073062390739, -0.45438582549332285, -0.6502469513672433, -1.26094921854971, -0.9186353778809244, 1.9833362262223875, 0.4508297882981509, -0.7434009593893207, 1.8707760006379783, -1.0722408817608446, -1.8270303140518354, 1.0924860535317098, -0.7434495331310509, -1.8299585706726744, 1.207812656460709, -0.5861993607917855, 1.3452201842318634, -1.8947813737915848], [1.2681421367224575, -1.863561640415642, -0.16849228177285847, -0.1990875619323349, -0.8682220746742515, 1.435470665919833, 0.13966045543303673, -0.4837727863400567, -1.414868728427766, 0.6662282448431873, -1.2902202857593328, 0.985842641531637, -1.4031325102210128, 0.8598590314208812, 0.1607893104710736, 1.0446567202857064, -1.0019155483499755, 1.5022481115145672, -1.2119334993570883, 0.02009253050172255], [-1.9033421600533855, -1.8879020654144676, -0.3021663941989283, 0.32670226781379474, 0.8557194087271331, 1.3789545414491116, 1.254195930373864, 0.877276663182132, -0.5346757350696136, -0.29162901530263463, -0.25132308976149087, 0.19902092938190652, 1.5335816089479164, -1.4943383868635416, -0.5990509102072874, 1.7657483588699119, 1.9472756137063856, -0.9736727654398627, 1.4576636941363512, 0.3587584339286076], [1.0798847355280765, 1.4566475520561704, 1.6532519197959057, 1.7351071735836543, 1.3539524871701363, 1.396840700849654, 1.186913087754327, 1.2692884693029187, -0.6816097260630585, 1.10171764000413, 0.5768570034024281, -0.7426984932888994, -1.0385977995935955, -1.875432808118434, -1.6683764398205883, 0.6385658031025434, -1.6261406448057119, 0.5082749420504378, 0.7692025442143717, -1.9410619524428143], [-0.14578602756973247, 0.5671251562709019, 0.914869257009221, 1.1640957315077234, -1.3795251370941188, 1.40757192058586, 1.0832513805850459, -1.801934500435526, -1.78892952842105, 1.846142473607924, 0.5731043481587528, 1.222927876517268, 1.0165837674989224, -1.3277337985170226, 1.1075718977450277, 1.8836591828711562, -0.31586867509345096, -0.5160760579331605, -0.8865104602655123, -1.6294924572031753], [-1.8770765136536527, -1.3780295843159664, 0.35753399793196516, 0.7874135595493597, 1.9211033342830435, 0.9750848638956473, 0.39322174389996123, 1.0953721846823767, 1.1406538114771196, 1.0373032879853095, -0.9752850696771604, -0.5997687388789217, -1.9562265994056878, 1.0218469833215655, -1.0267753479113182, 1.8368979824107226, -1.3885716213190116, -0.5163835335450422, 1.603106768378339, -0.9583528340563046], [-1.7615054711455795, 1.780754963760192, -0.993476095496777, 0.7798842807473436, -0.3854176015403876, -0.6083596075938185, -1.5722644952667189, 1.3023373015283792, -0.9194749008717822, -1.3898156492415614, -1.0863159096667476, -1.018130560237386, 0.939987505650492, 1.7278777325656351, -1.133314485519751, 1.8024020096872633, -0.38390592611056906, -0.26488269701453815, -1.6618756575014473, -0.881338696613676], [-0.7173966686355335, -0.3187325755633368, 0.575720544541527, 1.254047518468445, -0.8406249993055503, 0.503485747796721, 1.5694010111773116, 1.6156376690570022, 0.07423937087452437, 0.9284445603904956, 0.46487955468799, -0.6102724807966942, -0.4125254450234066, -0.283588721186145, 0.1358135133828151, 1.2670092959927484, 0.28860052567311456, 0.892248972178959, -1.985559888524783, 0.13156555325304486], [-1.6657159893909985, 0.5823387755098075, -0.6173412325097289, 1.600102293885819, -1.2153651800322511, 1.76820346594458, -1.0614453987356942, 0.24463589659074492, -0.19224179293479304, 0.08450235327670841, -1.66279695718783, 1.427063859546505, 0.19614907732588627, 1.9116462343314597, -0.6367533813481558, -0.7522224865189302, 0.7510973185596397, -1.748780689926953, 1.4149125354583894, 1.5633253037347803]], "bias": [[0.016219614687571382, 0.15349252582349238, 0.3902184959655608, 0.26413652401627463, 0.301473981906058, 0.8158004361065034, 0.332664932418261, 0.3189898933576977, 0.9296304713834257, 0.06962322952493594, 0.3593605315258064, 0.3145653969539931, 0.7398230619461782, 0.3985824181025389, 0.0679542429217237, 0.19531501667380047, 0.8717072416242407, 0.31781256497530475, 0.447773530548749, 0.6155740792031242]]}, {"weights": [[0.9167226981896257, -1.0968010647922015, 0.30041945490926647, 0.4532927189105789, -0.6665868505240122, 1.0207771763870017, 0.01095381344750912, -0.5399669007866286, -1.405308491413888, 0.09656729897343341, 1.08634714487496, -1.3845696396577702, 1.8189914685630093, 1.6372476124372435, 1.0367204673032302, 1.3892308594881446, -1.5359663882083958, -1.5581820212986859, 0.9693857913676438, -0.44505299670382437], [1.152796115887322, -1.3856954940109527, 1.4175638046088896, 0.1324782628022998, -0.3128929286105526, -0.7516719360009336, 1.173443128778282, 0.5202999239472179, 0.31791919823267456, -0.4113043608692042, -0.9535594055436922, -0.4084535739544468, 1.5974744892146626, 1.1244028474958774, 0.47539236550008734, 0.515759488396526, 0.11356658537922737, 1.4956649201449603, 1.5090344128660353, -0.14413619803753308], [0.9389356307834715, -1.585067571031547, 0.164961657969263, 1.8167855372450923, -0.23766723206478968, 1.8340303245875753, -0.6204776273596364, 1.7765252977422628, -0.5530916653001685, 0.5963017165785067, 0.7382224421864496, -1.6408109369111785, 1.1300372746622331, 1.0900751003438431, -1.6332382499987794, -0.266319754418773, -1.878591091590522, 1.376618085593476, 0.7037489111885575, -1.8788428304457145], [0.08365190931839583, 0.4030906415602242, -0.7606891979381833, -1.8991851285397456, 0.5376787146009523, 1.7416177144976537, -1.4826856175865637, 0.668993692728634, 1.0922236171238517, 1.394816887674923, 1.2707500848210462, 1.4237827657966502, -1.223512367418917, 0.09056374600837769, -1.4764003544387907, -1.3866913256267122, 0.2562468799972373, 1.121627220579346, -1.1390812905176926, 1.8999281888651574], [0.962580754181166, -1.4163464138172808, -1.471783775207005, -1.251231184531672, -0.6828985046905922, -1.461704518904484, -1.0636182315410134, 1.7092144688622897, 0.5862706083091913, -0.7430056936704355, 1.8591673663694088, 0.38978125220373405, 1.9862446677913197, -0.07245669738090843, 0.25502596919361364, -0.7345873037910589, 1.090083172065126, -1.5806309343418041, 0.7459762737362876, -1.7257269093986403], [-0.8931697312145586, 0.6641416974534304, 1.3007161709671187, 1.121677376048631, -0.03970159308026311, 1.0702039470805547, -1.1461321959821031, -1.2351416408160816, -1.0541011475578643, -0.44236066204275604, -1.6231623652317029, -0.10590215560164573, -0.059016623852688355, -0.25765146611162537, -0.9370803511837411, -0.2590066524741821, 1.227439922290618, 1.4037541701873115, -1.9804970864592661, -1.2398631480635887], [0.9618784687827691, -0.0684990491649704, 0.775234499598175, -1.765638699314883, -0.6677511725097482, 0.7210452618874417, 1.6672194853873226, 1.7562213338746968, -0.7919990951580207, -1.8454688338302674, -0.021267982789531015, 1.1210903505436867, -1.645049565133717, -1.5866408504051224, -1.6721295909520162, 1.4684331636111718, 1.5912097842165775, -1.1780496250628016, 0.4493256095375049, -0.2945013715910543], [-1.7413553355138602, 0.1066071319534454, 1.5149224551782772, 1.7839883690129348, 1.1493139537358528, -0.9264934911131069, -0.18615551672353448, -1.5783239201825467, 1.3493030261302992, 1.2775290871948868, -0.5435294587156814, 0.15255705040602496, -1.003098709108865, 0.20591427212423952, -1.0654249804891536, 0.47510940376162836, 0.47738911897962, 0.8123192244102544, 0.12351158816361263, 1.0370068982096963], [0.26672491313938185, -0.5494147384340899, -1.8300471733928498, 1.8222066125711587, 1.3142071541832152, 0.18412097296734897, -1.7866725081286274, -1.986112722860887, 0.009624097219792294, -0.6299361930494118, 0.7685687062087467, -0.423072915427368, 0.3603700305767692, -0.381654638736348, -0.8435176874383155, -0.6391791076529283, -0.17626193226522302, 1.1424209946118715, 1.9671088841347282, -1.6719438121132035], [0.9153395709757914, -1.059540701517896, -0.7232848481638685, -0.01766439475066628, -1.973350271980379, -0.4059915092670132, -0.6206841542455823, 1.81570528679224, -1.8928433964779248, -0.25287039210310613, -1.1008860399317126, 0.8823116800848707, 1.0415395222117994, 0.8126276669240808, 0.36160048659282307, -1.9555856545002728, 0.12804321267828156, 1.4932311576241695, 0.4985042777336006, 0.39837904496441023], [0.35138899919225297, -1.4123122592784885, 1.418539521572098, 0.9775050496532738, -1.6924852528446168, -1.7539412910985464, -0.13433095782033133, -1.2757880124454348, -1.0150403787537101, -1.4304873603716999, 1.145310211224988, -0.5732062850705204, -1.358349140121677, 0.29495215333685154, 0.4686383342916529, 1.1589393572240532, 1.1162389238273964, -1.78538031213002, 1.2255913065247497, 1.3088637497003637], [-1.421172976679093, -1.3049567702058615, 0.39533242790518086, -1.054345065265625, -1.6861254285313465, -1.018015062387883, -1.6283492796301853, -0.726643422676089, -1.9192180135569714, -1.8553441150046996, -0.7772124218754035, -0.5946543181145976, -0.24224530777188713, -0.9899793207794816, 0.6757280985149139, -0.13827091667270341, -0.7204877956589861, 1.3106965490588944, -1.2343836362315472, -0.8020408931659473], [0.8991627437571643, 0.47892282464554814, 1.0277276647634852, -0.20534122841945956, -0.4625749884906747, -1.3900495364538008, -1.5473227093000972, 1.5525905207055746, -1.4129474918222789, 1.092240671943697, 0.21122608084267203, 0.5991995586910153, -1.2760462222158768, -1.3707359627044622, -0.3971189243527973, -1.7652671042261998, -0.8293370867620085, 0.8354944321116049, 0.8383030788673054, -0.1506498329155268], [-0.9785927046169767, -1.3072762585003206, 1.8221141829031913, 0.42969581220896647, 0.39023744777489133, -1.7128252877702037, 0.9103670888122024, -1.2986579814087915, -1.571607041141705, 0.06342364251750743, -0.6781862726085421, -1.7777877807655922, 0.45789367272019144, -0.47784835290027905, 0.5696320209591605, -0.03346421497504437, 1.654571022099402, 1.8972418730676033, -1.1526440136192342, 0.46731788930553186], [0.9626787828652779, -1.7275050978471418, 0.3482007990905083, 0.8840626685402388, -1.1801327364051004, 1.9920082776846955, 1.573499086100425, -0.211811223421154, 1.8815928763335856, -1.159847921430659, 1.2696044337992816, 1.1251222560455556, 1.2413796912249881, -1.7071676083515577, 1.8671405142390616, 1.8434121014098692, 0.46990236304349553, 0.252768556419372, -0.5862340956217484, 1.2280171537333868], [-1.2438158780717403, -1.7996439246042182, -1.2026050873137994, 0.5621121594925391, -0.6533186824810393, 0.8984284277038239, -1.7584913686832286, 0.12287228775550396, -0.017834276137536076, -1.8362997447711318, 0.22367916151866174, -0.05483789511973214, 1.8503759873227934, 0.2876855552471791, 0.4604812984938942, -1.8792923244069888, 1.6864151484433738, -1.401331787952373, 1.6434940768973854, -1.1361198295785364], [-0.4608112436148999, 0.6748318539036307, -0.5606994160457308, 0.3233184152319013, 0.4624441944533988, 1.6897460498798713, 0.36051607195448643, 1.4616412138407342, 0.5496852280388858, 1.1539833571495688, 0.5352228952239475, 0.4983820330006776, -0.47343739819633157, 1.3463582234818574, -0.29970070882889654, -0.39173000017366055, 0.8975772669349475, -1.635986203316, 1.2896546121062515, -1.5041580411242124], [-0.5115485477789172, 1.090129695334944, -1.4830814774350358, 1.0580543816910324, 0.19534129634807673, -0.2452025335187047, 1.0134781713704433, 0.578626888920176, -0.8831418719233772, 1.2737772825913058, -0.08563520605044417, -0.4326724754896616, 0.308867228562816, -1.1087272757340552, 1.5324462885250418, -0.8431710155319219, 0.1461726428180925, 1.260140154369871, -0.9947592608069993, -1.0176289667495784], [0.05315636208662067, -0.4220351326066014, -1.07013420596618, -1.308880662750425, 0.3883219860781524, -1.1927047966943625, -0.2948540674090716, 1.6281981014453777, -0.006947308397470486, -0.16271764574787717, -0.6501616271591399, -1.6864397690166237, -1.3036225894648563, 1.0373179113560598, 1.7427362905473354, 1.0061862998092805, 1.4689020061800289, 0.04918417214510917, -0.5231997590561708, 0.17556326931028599], [1.2203998681691082, 0.13050922075988103, 1.6030516520637415, -1.3054440990708671, 0.4357528738658818, -0.2524010899767335, 0.32727749217848245, -1.8277750743301389, 1.4189000360296564, -0.03201067433399318, -1.864631710460579, -0.1943547915401953, -0.9660434391079167, 0.28759463718970624, 1.8828604286637516, -0.40401859114045147, -1.0952765294196891, 1.1258123690450463, 1.3082962049192086, -1.2889777922871595]], "bias": [[0.41504329222893055, 0.9393113594863266, 0.5131266485541937, 0.02276411213784746, 0.1872041502648798, 0.6717245447223574, 0.6649632538634602, 0.7696460728747464, 0.8477993361187353, 0.0668031784066172, 0.8615036106679813, 0.7725468659122416, 0.236619052750205, 0.9965299923333498, 0.935480620394674, 0.6565810079663026, 0.098615920975477, 0.0788975120054689, 0.19798627410232017, 0.009743885308103328]]}, {"weights": [[1.0470440345633953, 0.7492462777512072, -1.6590660098553194, 1.3059139894162093, -0.8230371568783061, -0.12807946887026045, 0.1465468108305945], [0.02317496002430497, -0.3596136708814366, 1.9883490942890236, 0.0848881048541541, 1.2399727733672035, 1.1558252007927088, 0.016730353937857156], [-0.6007000591889491, -1.6372381106908298, 1.668250818289427, 0.8950708635161377, 0.6396840831963417, 1.038014008555035, -0.2524748969310333], [-1.7915914017571084, 0.6073291907373108, 0.33202930951369636, -0.5862374292888455, 0.9884860655207883, -0.7686446602533104, -0.13469994757693637], [0.9567770355418093, 0.5737858149502011, 1.7930323584690315, -1.6514322952519396, -1.73083235071309, -1.6107404753303922, -0.385748266628676], [-0.2596858123614787, -0.2163752684335596, -1.9516514853929667, 1.188688709821435, 1.2124982100406965, -1.8854331952005898, -0.18829958343332764], [0.929260210900893, -1.0529065325878588, 1.3635615285575353, -0.15995514288899892, -1.887405775684487, -0.4718626502992196, -0.5504613543568286], [0.3981475219683279, -0.1384336100964867, -0.38770749855237563, 0.5604506223590491, -0.23924536215363013, 1.1920326942870583, 1.4815192492862024], [0.4787528823973952, -1.2529986070205665, 0.8148707540690712, -0.1331926030255941, -1.717707550444005, -0.5757078145734997, -1.9884664916021197], [1.7785615149542315, 0.21577669808597477, -0.1316913515208573, 1.2939336242042963, -0.5486610549860078, -0.26603784117876117, 1.1819936028925415], [1.164517715037793, -1.1055654894611031, 1.1323159086156047, -1.6196559135693764, 1.2429881740193274, -0.165437870439896, 0.5124986730920433], [1.4029832760423373, 0.15701939917603092, -1.5909656234429477, -0.2234428714124621, 1.1752294481663097, -0.8998678467318153, 0.35831746831438327], [-0.7814699911016727, 0.09853641200505603, 0.7966728199405124, 0.3414589574625837, -1.2531465940905648, -1.7303831421421605, 1.7938663199142977], [1.7211805376446705, 0.29014995640641805, -1.976367923989745, -0.4694376919841763, -0.12536204772522908, -1.5011272576309964, -1.2256011628891605], [1.3922088847291385, -0.03876630317141583, 0.3526528076336395, 0.3140815306443381, -0.17005331432557158, -1.1560222868197791, 0.6474226716307734], [1.2781929216062466, -0.15639658262711142, 0.7865444765631668, 0.4011809777706872, -0.04927660596491501, -1.9300755907132503, 0.19537211198957172], [-1.535631285221363, -0.5146316473552734, -0.4169285712281443, 1.045452562477414, -1.2738074613277375, 1.657034869658844, 1.108995762010669], [-1.2119087919412124, -1.8661267389841556, 1.5166955284427535, 1.6223772881744396, -0.25777981839195085, 0.35629345915560773, 1.6837255540422658], [1.8355617832793043, -1.9436590058291823, 0.6181504765762802, -0.15366678827703684, -0.25926017098109133, -1.2415113206102286, -0.7757891420895469], [-0.9386922116467034, 1.714519037164929, 0.03489238451254284, -1.637340271947092, 0.5151362992078976, -0.6514154644962069, -0.737540193876649]], "bias": [[0.1443449026802871, 0.22455335666867926, 0.8542829635471556, 0.4692205819041184, 0.5392205106736695, 0.03380887228803586, 0.6840049135398191]]}], "input_length": 17, "nb_hidden_layers": 5, "hidden_layers_length": 20}, "index_in_population": 10, "sprite_height": 100, "sprite_width": 120}