{"color_name": "indianred1", "file": "Ken", "population_number": 74, "neural_net": {"output_length": 7, "hidden_layers": [{"weights": [[0.2906610430833272, -0.745038598539471, -0.667819869245958, -1.4548815806623066, -0.9773219653030405, 1.3789595637020842, -1.0308982519752927, -0.7645355985446343, -1.161998460625882, 0.4375286015968549, -1.5213831413006198, 1.3940196947323247, 1.7296429396175013, -0.7500473554228617, 0.7442580161267851, 1.6879408380870586, 1.1300254708162791, -0.6244783617591962, 0.8001683392399195, -0.8927313572723894], [-1.6310561462201703, -1.1694050489302792, 1.3556584011967132, 1.208491846234014, 0.7628974660599512, 0.9059457203154029, 1.078051855457991, 1.9292591103702583, -0.5892150756803116, 1.3763537372338503, -0.7780571478207796, 0.3333757173368981, 0.7982316569037402, -1.724503700146141, 1.0174925998037967, 0.9693140457734373, -1.3816834794623913, 1.2773204583743705, -0.8345088802629363, -1.458173441511899], [-0.8031179993870281, 0.43927520914711016, -1.5581089699486026, -0.8110478444053668, -0.07494427063775122, -0.03961166975362129, 1.9260459506246064, -1.8706266808088623, 0.061037353553740736, -1.1489831450671355, -1.7734036020540724, -0.19354428686252678, -0.5927100917081631, 0.7917713521736633, -0.8522676944702074, 1.8657025687915514, -0.10633514249312181, -0.12838901913052547, -1.3198015682891624, -1.9941493825546686], [1.8337146295634978, 1.849144531917302, 1.3646568749706707, 0.994518561026605, 0.3095056722848688, 1.5102081270671546, 0.6776391223476295, 1.9613050286118767, -1.7122177004346524, -1.9522413666676126, 0.7826934944504056, -0.5944794095108095, 0.305191059671285, 0.8917662811919884, 0.2690726311729623, -1.1532846527721605, 1.8761358926557161, 1.9055932048797302, -1.9016767415743359, -0.5634806072346978], [0.05825463868480929, -0.048923151409363985, 0.8119261492950844, -1.0529113101416208, 0.5397529131616938, -1.1843251961715802, -1.0583127755632327, -1.9698651710533581, -1.6453941975785389, 1.455632849664254, -0.9058676572846376, 0.967018553120357, 0.06257496967925436, -1.3912615318305588, -1.0554519197466874, 1.9448879419144984, -1.2109164185893864, -1.2608195542936178, 0.6483244495753495, -1.7208745078769248], [-1.5836215157646332, 0.25531406051753036, 0.10311236525072331, 0.582785757145869, 0.5690714208762606, 1.8480495356990305, -1.2715728437428502, -0.5764516453058093, 0.21609256947594302, -1.3468194827224274, 0.47406180599565007, -1.5346068838420215, 0.2928744110519479, -1.6706341753912466, -1.658423372150506, 0.819898196919131, 1.4841611715700762, 1.178376343896629, -1.6098333225829498, -1.2529082459927068], [-0.35809324802775233, 1.6834103943703003, 0.3889840687464563, 1.0462796867332766, -0.6096300640748527, 0.580251009683252, 0.14672641860492996, -1.5121575851505482, 0.38633100645643426, 1.391727194903896, -1.0033806629946076, -0.6625477622403522, -0.9805224150363259, -1.8515147088970076, -0.13636841261178345, 1.2016263708047723, 1.615893485247009, 0.08677886425088799, 0.22334393198473323, 1.6889394862672358], [-1.0680936341928433, 0.10582803768934346, 1.8485036544950724, -1.7164483519208327, -0.7399023347365721, 0.9632163592799867, 0.7096539087681468, -0.2648324854949844, 0.8968034744469837, 1.1599259758291676, -0.9813646343231044, 1.915902249974288, -1.5046799178103378, 0.2956610664936927, 1.995643493307576, -0.38062769271336316, -0.40947224672218896, -0.7660453787788626, 1.3157642953871966, -1.8986995002824134], [-1.8127489694424845, -0.847790329166497, -0.11058153240556923, -1.4884417310314624, -0.5384340677249808, -1.6544298742040087, -0.6785418232762854, 1.0312829545344377, 0.5372493204043716, 1.8908533210823397, -0.12139962322330167, -1.681521703588103, -0.3473372380539459, 0.17186351838535563, 0.5603143566657818, -0.5885604179339041, 0.5550804066136812, 0.9770885802085574, -1.196190196796449, 1.9922040016462916], [-1.3945742285940304, 0.6142009308677419, -1.7494516530744186, -1.6256549874515906, 1.9571764367304314, 0.34647171037156177, 1.7362673969848488, -1.4727812737762673, 1.3847694205729413, -1.5217482538037057, -0.0011695677358560808, -0.17003567501173533, -0.6309392235476095, 1.6165180310024745, -0.5015720031356685, 0.024934504865257168, 0.833994221374335, -1.718971925449483, -0.8404583226773568, 1.239506272365087], [0.6675763275033169, 1.4726764128231085, 1.3880040505961864, -0.20388929637547193, 0.1767815771725556, 1.29012729529164, 0.015101503046261122, -1.7647041887289192, 0.12433163844181694, -1.4196939963704436, -0.16747920459583243, 0.3595868024550941, 1.084741906505975, 0.5208602779588993, 1.3093872334906487, 0.1767561951661354, -1.024590324374767, 1.930458454258528, 0.7143517313135845, -1.251879039275837], [1.193426015626582, -1.7506880835160485, 0.45470138558846473, 1.5768625239576108, -0.3024234409484112, 0.7729969348553407, -1.294185894017807, 0.4999776234768234, -0.01704312712018785, -0.8743986645391599, -0.3738484709759251, 1.1432691919646842, 0.02801656005587594, 1.902735591373483, 0.7627998781709229, -1.9073705124109779, 0.8762413802594566, -1.9489626493199923, 1.4776280672926254, 0.11897862685164684], [1.458842578918409, -0.3387402457266524, 1.57962708533243, 1.2705640505462412, -1.9305582354257118, -0.3010449228931411, 1.6501645176367137, -1.2872836343333316, 1.9645034787614781, 1.4746888092596357, -1.3308833584869229, 0.9595911657442828, 0.2024180724989404, -0.8688259822359718, 0.3767062973412414, 1.9141366826176447, 1.2724076450953223, 1.5283384718795596, 0.15910913312360275, 1.516325476398301], [1.1557465729132534, 1.8836700021097341, -1.035871076132814, 0.23204428519629072, -0.7031240984975873, 0.10091748959919311, -0.5375573789113304, 0.9823301130055677, 1.345161936504054, -1.992576161114025, 1.9561399315353398, -1.4428386199083612, -0.3307157594563379, -0.5194750853621524, -1.5272127524696337, 1.549216949473287, 1.5001580716942264, 0.38828150432854036, -0.5421956333685403, 1.5734257160625322], [-0.9174412458792713, -0.4071605536075995, -1.6266323982980184, 0.9234031095030204, -1.856397116880066, -1.3025190644635538, -1.8180339913103025, -0.20386207754314567, -0.6197934792858804, -0.18390610747411085, 1.312509212509569, 1.5781103663460367, -0.14406327431214905, -0.19262350002516726, 1.8839108254570922, 0.8093053561858481, -1.7390865837040757, -1.2653544918065345, 1.8361952765087648, -0.8121721920240823], [-1.553858409727523, -0.05123713787669271, 1.6660487525986403, -1.575744508462344, -1.0052266585812895, -0.25410789970208425, 1.8591285800110358, 1.6417353478055605, -1.4693954714641557, -0.29921877725111035, 0.13147027530946653, -1.964729366824983, -0.7941376173335697, -0.8884903587364517, -0.910184079547323, 0.4736648666931629, 0.9147335399210048, -0.49498696260493213, 0.5176100969330286, 0.8027471821725607], [-1.7274072855975704, 1.9001195539096627, -1.3514101736046964, -1.6243151030305318, 0.8852364130531081, -0.5555819732044545, 1.4201949412032757, 1.2694382433752387, 0.5740706368356228, -0.7258618476920153, -0.5777823908005231, 1.2078307232936116, 1.2060216425885324, 1.6427106604290493, 1.9339796378499003, -1.4392109130154305, 1.9212491567538041, -0.9355443634119984, -0.38311895849766975, -0.8479305339760153]], "bias": [[0.3705587402737406, 0.2637890075548993, 0.5893616105445277, 0.8977208019187866, 0.05982151909186362, 0.07417543831833795, 0.7499807080753159, 0.2178169606599405, 0.7391739608875056, 0.8427694862902186, 0.3737876973218377, 0.13320187081526202, 0.9024578735475315, 0.16321564906984776, 0.7129623695762524, 0.10688312631148744, 0.6541453990729427, 0.7582861440510591, 0.7179888908844827, 0.6251727736169116]]}, {"weights": [[-1.7803448287753443, 0.9301726211755152, 1.0674311091960864, -1.1158671262927644, 0.23899286714519707, -0.052051109548954866, 1.291592633018709, -0.9837210547184827, -1.3415377775358261, 0.5184760074568495, 0.19915499704120387, 1.9661802896318044, 1.2780612374285831, -1.3918675560564635, 0.8479201570653134, -1.2562925750435099, -1.2864017714846927, -1.8920528937524024, -0.8308144458222242, -1.90998627564116], [0.4289943952156543, 0.36269904158506616, -1.6344304650395816, -0.5790064474533057, -1.394954835737673, -0.45532952856708153, 0.8518102758281967, -0.74904202376797, -1.485347125591638, 0.03647850926108376, -1.4882375817155489, 1.0019708760123298, -0.5175963981008973, 1.3470427610662865, 0.7393289549011586, 0.5944917441513127, 0.36043230447845565, -0.977856380208245, -1.172446785162859, 0.07193224238153562], [-0.9737291391043121, 0.901937964174321, -1.053610106602798, 0.8157430966207482, -0.5072764108183336, 1.18750725763217, -1.773922528575326, 0.6041511944353908, -1.1004816751438034, -0.11826874657363895, 0.7935055172348577, 1.0442617893155886, -1.1077417574307313, -1.0376136546722354, -1.4970493500599322, 1.6137154444022257, 0.30532239034948416, -0.35242669991370645, 0.27996427041677396, 0.11568025100459733], [1.5266336470600819, 0.3787051163254489, 0.8225574447047981, 1.2728420331000003, 1.2773550528060498, -0.8773715762597609, 1.9717836275636262, 1.673528692795827, 0.5762183762668336, -0.9700018973354676, 0.8015861500453147, -0.9409612982194266, -1.4167105311615575, 1.694140004665857, -1.162390224077122, 0.2963106180383619, 1.7124397345722389, -0.1302927035453174, 0.397075643114408, 1.1259059199296195], [1.3491385318691038, 0.7388859658450975, 1.6826000860301331, 0.04051599112373472, 1.5501229794365017, -1.2208306271802196, 1.242213632372132, -0.7452079261049627, 0.8640661747070739, -1.3844136611171236, -0.8280877490811442, -0.8677543288846192, -1.4665636911291156, -1.2408541626743101, -1.1807060590363379, 0.48585062602487605, -1.4881126222271384, 0.7981458986771539, -1.0444708092622461, 1.4935451684141055], [1.6153302261868778, 0.7402280409814557, -1.4791322709604784, 0.692580330280661, 1.6079734812389037, 1.8457288521544855, 0.020671404363172385, -0.8542369700956423, 0.22698604314323179, 0.6039244850883922, 1.6519076759850355, -0.20690629849045905, 0.23619865391574013, 0.9387042588401937, -1.5544796397533496, 1.5273653024864653, 0.029138626590358818, 0.42282687199858016, -1.7488726893242106, 1.6155321301599912], [1.9804892026596401, -1.1413294769003266, 1.7157728706215805, -0.44322570951610185, -1.7030489337265005, 0.6907411694004648, -1.0295878620108603, 0.6618472135592284, -1.7207348747769418, 1.0841630821116488, 0.4624546235752929, 1.722360586959732, -1.8524534443265859, 1.0833883424341417, -0.10850752141988451, 0.8527838033264241, 0.08884304401409349, 1.5087810819142127, 0.39342735944153207, 1.7200524117371874], [0.6745655164783719, 0.31464238727991667, -1.7951443407027954, 1.8829978448666393, -0.8552683197601674, 0.11945882394917762, 1.0801406116489871, 0.7858388466925894, 1.3201399667207978, -0.720369077224186, 1.1857417756366657, -1.7710955821983374, -0.7004271289643613, -0.5053487769995644, 0.8275148473799749, 1.6103228904208855, -0.0428363502389737, 1.6641574628463522, 1.5670907181260003, 0.562305166795714], [0.4335097697591772, -1.1782622289641553, -1.8819339743866075, 1.9589790153146116, -1.3685922593277082, 1.064737750107506, -0.20811613638303594, 0.5844019785987906, -1.9402594131015296, 0.08836382807439236, -1.0285945744803562, -0.781249576052482, 1.5179830903934328, -0.004794094981041219, -1.4402364608857408, 1.9020772470075946, -1.11593509364527, 0.062421882169288345, -1.2343490465735818, 0.3860362460769613], [0.46666329650627647, 1.2858828818980177, 0.3764601084736783, 1.4382817557915981, 1.3919442451775348, -1.5749914195687253, 1.8714373232127146, 0.9444334386465281, 1.9193044576873226, -0.614608115410566, -0.95597869170189, -1.6556661535662789, 1.852799811867551, -0.28058952157710326, 1.4124640317682085, 0.7170849423371028, -0.7091235032218064, -0.18397895411939835, -0.22266662565765083, 1.8769596795786843], [1.0759573398723852, -0.8447337114433675, 1.3222160356111847, -1.9451236221639916, -0.2207898497605969, 1.0136425767259456, -1.055700973151866, 0.20794642559581522, 1.450953823829022, 0.4019009003366305, 0.8384377172976025, 0.08525564771503813, 0.45325931085254423, -0.35304651449465974, 1.4482493801585252, 1.7905414797274979, -1.9493329765173169, 1.7164958180178522, 0.32687442754539475, 0.7927862004428787], [1.1518041734813624, 0.30296672080169396, 0.6470583056215928, -0.8187712031478274, -1.852779461001199, 1.5794799329641744, 1.7601703204366985, 1.09910742865519, -1.620950017922277, 1.6940364482854746, -0.1407512049013433, 0.042545435737617154, 1.765775120086857, 0.8721471823032969, 0.1930500914597051, -0.9841174724022754, -0.9763441000181374, 1.3754788565868972, 1.9751862054995435, 0.3887107034152346], [1.4639679024727221, -1.1684900503609073, -0.10255024468353735, 0.5498906053565267, 0.40082260238710976, 1.8833995674998167, -1.8141258725632752, 1.1205112674453592, -0.20557869464365686, -1.2476819441729479, 0.3045713480573373, -1.362321976362248, -0.6028837179664799, -0.25964298537635155, 1.6499513557889967, 0.13679234734097268, 0.3008598982424524, 0.5208136603349902, 1.7741094196943106, -1.875498414919786], [-0.26754221662612165, 0.41905886686626115, 0.05808069643720515, 0.9091061941978476, -0.8840570938228063, 0.036240169024562174, 0.37834822989696937, -0.8881480544197982, 0.2600644913821841, 0.6661957110829846, 1.9554201896820995, -0.14580244799972997, -0.3985149343660379, 0.8786966802792944, 0.9683100466678276, 1.1395266191741018, 1.1188125757604417, 1.428281001443628, 0.4530321302690399, 1.4314857996529589], [-1.607475706432687, -0.11152788786626999, -0.5142518416370274, -1.4838884858290955, -0.8724055949726832, 0.7300258388675673, -1.5648945415182616, -1.320942134395544, 0.6782980913799284, 0.7473445337124822, 0.3054685475827532, 0.7540263562589353, -1.3428564759512933, 0.26809175979280697, 1.411180647211808, -1.6223607136392948, -0.8421918239818669, -1.5200973256184387, 1.627907806025425, -1.2105186160570578], [1.4204969967952632, -0.594803957653756, 1.6498167797833485, -1.5294633146803944, -1.5003191190711616, 1.0562152842340642, -1.1863487080594282, 0.7456846451807779, 1.9642461952584536, 1.8149051068976396, -1.1449981828837532, 0.5381579477116003, -1.0183137358395604, 1.3232462144130501, 0.43811176331205104, 0.15350345296500922, -0.17411512629066683, -1.3682204821733994, -1.7090406872339412, 0.2254535821795116], [-1.946710112468386, -0.2155585210327402, 0.32100537259259676, -1.9906484273190572, 0.4404639067977074, 0.8584704583884744, 1.3532388432253502, -1.7717973401026383, 0.9965801895945803, -1.366091860966789, 1.2404732889159087, -1.9586847061676957, -1.509943542114649, 1.2955842924255316, -1.7023344224502663, -1.143333521488719, 0.1375321840200492, -1.7378241805414425, -1.6955719583507456, 0.5973877871822992], [-1.8529919012700962, -1.0852198390037238, 0.6114782203768523, -0.03888933688815399, -0.9784156777526065, -0.3263681224968238, 1.3632305646472944, 0.7970286989610886, 1.6421818121802398, 0.747091111227304, 1.9503608709321236, -0.9999376596134328, -0.04546071330832602, -0.6579302710096373, -1.0799719646363863, 1.9160183567769082, 1.4911859288863187, 1.1643139552719841, 0.09327620152027771, 0.3991446868281221], [1.6503632772849826, 0.4332943672185219, -1.5504616134089075, 0.14763875655869407, -1.4039375502548368, 0.4067824885223601, -1.358629334020237, 1.551085920659773, 1.0738136737784179, 0.8219807824101029, -1.2981485477512509, 0.6103918731307783, 0.5967024929175211, -1.0234688580444335, 1.3936281618247994, 0.8272051556951068, -1.4424948433748512, -1.4124581087319599, -1.8995177639064869, -0.8106719994117935], [-1.733338759103595, -0.2790227168761015, -0.6331186102190127, -0.5709113703652449, -0.36002861446478773, 0.3289441526824639, -1.6781325250189774, 0.5513439419406656, -1.2126669880927556, 1.785384076372246, 0.06540612625943831, -0.8317219742863329, -0.9585678421762691, 1.7828490444872571, -0.21471707434984078, -0.620543067343684, 0.5398239310646233, 0.15007405869949197, 0.7510657230648339, 1.1587890740755906]], "bias": [[0.2740874811750964, 0.7925227445799222, 0.22473118450465202, 0.15622837670788114, 0.8522190521614555, 0.7119134838320456, 0.8596795759022594, 0.5670326565755208, 0.8663961259820007, 0.26898774016127613, 0.5564670954931679, 0.3793752157106144, 0.8898307622205492, 0.5207246523078563, 0.3462103999806614, 0.7415611652758289, 0.1784216890833218, 0.3248760028639396, 0.16670898368418108, 0.1648060539389372]]}, {"weights": [[1.13718983043165, 0.29456169143009836, -1.4949717167485104, -0.8350150817400346, 1.0482016197151829, -0.8781563355376321, 1.7494373523332452, -0.8413058103226829, -1.6104071483078308, -0.4591554755317615, 0.7774236804256294, 0.27006261986933966, -1.7105824190489742, 0.9074345032701174, -0.7058635205332324, 1.0934707050007693, -1.9797125151067099, 1.618966379518099, 1.0329949090204504, 1.7358501782613383], [1.1307466313813261, -1.7252734702284762, -1.8328674528927134, -0.4487211731220029, 0.4946795805361295, 0.4587393309048009, -0.06048718397565844, 1.3930334340864015, -0.37873721716397446, 1.6233801202134774, 0.11281400509259099, 0.28839995530887075, 0.6333796387043167, 1.075504471839844, -0.4195629317482399, 0.5322436203941812, -0.45883319764299957, 1.1876109906254508, -1.7074545676841697, 0.762902715013678], [1.9550853600237708, -0.4327422995864265, -0.9235112248262083, -0.023124047758338317, 1.7090207576192409, 1.5017984874195993, -0.2911201681297442, 0.42103035326755256, 0.4164614416836412, -0.3888329570005511, -0.5481979971417159, 1.801834139170229, 1.1501100745043473, 1.523738769586557, 0.9734583422035961, -0.15639731269385315, -0.4395239668144564, 0.1489178670979734, -1.2612909569430006, 0.743406510851516], [-1.5628402372520434, 0.680474375003767, -1.177275729295491, 1.9373048616551687, -0.7091147521074803, 0.1423940288254979, -0.9327977733547947, -1.330486040249676, -1.3085914014303497, 1.1830303164410645, 1.3317102460653882, -1.2593249646185165, -1.9692641281182075, -1.6431969765121623, -1.3921442284006749, -1.6598625798607878, -0.8130321046501079, 1.1926879697509385, -1.2737403710329787, 1.0313772619617825], [-0.5371401174762362, 0.8148251337989101, -0.16851863478685258, -1.2751622460602179, 0.5317658596363368, -0.6111951686128032, -0.7911691102094771, -0.747621835838288, -1.1784592412716104, 0.31784242280553654, 0.9670750594826463, -1.449096149659915, 0.8885742026865282, -1.4279811518643366, -1.095274234531328, -0.33393114449988603, 1.6947310932651556, 0.1791668621311162, -1.4492601169585408, -1.2169663159142292], [-1.8084396131555014, -0.06879992991386041, 1.0165770381634283, 1.3054882811201147, -0.9595054525767104, -1.5611546669654168, 1.3858065014261731, -1.5913543501583551, -1.9598906730267998, -1.5182420178578666, -1.9010283765335108, -1.72175001742387, -1.4224973810261412, 0.4957861318178187, -0.6858356839481714, 1.8894376251606144, 1.2696086677743037, -0.841150214227286, -0.9079532265313013, 1.5326820684607712], [-1.7764878636824633, -0.7783898877431166, -1.738501130585822, 1.9297978919831689, -0.3114873630004258, 0.5428438683101295, 0.07851060020188916, -0.7047127038281573, -1.1192702275214064, -1.6239946143437858, -0.9117077105680864, -1.0411274970502635, -0.23027227953683882, 0.08160076696016993, -1.0754714686484488, -0.4724624753286508, 1.3623424356545977, 0.9095013910320611, 1.3966163332941308, 1.123520863010448], [0.12704809899719693, -1.5265101210698133, -1.1221719534754935, -1.1805517943773163, 1.566140420142685, 1.1384065453420131, -1.4716197033402225, 0.6890554865958056, 0.4078985005443845, 0.7905174229171306, 0.6692769482265799, -0.06631935167652658, 1.9167225088928563, 0.5466559847892265, -0.9697412558452387, -1.1756550800941112, 1.045451777686675, -0.6774622772570047, -1.004522639523683, 1.857171735909846], [-1.4422808914200078, -1.5361305675242236, 1.7664245556723879, -1.8988656811379467, 0.46044547939727076, -1.1946839882686118, -0.3041736193196747, 0.6824879980140057, 1.1282830555432337, -0.827287532011487, 1.1062875621275916, 0.2253209304274093, -1.1531181323218092, 1.8687064059020169, 0.39225438299301496, -0.2900591824169543, -0.13861776336751586, -1.338517928662251, -0.8485123812581414, -1.24970649735512], [1.6970885916202278, -0.23056595415436743, -0.1015185368572693, -1.952331522623533, -1.2135667113767235, -0.6930806596201786, -1.8758719955521541, -1.6427966725112713, -0.7959448302405572, 1.2499534710221236, 1.8791126076158817, -1.1686116849598625, -1.3802493680773908, 1.3277259331590718, 0.6111504256516969, -1.011146230868491, 1.664997968929756, -0.631158297113716, -0.7689273229267224, -1.265574718657565], [-1.216811952255477, 0.1879252047892268, 0.5516916143620656, 0.5181456817659105, -1.534723431634819, -1.953497756101859, 0.382198883678607, 1.7029921295761987, -0.34594726566872946, -1.7574187903381753, 1.323995163597826, -1.67364651231977, 1.7049297410390407, -0.028051569585609393, 1.7890604325943071, 0.7250414391233013, -0.39621973523115805, -1.0094270758649802, -0.4976650274677459, -1.9849575070764525], [0.44470541266951713, 1.2712940021285264, 0.344260742936747, 1.7464503087543846, -1.869563614407761, 1.099187743910579, -0.37133192481416266, 1.572934102629704, 1.7298692128754052, 1.7237910360113817, 0.7365300768695526, -1.8799365145380444, -0.7894019179136902, 0.5693594066938035, -0.5870625819925914, -0.3085649008622777, -1.3257683634025397, -1.1936662393344561, 1.769132085761754, -0.5824851910757536], [-0.8785717838332179, -0.11925632508480977, -0.6838726276076779, -0.44287654392979814, 1.5156509576729258, 0.7955408008898956, 0.880898638022451, -1.6675751405980415, 0.6449864644482295, -1.5491780644643738, 0.011374077683994344, 1.8904676736567754, -0.8753948411320644, -0.006100473584182975, -0.7482587119526696, -0.9325770396428519, -0.20320750052259795, -0.2500931164782578, 1.65999815218338, 1.5604720155130223], [-1.680797789173122, -0.9057264101669813, 1.6453771283989158, 0.23438039804591115, 1.877617320026462, -1.281789656903951, -1.3238213994760275, 0.43042318492107645, -0.49998811523894426, 1.1372952658723103, -0.8151708373255571, 1.1306103000327568, -1.0623314578747909, -1.3891261510632553, -1.9175969050916883, 0.2879480475750631, -0.8341122210115239, 1.1987084170086537, -0.4043381789738132, 1.2849285376890007], [1.0504541964570877, -0.37976108461399827, 0.8436476978378553, 0.8431793674891463, 0.61202961939704, -0.5550601899781911, -1.5664431007420982, -0.5952304458437991, 0.9620974726403064, 0.128338970741535, 0.10212450930849348, -0.02043692006921871, -0.9888832151551186, 1.1868174124981574, -0.7782149710333126, 0.8862062124478878, 1.9202680276765163, -1.888346145713613, -1.608644032223998, 1.3251227976488344], [-1.8691777573855854, -1.5893495752790021, 0.3714432717515921, 1.7865498825379351, -0.26272916928637935, -0.4844588394596725, -1.8530160374904057, -1.1049861755157062, 0.7094446515065873, -1.815637235375009, 1.3456929325100404, 0.598285943438122, 0.018126770944831172, -1.4399368714484915, 0.534241344583573, -1.8259627550901576, 1.628387381351152, 1.1203790426366012, -0.6073874610895604, 0.44491242989684965], [-1.4147154379419256, 1.5752489599650503, -0.4347750709889979, 0.26499635858690995, 1.7515090862686717, 0.9192944082776155, 1.0634161195158782, 0.3213917528607051, 0.39283426773607566, -0.6410127639759904, -0.7751092055378885, 1.2188795941006823, 0.6214919140076054, -1.1239143000088143, -0.9541752779059189, -0.912752089273142, -1.2201175779221023, -0.3938726557548673, 0.9264360368202156, 1.536408804140149], [-1.3331520519216125, -1.0683006331035663, 1.7758226317635435, 1.4125106414795296, 0.4475203444536202, -0.10365237247174308, 1.468686991543192, -0.5559368623351646, 0.7367232808112139, -1.2404184790711605, -0.39040164864539717, 0.04389421311862085, 0.9791988623225456, -1.2164307983276772, -1.8192784583353254, 0.9015225847976174, 1.0123033323783632, -1.2765279253642734, -1.3435182105238446, -1.1201507456737518], [-0.3700001917025908, -1.2914770983494033, 1.4396162468788072, -0.5583886009220471, 0.31581133891340496, -1.9677251721479756, 0.2792173614787945, -0.5158674083877228, -0.8476374432096132, 1.5651957916517398, 1.2065332371299293, -1.0464042152642157, -0.6773237074528127, 0.016479398782903942, 0.028146628794950335, -1.5798120469773527, 0.37990039054738656, -1.2188352714416304, 0.8923145992311636, 0.018212833538362005], [1.0072360300302523, 0.4851306653006646, 0.5768473684186026, 0.111558172524576, -1.2872759920275931, -1.267741599711206, 1.209523996440963, -0.2021452482416155, -1.9799643056653573, -0.6334930374579995, -0.8303470445989865, 0.9129852912587721, 0.09446592418414212, 1.606476634413771, 1.6643562127955573, -0.10075850290564548, -0.5572910548444932, -1.0380301957667926, 0.10212711966576737, -0.7846836914143274]], "bias": [[0.03559429085321464, 0.26171756869723584, 0.014842533788675616, 0.8213590061932274, 0.2033464521650281, 0.3966696941541493, 0.07190401542868408, 0.11874811951570763, 0.47759282530638947, 0.10928681252974382, 0.11760315737140992, 0.4777671742085555, 0.9959988400623405, 0.17382620806666593, 0.3487375419093073, 0.3324189312478515, 0.4142717331892175, 0.8235429595811977, 0.15591348096769286, 0.3703788740939964]]}, {"weights": [[1.6733245544907054, 1.20795686348651, -1.2187197230993707, -1.3928742238331053, 0.8377124600437327, -0.880112743488989, 1.1766353771063547, -1.4103990975444223, -0.6323847459412151, 0.23831324442551605, 0.5862273618686049, -0.43227924428703135, 1.898165154724436, 0.9786598250621217, 1.8600472219725601, -1.2904363527390177, 1.5801735517068605, -1.233025303018918, 0.9098542741073556, -1.9057855049473198], [-1.1211956032822745, -1.3615377179844512, 1.6512904719152277, 0.5495357554560294, -0.033430486785631874, 0.7942729426184201, -1.1217862653973336, -0.7185546362970947, -1.8187565496908311, 1.3008765330154448, 0.8910258998791547, 0.28439990351601807, 1.636182061161406, 1.4641373481235518, -0.7071130828695895, -1.2758324218407586, 1.063995757483149, -0.7601730527784669, 1.2315308261932665, -1.7261109728294302], [-1.18345054903586, -1.3524884637672532, 0.7752492483557849, 1.2875109269431904, -0.3098530523281644, 1.0839143797915254, 0.25691274600107805, -1.3271272860512884, 0.6768369891498613, -0.27290086181030837, -1.8262153111785664, 1.8819430020324668, 1.909016587772721, 1.2297867118840613, -0.0715516934636109, 0.12160212662408831, -0.7784933611162197, 1.4508170871911865, -0.38444419595132384, -1.3747783694550764], [0.6813574203142672, 0.04011244523177826, 0.030476295487333882, -0.6883429751323105, -0.018595198063588114, 0.7975302433514688, -0.8536004710891771, 0.750112191711739, -0.12970614887920506, 1.0286389877347286, 0.4569224835478747, -1.2839337897204137, 1.9732829599112254, 0.9219885904580929, -1.1909290847075589, -1.164224231784162, 0.7093281869884152, 1.5431164394641215, -0.13999737231262932, 1.4988290702143159], [1.8850256765917415, 0.32724073666926534, -1.524676690529513, -0.6536569690551852, 0.5590536282827809, -0.6713637028221426, -1.3587188899659473, 0.2726475046129857, 1.2631143609464646, 1.855725873429368, -1.3427550969677036, 1.115075826404551, -0.35339953515321776, 1.577199807703514, 0.35574721057469016, 1.359203715487527, 0.15145320737674828, -0.1442203537933855, -0.0938896071004982, 1.6552926478930137], [0.5483097825587708, -0.6924770075388271, 1.2832486869703859, 1.0407551161479556, 0.7537339761552464, 1.6034596868392885, 1.2857426202295166, 0.17925338261682988, 1.3285950005023044, 1.6230755068812903, 1.992750354058213, -0.2697577661356352, 1.5574763874988338, -1.5030805456691172, -0.9629968477724025, -0.49272783431006806, 1.4063141980920486, 0.6530896542310036, -0.52456544281738, -0.10007995760628852], [0.7649535770139559, -0.8082849970216133, 1.334895195502984, 0.5101388444571842, 0.42768186694044363, 0.31681369356909306, -0.8453894484511646, 0.5577748952035759, -1.7841537544659278, -0.9951637305400469, 1.8518859011890019, 1.0079560885520356, -1.0953629758317227, 1.996916662804526, 1.343223662038218, 0.6912641110100299, 1.7366070145886505, 0.25621793845950247, 0.44492305769645624, -0.9310706243844575], [1.0237701096797163, -1.5862548387900954, 0.5522720791900846, 1.3753517510496764, 1.5041313338974125, 1.8993680428338187, 0.38108768959708694, 1.090741905636475, 0.7573949687357877, 0.5950189557174568, -1.2452054791623417, 0.46541671377160876, 0.6066843727377447, -0.5643597391430917, -0.8208992194289233, 0.5688417441580484, -1.8484531305288, 1.346147079156808, -0.3627031171037247, 1.1674644899645497], [1.1271386605467217, -0.7545218987548798, 0.8905893159222855, -1.1909135352945768, 1.1656597181096156, 0.11131707019451698, -1.7070928355189072, 0.4241213323680668, 0.566579894814097, -1.067820801413383, -0.22183013289895648, -1.2953481336935688, 1.7820793515925835, -0.4109873158654138, -1.1483133047118317, 1.4926945880362985, -1.4927947506336383, -1.5871773614279525, 1.0057133247006713, 0.8934076623458753], [1.5218417836088358, 1.2940919808282003, -1.1489463943114817, 1.717969579201803, -1.3057578584202165, -1.339298974297316, 0.7427236027364885, 0.6804207499420301, -1.9680238773196401, 0.19872675703934917, 0.8736275909987321, 1.5828641044958731, -0.5180134913176642, 0.4123646958956173, 1.5029152522940281, 1.2635362461427837, -1.3652138621269914, -0.9133253214564099, -1.6456682253004358, -1.5407395696202695], [-1.3100499600868454, -1.7585049285529948, 1.5647879906874498, -0.08992025772278067, -0.0025350976961577842, 0.9065858961119098, -0.25941925527429754, 0.5357452033356576, 1.4599342985091686, -0.7750820629522157, 1.6613811520645152, -0.40542127733134325, -0.6010766372900274, 1.7040243862089466, -1.3356192082705434, -0.10890222682640793, 0.001486134298162689, 0.06506906332782059, -1.7960433170322494, -0.7400986282935218], [0.7350389956541492, 0.4768846970675473, -0.5104537169692698, 1.4442622643181284, -1.6919518826012894, 0.2899818063491746, 1.7692140787878423, -1.3995063756698283, -0.5837426282728191, 1.8474504658026096, -1.691592212962869, 1.3286575881270544, -0.9512361490042505, 0.18177185348703162, 1.7866161453043272, 0.9129752526848018, -1.3817951873357952, 0.46933067806944306, -0.9854698347738067, 1.3775643448229435], [0.7687529059660894, -1.1403418053855172, -1.4620228023067923, 1.759676066345444, 0.2798949852061696, -0.8640330612314213, -1.6185245995749482, -0.11303823222857234, 1.558237573608129, 0.34214581586392345, -0.4428300961662255, -1.0067394316336609, 0.73384259680138, 1.3246774014730054, -0.3456801059588286, 0.4778952385505404, 0.7130988443697994, -0.4658208641531063, -0.2799338960552631, -0.4765828574634021], [-1.8479949819457873, 0.37385907755931136, 0.3021854694272723, -0.09878770199412212, 1.1899422322207793, 1.2630512355863437, -0.8260340622899567, 1.4899470361046356, 1.0805970701824545, 0.2613507076998913, -1.9243538315778528, -0.5378040570866882, 0.8159772685074032, 0.5057610503652374, 1.7288457514447524, 0.5391626420259263, 1.0560978248641741, 0.4298198860261726, 1.05100466918539, -1.4985047836677468], [-1.3184507197399151, -0.0710048601746287, 0.8818828243959276, 0.22917250080998697, 0.4123926876039383, 1.0737967136925728, -0.9838650488304927, -1.135699219355201, 0.22321593643200233, -0.21553786704139188, 1.5068939862699513, -0.6987558724101901, 1.0141623166030773, 1.7090956842059772, -1.0954175784861828, 1.901861424705686, -1.84467227318919, 1.1249471805835087, 0.833054638375557, 0.8385034253599262], [1.9323336577917054, 1.1857100800354066, -0.04545344283734565, -0.9398813776908019, -0.8452674248317522, -0.3961189422974636, -1.0855879854734685, -1.8725616046331925, -0.20923243472997566, 1.9461406332333464, -1.8902031424099244, 1.7226480697913704, -1.5136787283698592, 1.9130347107657006, -0.8488581245502584, 1.4856220128502193, 0.8014245667952569, -0.49925035367172876, 0.7855531177231749, -1.103441476177251], [1.1797115359156662, -0.3248343353156784, 1.7899471479396105, 1.9621569974112245, -1.3522215050133988, 1.7140272813988129, 1.1585998440674143, -0.33678978659309156, 1.1726475748027574, 0.7126885523791273, 0.9772260992316313, 1.4348209618416776, 1.3373146709402808, -0.9896659795220306, 0.13477473258742112, -1.4107495847369829, 0.0925635128953215, -1.4196905066950323, -0.5597312095469031, -0.9060729357463089], [-0.6771998550474905, 1.3119179256396225, 1.5050038747839767, 0.8005777522141266, 1.3199772209175875, 1.809230749576527, 0.2927932681614003, 1.016041247711339, -1.492358817731795, -0.23904835014016435, 1.9043500277610006, -1.3622108346993076, 1.695974387536051, -0.09660950971294913, -1.6402031459238802, 0.7071519018990173, -1.8179536989757579, 1.6652221213242204, 0.825415506364334, 1.5174567953088842], [1.988600133186952, 1.1320506687298635, 0.27639007537841387, 1.604062224559914, -1.4940081729023893, 0.11074032174909254, -0.561433596477769, 0.13228137683544805, -1.837829553364429, 0.6416572810746333, -0.5143843532752377, -1.4783944037140202, -0.5838013749196098, 0.8607611115313007, 1.399583251702385, 0.3861168950988052, -1.2950214728285458, -0.40946988649023375, 0.3719993390364431, 0.5882112521029037], [0.16202485396382427, 0.16700442529344883, -1.3532144104711543, 0.07162564023008322, -1.6530610631731673, 1.6436096251143546, -0.9411702946225668, 0.7065420295085345, -0.9059864925483998, -0.5394775229302908, -0.5906812577910121, 1.1056470960254012, 0.9324567976953091, -0.05514889234254028, -1.1851574411356256, -0.6029596687395431, 1.422313093744954, 0.8352035716436772, -1.457833214119312, 0.6504879201764546]], "bias": [[0.12935106909824778, 0.02070580401277644, 0.18003901425508984, 0.7439766821660165, 0.7138046502456055, 0.38337801691961537, 0.8857736575309288, 0.7434130403001002, 0.7384152385370063, 0.45456078588688986, 0.3934015884656391, 0.7656320292638521, 0.07015217090336634, 0.1118758532728078, 0.3288664103232348, 0.9007633221122741, 0.2766505694650573, 0.7979996388911934, 0.14581380521384824, 0.6597464109848258]]}, {"weights": [[1.8632969478137293, 0.910863826265023, 1.0989855474065955, 1.1972903015026999, -0.8681061979137459, -1.1715780756417238, 1.2284288150221], [1.040746676254722, -0.7508426313249159, -1.1277389796285724, 1.3353223657251387, -1.0739001057870854, -1.5723260549108868, 1.3047668120768416], [-0.11135269379356139, 0.763081268871487, 1.6059345043608357, 1.1232730399879451, -1.8140495428568477, 0.24137788090643353, -1.9627700755989448], [0.7915074625609062, -0.5793605343117099, -0.11327208840784575, 1.945438554335213, 0.3160604195006118, 1.6666505549184336, -1.077144384820102], [-1.9819992154812422, 1.5054909548893916, -0.6296097040816813, -1.4267827429060387, -0.41586725361017685, -1.5403047652497621, -0.875460839154651], [-1.0012139531222943, 1.737435203379352, -1.410414553475233, 0.8209236626420813, -0.41703304040156297, 0.46781677890347995, 0.32509889127722147], [1.5080582809824103, -0.9790155051299183, -0.3986587903522909, -0.08167248913452019, 0.2370309552143861, -0.04764044459080852, -1.00584935942158], [0.7616236927779889, 0.1254140883328838, -0.8390409013250171, -1.6097414972718926, 1.5913678804015423, 1.0796588418681243, -0.5278943558761053], [0.4785490837944151, 1.0514442124200212, 0.21854080095838357, -1.3309870384580966, 1.7184410685476528, 0.10046614824260702, -1.3621126515491193], [-0.4479126533681974, 0.2861440758509177, 1.5758472363738822, 1.9274418459199976, 0.9536477186480923, 1.0378661249862882, 0.48088116924498703], [-0.7551532258942397, -1.8303852372239606, 1.6875761745523614, -1.2966575535713867, -0.5830078329150532, -0.6437868019962782, -0.8297492466131322], [0.5635362503884753, 0.3433286021474147, -1.7818612753228273, 0.9677679444556313, -1.065998657537591, -0.6456514539036111, -0.7635877505908657], [-0.7480859255314858, 1.1537942665845846, -1.9171593480332239, -0.6863793714439477, -1.1955352823942333, -0.8940312066423362, -1.9581403513649973], [0.7540963705629458, 0.7129206736482225, -0.7505103886074918, -1.0808159643397306, 1.2768470638574771, -1.0549953167444244, -0.7738927374613511], [-1.781600735060581, 1.5877406062538961, 0.8528907530483094, 0.9103675025256179, -0.38964898774480927, -1.67987216567668, -0.6596558338911844], [0.5607529655423704, -0.8290072090585445, 0.6950046166833808, 0.955068845448058, 1.943170281443099, -0.3854755086613362, 0.7233594135028003], [-0.9464383760548998, -0.8548967606911573, -0.43164492117268116, 1.3184438866120307, 0.102503393451431, -1.9698004621073646, -1.4684060665947811], [-0.38288220961576824, -0.6967643224082316, 1.1520458609103952, 1.3720738084832198, 1.912301347578453, 1.103257750678143, -0.0617395890642598], [-1.6682677502526517, -0.36092586140816696, 1.2307566342044152, 1.0474002341884385, 0.5219036688618677, 1.2550863384632627, 1.5740486791837505], [0.8519800497290779, 1.456384727272256, -1.3347769075420741, -0.7176882998573575, 0.9557449785664276, -1.271479466320153, -0.25179996410555905]], "bias": [[0.8457291721133322, 0.23126415063811223, 0.2027681815785306, 0.5882702588823303, 0.8192016667329153, 0.4438422917855398, 0.17285091620128146]]}], "input_length": 17, "nb_hidden_layers": 5, "hidden_layers_length": 20}, "index_in_population": 11, "sprite_height": 100, "sprite_width": 120}