{"sprite_height": 100, "sprite_width": 120, "file": "Ken", "index_in_population": 4, "population_number": 7, "color_name": "beige", "neural_net": {"hidden_layers_length": 20, "hidden_layers": [{"weights": [[1.0499835388549927, -0.6386371187376874, 1.3825254850489723, -0.7855875103787033, 1.008851507298314, 1.9380224078361392, 0.5701946560924758, 1.8913236273187013, 1.5811366747395335, 1.1836013440716902, -0.36948908830081173, -0.67292424461546, -1.197813437438822, -1.3832192493339837, -1.2642291810222206, 0.7680766761448772, 0.7221544063577081, -1.6904711304728357, -1.815466161490301, -1.8416268123271697], [1.7789472022670858, 0.947125153003368, -1.6058375132757807, 0.43220398311811214, 1.9318751195047512, 1.7287566895894995, 1.99659809204607, -0.5507050260580972, 0.031118469798258275, 0.9561203883217244, 1.3842052177375574, 0.6430578073169557, 1.0495140050260527, 1.9901526854041474, 1.3622373899755487, 1.281859991502046, -0.8314175350316271, 1.698617428907871, -0.37632480064540186, -0.06736678533169904], [-1.6938564731584171, 1.5081991110932775, 0.49561905107510595, 0.17418682986465006, 1.8356941630677972, -1.399472413199565, -1.9416827267739727, -1.617044485104063, 0.21370608992272144, -1.1289001865301582, 0.4200339223611489, -0.6058741878059664, -0.21019507175284824, 1.175933413281856, -1.336486013145148, 0.009569657208611027, -0.6732600855964903, -1.8979851866656312, 0.08492096630025836, 0.7286400619698545], [1.4944865313983207, -0.21697870235603434, -0.21098576016516812, -1.708608741394487, -1.9204448431362025, -1.8976247105676922, 0.2841331705872161, -1.470097906243307, -1.3791451846577312, 0.15023883600433896, -0.983494860630183, -1.852593321944692, -0.9016932783436014, 0.4021039916764688, -0.10803653849603378, 0.9420819131749418, -1.348862934914441, 1.1742043679216572, -0.701421041380546, 0.44326120754818943], [-0.48625987666829884, 0.6632445076276872, -0.9190646148015604, -1.007385614956947, -1.9230193408226084, -1.3789014872555683, 0.6798553015923603, -0.21569990743350553, -0.29231845863337425, 0.6386623715799558, -0.04266899603071783, 0.830903159570906, 0.9779461472882827, 0.7325364535698244, -1.6346689627283961, 1.0396112562614186, 0.8703873525807646, 1.4995114313244295, 1.5091264560447324, -0.04378723512797844], [-1.9907403585648202, -1.996419722766753, -1.7596881939176607, -0.6400695015436031, 0.45785995263482926, 0.8094479279734417, -0.6977343088463805, 1.1504504714925052, 0.40352771842474056, -0.9461039851808732, -0.9453956698471346, -1.1947275735391396, -0.009481634539964201, -1.5053584517624197, 1.377563363094719, 1.6772730236097781, 0.2976010129642974, -0.15343628189451541, 0.5368181934926204, -0.7796719465732882], [-0.026175879044293193, 1.1706649036249925, 0.9004868644793778, -0.0384809071818033, -0.16923053646929986, 1.476596778207854, 1.8248836685676104, 0.04772176112987703, 0.5201334291946536, 1.097563210402599, -0.6872078176364216, -1.5265818349775344, -1.5466506265411373, 0.22870295810102892, 1.424556265402165, 0.18040248959241145, 0.4388067398873221, -0.548579470999333, -0.22864683509915018, -1.2735598505891046], [1.7852734641612873, 0.1689368914098326, -1.893856972496819, -1.4721649542701698, -0.2366897397998633, -0.2639017238541812, -0.15497179608047462, -1.9465988031757733, 1.590981876502351, 1.8050732820024384, 0.6309171864679559, 1.4449359769968004, -1.8095324349625925, -0.012033585917679002, 0.9854369793754647, -0.852412507797192, 1.5246315028249953, -1.1585324570444837, -1.32568499474907, -0.5349085642836688], [0.6983605860092563, 0.5790567213560025, -0.9506374413450294, -0.1847437346941807, 1.3772491812488061, 1.4228416884162103, 1.4172257140627873, 1.4275709426813052, -1.2662152738620351, -0.812587294003901, 1.525212406963313, 0.3597193471080322, 1.090736280786519, 1.0786323682232268, -1.9605310856669256, -0.45739685942331976, -1.5392631371061256, 1.362974064002969, 1.8179146589279949, -0.6671598836786399], [0.6592383575269452, 0.5990429512921533, 1.5690928842641827, -0.3935529923060983, 0.5092608119130606, -1.5160794111514182, -1.1754332450275258, 1.757469276671085, 0.39351287164046456, -1.1171572134428787, -1.938509533934019, 1.6478751165864973, 1.9635688736083443, -0.29020715758516236, 0.9086299052582452, -1.8745823197853095, -1.0838984133063674, -1.6234622397474854, -1.8470804797881533, -1.8630785436643307], [-0.6026973279044165, -0.5030266841318718, -1.5956241364132264, 1.0895966130425405, -1.8078874803517944, -1.238057398683721, -0.30307034862492266, 0.584591150402594, 0.8511998471600322, 0.6344176677544797, 0.9758629543697181, -0.13132592399110044, 1.4016384844028353, -1.0507710636934715, -0.4316670804368683, 0.0843280704779108, 0.054021701825686996, 1.544837756902513, -1.9237453129472732, 0.23229814886188782], [0.39702978617348794, 0.6986898679549385, -0.2498414961597213, -1.6854922121683211, 0.18967989178292788, 0.42806259319961626, 1.2166339883890371, 0.3270451411877908, 0.9395003758136582, -0.9504378492017889, -0.04049326363258432, -0.698621326310882, -1.9994989296349486, -0.19524248447609827, 0.7080498639367341, 0.5236023137611552, -1.1830805350890365, 0.2877162025986424, 0.6295283191261181, -0.7167022394214806], [-1.9645738802093446, 1.1082402846825863, 1.297977546570491, 0.9694852826794129, 1.0599822747604821, -1.685543335118517, -1.6122893492869026, -0.9495832708800429, -1.9857329983339373, -1.6374512161843824, -1.1309855846524055, -1.9288284636422413, 0.3197374105190267, 0.1389877089601903, 0.20848757290604025, 0.1709683798717423, 1.107582982014629, 0.5112100381130924, 1.4531042531559093, 0.8660541653531157], [0.4446541627478027, 0.5243438720593336, -0.8548815684375586, 0.73080625678744, 1.370730880845605, 0.13434029069907405, 0.5826031700767058, 1.4173590454573217, 1.7833929721178308, -1.0214365408026516, -1.9396329648450523, -0.566532604971425, 1.3781664665601823, -1.0701218436382036, 1.584480423247273, 0.8494492509115394, 1.6465378244290108, -1.4539924216324485, 0.8709566652127374, 1.675844062905365], [-1.652650816249578, 0.7746720354638308, -0.39461557076081943, 1.9607731971335736, 0.7315646683319756, 0.32479652850163765, 1.5089270902278948, -0.006604311712949507, -0.29237509226202896, -0.05321544854656546, 1.3059062942442057, 0.569051487885595, 0.9046189570746228, 0.6627712464978277, -1.9751773817192246, 1.1775693535029643, 1.4817789860313577, -0.18618429030338524, -1.7237143910324577, 1.7243424808432941], [-0.18392886351718385, -1.4596306308644502, 0.13956902546035854, -1.4418929836906038, 0.17809554515464665, 1.0522693547275073, -0.8533032244810563, -1.2901615757994982, 0.35304017758925355, 1.4436650548142627, 0.7907119140520282, -0.6130650005528895, -0.7212567513110848, 1.0081953787053717, -1.091022143929829, 1.796472853547355, -0.720557757673427, -1.9338941005606514, 1.9755052142148992, 1.3808751308725413], [1.4056827871548179, -0.041380954956328875, 1.9000484801755047, 0.9257966621626945, -0.39496823755920474, -0.39242945868523593, 1.1245521292834062, 0.25775442223644784, 1.8926676115542098, -1.9287152007183286, 1.8262231632322679, -0.1717096886928271, -0.2205691064553581, -0.031003637203574907, 1.714628923823497, 0.44414240191690135, -0.9002934878248179, -0.5555921769453844, 0.0840666142952542, -1.3012873532009692]], "bias": [[0.6025252851110047, 0.10836906403630531, 0.5553734327572465, 0.21280923484180392, 0.21794406090796203, 0.1425806094580807, 0.5759624465933877, 0.2695263104075073, 0.974301722256607, 0.48608405183960457, 0.37369958390538327, 0.4441972647837572, 0.51903456507795, 0.8373888722573527, 0.7358638740276678, 0.20124309225792092, 0.2783182956024072, 0.693795458971054, 0.8434167892724475, 0.11739141788047369]]}, {"weights": [[-0.5686480435042798, -1.7371168042051712, -0.4608177525314141, 1.5896987000681189, -0.9905904757796864, -0.5599319433225429, -1.487705352245213, 0.5902541082014245, 1.030516534911997, 0.756042932720173, -0.8853320983883441, -0.6633552261788469, -0.1215485568019643, 1.5601379834433988, 0.43545163386184926, 1.4748234776392302, -1.437704788899703, -0.30426421205973275, 1.1830142411396118, 1.2861997026249359], [1.0501520987698516, 1.4062682033735068, 0.4348661255037314, 0.2134446434789461, 1.279967536175369, 1.240507693131983, 0.49438733319612815, -0.9330866587283597, -1.5762976276784642, 1.179193575463077, -1.1599196426571239, -0.18086968038166829, -0.09603402249430859, -1.923768250171539, -1.2312926271923765, 0.6962407962758768, -0.3033705574809602, 0.27084536442489693, 0.9011978204376576, -0.10421784013256996], [0.0018588118623767969, 0.39171758617475305, 1.5815680784242523, -0.9328328865683484, 1.6011235287155463, -0.5597579618323052, 1.4041334225332176, 1.466406032748989, 1.9601320203244312, -0.800710311710354, 1.801802452232078, 0.5879377429815076, -0.7394638548852166, 0.13379718133074459, 1.8312337668195893, -0.7321866468008467, -0.3779643808412194, -1.1401797660946182, -1.003335506349242, 1.9261700250283362], [1.832562082893816, -0.6354068804485378, 0.44315023707395884, -1.2785069092912202, 0.733532225228589, -1.8611741377258197, -1.9134772963246038, -0.8911630716676489, 0.037324643229170285, -1.424013078552691, 0.2893535222985677, -1.6134211117910975, -1.547647628997931, 0.17315665831270444, -1.144657985908271, 0.17396550601749983, 0.5903346996840511, 0.04548170102065052, -1.60067554972734, -1.774543531356612], [1.4412944571303283, 0.8803733965662355, -0.693783765715609, 1.9448053085354626, 1.4053911374645396, 0.315428274359947, -1.0310490833182109, 0.3249985992233162, -1.109863338535657, -1.4567728511290472, 0.41613519460041815, -1.0834607409756773, -1.3155276402855245, -1.4026172957709475, 1.761159242412658, 0.12958799102055707, -0.21755464317611262, 0.8339388380567012, -0.16113489565610672, -0.5920584263230873], [-0.0706105476531742, 0.22636319021253204, 0.8785184873248073, 1.9534207491089917, -1.9042060032225634, 1.7267547287668905, -0.9995304943434706, 0.2504123159805478, 1.4508073527923169, 1.0073647868759927, -0.5608848913884357, 0.15861877357339216, -1.3976987829981118, 1.5817836998246384, 0.2670771812497357, 1.0591687638062415, 1.860102826780317, -1.7886822279900363, -0.7195367979900915, -0.047878497025067634], [1.8861107600343132, 1.7178131432101482, 0.8162532199762538, 0.2834447076163227, 0.03109763160401613, 1.3709907355253232, -0.25642832854461206, 1.5775652532309965, 1.7171915007476488, 0.9972590023064924, 1.7330654147551292, -1.683062028761035, 1.7926946494590474, 0.20407276256606677, 1.4637269294349555, 0.18405526701909158, -0.6821410598301938, 1.051341448834724, 1.8235612123634333, 1.7456365445801376], [-0.365127809285128, -0.8961532823387097, 1.1151956442281672, -0.663170809298129, 1.4680086780301567, 1.6042724482652218, -0.8806272416686332, -1.3486206490068127, 0.03841556844982108, 0.1225700722887817, 0.469145024636767, 0.01654541115180841, 1.5715764408857482, -0.6500033730513306, -1.2042247766276355, -1.8261966037626496, 1.7131623626011083, 1.8682200785192453, -0.08601545006723432, -1.971201842628083], [-0.46345054918686923, -0.22248125508675853, -1.2306910386466967, 0.6131980509831805, -1.3617213708614648, -1.8987590196177329, -0.4728563185030952, -0.11732180699649097, 1.2332947442036706, 0.5340306856377923, -0.1261615757090997, -0.596430551553933, -0.9455652425441747, 0.992554137376644, 1.0471573836599468, -1.426828306432728, 1.3185350812383114, -0.5805242992316422, -1.8102883396539653, -0.40642190949127066], [-0.8636872283759405, -0.7762421949926988, 1.666464533789208, 1.838898862732571, 0.3326133567278151, -0.1311363310275553, -1.8020353274309722, 1.9247256976184408, -1.2888410287782053, 1.691354128422336, -0.3111325607185731, -0.873617935444619, 0.4812944054465791, -1.1387621634059482, -0.6737002103120209, -0.997054268920313, 0.4769487660039635, -0.9668107632055984, 0.03081993092265467, 1.4353936846006627], [-0.2805583455989562, -0.4154044764900835, -1.7412567909528192, 0.18669153148598783, 1.1304231066255586, -1.3626393162399997, -0.8930342594937835, -0.21991361996300984, -1.8134087873280005, -1.8572371688272398, -1.7966546931249066, -1.0420886846414126, 1.6909989149089686, 1.2219473732880655, 0.4206619867310333, -1.1378506561163242, -0.2788423022526114, 0.24651434025154817, -1.6238848657136526, 0.08086103664919753], [0.936513124864153, -1.7517265427998083, 0.28293580205643165, -0.8473291050159539, -0.5595481937942064, 0.291701160325041, -0.4497943703369174, -1.906454383819952, 1.8293654519083722, 1.5198490568957266, 0.9915825870376453, 0.07475102534187084, 1.931687073351676, 1.8141268066843361, -0.0016195718067746334, 0.4498923166974218, -1.296591146180063, 1.3150243819367544, -0.3986091565882077, -0.632334450666594], [-0.7545490715878356, 1.9520971504970333, -0.7782693852389344, 1.3911068581280928, 1.9552611002170348, -1.086315772246516, -1.9608914180761725, 0.4896711446865729, -1.8235822074982049, -0.8037888099831956, -1.2528849527183814, -0.7248494928403146, -1.019778451861975, -0.4932649516881793, -1.2326006291490699, 1.8301687288828825, 0.41294732777969, -1.1463084041335563, -1.0583475795579864, 1.2810192564703562], [1.7603237844468507, 0.08123732655069249, -1.8650522831246774, -1.3525292169124397, 0.27637818922082635, 0.8878183314541728, -0.9114741386239977, 1.4846593699291541, -1.2846124284559695, -0.8394101344478297, -0.7498847596882592, 0.13765487274669175, -0.4656243797549404, 1.9974516274062832, -1.4325593347465944, -1.350955579092461, -0.950841900621652, -0.594704743301341, -1.4758661804597772, 0.15850436502363907], [-1.0007225513631912, -1.8481078278872238, -1.7853151324731882, 0.2887483345023609, -1.2717000502053404, 1.7395671128909536, 0.14933075307746835, 0.3707660231728722, -1.181722838241042, -0.8647699550218806, -0.12215814273099523, -0.4329610252264926, -0.053036284890238594, -0.8319520999863808, 1.7298145922008503, -0.5293315770533438, -0.9749396665024435, 0.3147792214230196, -1.6743973485099382, -1.2988303951201683], [-1.8357567925249643, -0.08699090865246806, 0.21022241055963553, -1.701800805163046, -0.13222676610963902, 1.648998633407031, 0.9390390285290828, 0.30872319362158995, 1.9468146631710925, 1.223993868014094, 1.2255366675681105, 0.02117354456573839, -1.7902048510763167, -0.15795610995560638, -1.1795959381677603, -1.4198724115960681, -0.8278065711400151, 1.6272535834021795, 1.4178393388756234, -0.2871876031996181], [1.3163345285679395, 1.9700507820421413, 1.3162660137761195, 0.7562087405090798, 0.6981883016997168, -0.7383858419175948, 0.32551900847114545, -0.8144452156067845, -1.5625740149979896, -1.848686017225738, 1.2569280273113135, 1.3690378719440597, 1.5070035920012255, -0.9529548825663992, 1.5022561858960533, 0.4703273031288182, 0.2595053563921832, 0.23736818181630603, -1.5162519808410257, -1.7585734511526314], [1.3398977478564271, 0.8169245569827748, 0.008143860818770943, 0.6112588827909966, -1.669640938611415, 1.8627978472617968, -1.9999482612535058, -1.601139639837859, 1.8981858101839029, -1.5379069610675211, 0.9531383483005902, 0.8052620362107761, 0.11396619674798147, -1.908094084309972, 0.6809963249019457, -0.3478027439210143, 1.830191332324516, -1.4816248736416737, -0.2811575935883184, 1.1729415724142926], [1.1358130221523717, 0.48179280281456194, -1.5579769083923942, -0.3712842410446102, 1.8853832620171715, -0.5090218078833288, 1.5043011316409243, -1.1108132396591364, -0.7913163365269091, -0.4648491343473875, -1.7161395917257192, -1.0021048232350314, 1.682753321892878, 0.7103554573646549, 1.3105957081081194, 0.15416210889337068, -1.4593049373666154, -0.1389898099533795, -0.8065977058168317, -0.5268868583914559], [1.3268703495258998, 1.106311435844915, 1.9215556660043962, 0.8777776202213605, -0.6471943795279143, -0.9469711539926831, -1.488892993605008, 1.4800934598261466, 0.600009862858427, -0.5708771515054107, -0.33167182551302554, 0.864527321969625, 0.047993452586432284, 0.15961785338235934, -1.2305087236198125, 0.9393098607145225, 0.4022855580319611, 0.9340346719979413, 0.9661912655652332, -1.1305863970909886]], "bias": [[0.9419862014736542, 0.10350321060584178, 0.8980919869819297, 0.2378108119426413, 0.8307420026660823, 0.3009539463994142, 0.12794484489509794, 0.8737020708274941, 0.46749338866276124, 0.8172282882492321, 0.35460332452862386, 0.17617017817392677, 0.4972160039176524, 0.21473664610405852, 0.14585813213821142, 0.34332199002229724, 0.4099588581070076, 0.6298302863732662, 0.7263946038927813, 0.5739136636460331]]}, {"weights": [[-1.3789158261272134, -1.9438754730842995, 0.9348937000534754, 1.392791258627939, 0.8546491627579709, 1.6279499517250877, -0.7250473021191799], [-1.9667017051710753, -1.656928156430756, -0.6030895096776758, 0.3933146990044061, -0.28976590936560287, 1.8506710431283806, 1.8258555487711239], [1.4951025493422958, -0.29965692381718423, 0.10095004270723651, 0.8005673852199675, 1.2902050124536357, 0.7073833711959856, 0.7264028634665021], [-1.8579430882476728, -1.1201481711300683, -0.3399625301395872, 0.09341644265359506, -1.9145671566481042, -1.695827666443238, 1.8982360566543246], [1.7847826900922565, 0.36028938450164594, -0.2967449394754049, -1.1923157680444136, -1.2306629736535788, -1.0237743396673613, 0.5143614921390323], [-1.0171708097510574, -1.9270244475226157, -1.3698360446983622, -1.8606768765914543, 0.2501310233915106, -1.8009511482039353, -1.9347498425040408], [-1.2775920474249145, -0.18795348413742685, 0.7054097367507413, -0.802024689229154, -1.1496237301638708, 0.5031877846543718, 0.7681647757060319], [-1.4623377755094502, 0.5373505179682163, -0.8742841318769412, 1.8483712462578246, -0.2979639197584616, 0.28360350505131837, -0.4432624700072023], [-1.5214573848137838, 1.7409510728813284, -0.30410891733494294, 1.7741198164054741, 1.1110035481314209, 1.0548150016526856, 1.3778870293753727], [1.3965771648762022, 0.0018231307882170533, 0.5813787150058864, -1.2474421955676642, -1.4661398456822736, -1.046931321241848, -1.6817787792329613], [1.4449533023322174, 0.9875235876585546, 0.2635602641118, -1.2079510986921278, -1.0385020773123013, -0.18190354165564893, -1.8743726899594448], [0.023507738844183557, 0.7831384546852722, 1.9218475143260676, 1.175237575004922, 0.37340819557165705, -0.23026333328970505, -0.1305374715014831], [1.4403777495542105, -1.3895655404449583, -0.07723542732949928, 1.2780891273010195, 0.837865049794285, -1.0352288245461247, 0.677778227364874], [0.2060839483089647, 0.7320691277388884, -1.9779182924117937, 1.866185117335347, -1.3352519627794726, -1.5379304402562677, 0.477519042785469], [0.0623276835263904, -0.8854459843032609, 1.479103469099115, -1.6867202793425458, 0.44162592005408774, 1.7710108556772202, -0.4887791244849051], [0.6371872669470267, 1.6569478011195047, 1.3273063537145506, 0.7811476498146708, 1.780733442361813, 0.6426403192644532, 1.388712913923813], [-0.19653387947347634, -0.36764044806792295, 1.6639951346370743, -1.359968777293866, 1.4070071507332669, 1.9644602444203856, 0.5761871285041242], [-1.744129376799287, -0.5330822624442995, 0.7904113843973617, 1.1585981768938183, -1.0147792318928572, 1.2163370932285615, -1.6130727066695796], [1.9891415745982388, -0.06458394711684834, -1.045669594150219, -0.35631998030949097, 0.18767395422294486, -1.5527918241644536, -1.6425593281777986], [0.3514399091854381, 1.1264692636383407, 1.014673076140571, 0.15528327103044415, -0.8214085457247657, 0.4168412255952938, 0.8040882544529704]], "bias": [[0.40004876598398753, 0.4364460184637168, 0.7552129161321608, 0.13167475293925668, 0.13773884792959534, 0.7219774063410364, 0.8828783862709036]]}], "input_length": 17, "output_length": 7, "nb_hidden_layers": 3}}