{"sprite_height": 100, "sprite_width": 120, "file": "Ken", "index_in_population": 1, "population_number": 7, "color_name": "azure1", "neural_net": {"hidden_layers_length": 20, "hidden_layers": [{"weights": [[-0.9366808728888563, -1.2466545299265253, -1.6106572774873342, 1.7300813364478174, 1.896048563268577, -1.2166603656237949, 0.5093088869133, -0.664647385500778, -0.8420932719249405, 0.19338142893725507, 0.9272455944596607, 1.7810528821911222, 0.2837819696916495, -0.7772481690743049, 0.4030319280903103, -0.6768679216967377, -1.2512885529720816, -1.669310334493562, -1.0886656360000315, -1.9238005731563095], [-0.7164619193662833, 1.3994288395653225, -1.9155955180342437, 0.6464887037770208, -1.1632022616063002, 1.658252126928914, 1.1491699710099255, 0.9981908031179794, -1.9081469694226243, 0.8357246123418309, 1.833640240762651, 0.8599333039541985, 1.7386578205641783, -0.24420986728934002, 0.48024984093927214, -0.429774372287024, 1.5190492250676608, -1.0366792933369906, -1.1264082699337368, 1.5003829110364735], [1.6110897578549106, 0.42991117511284926, -0.5260757710561856, 0.19154378781207893, -1.2695837024126715, -1.2714136489114494, -1.053314327985858, -1.1585440003380936, -0.6535930368299177, -0.5716787085414641, 1.0936886636089476, 0.566838409886889, -1.4556027833983287, 1.700025008899933, -1.1794393009752708, 1.787804526241601, 0.2011384397492808, 0.05525327109709144, -0.28557770458774145, 0.047153007470547514], [0.23158845078235402, 0.9258011740319998, 1.494529119294706, 1.3772034146452627, 0.3808238379812421, 1.9442672370227108, -1.852232099062415, 1.7207247905419756, 0.6539570124555301, -1.375117584204466, 1.5063788358797834, -0.3077945155266746, 0.11006699177952495, 1.7681307406886448, 1.0196797193898801, -1.246895937637286, -1.778148494135268, 0.030125288183992627, 1.600686970585866, -0.02799947316885021], [-0.20980802653852493, -0.5726874391394756, -1.3865222428176018, 0.3726013322172239, -1.0133938725320268, 0.708537630225305, -0.36203580691531867, -1.3863570454039533, -0.3417279831866069, -0.06641315264879655, 1.316261592818495, -1.5032864630912077, 0.0506702497531375, -1.0791527067056572, -0.4743001811037235, 0.22358246979024532, 1.2736645018843062, 0.5622756053435167, 0.4050171774556319, -1.7070646477522349], [-0.30255910526218965, -1.0360469492545992, 1.8859281437762343, 0.09283166011693345, 1.9806703435905035, -0.5951296194634303, -1.9848335264914034, -1.90943011861668, 1.7940486891195966, -0.21160898178078424, -1.5231961373746365, 0.7492116524522512, -1.7036076886790856, -1.1935734318208584, 0.10916918931941622, 1.1979762478251255, 0.10020260632281719, 0.8284979945895037, 1.0206363506387026, 0.8599787570333302], [0.6696018775716679, -1.4886483229992153, -0.1823822577002021, 0.02896583644884787, -1.2968460034099718, 0.2954540986355241, -1.9596530211765084, 1.931953030793844, 0.7646733722550554, 1.0374611246456609, 0.4347270924083708, 1.7028400769979588, 1.2082366980809782, -0.2961383564612481, -0.460464704923397, -0.9508039846050305, 1.5531144351613504, -1.7960563261065117, -1.7208206362924368, -0.5893109973019439], [0.3783535179890669, -1.279097434637948, 0.3796978467474714, 1.1500375132146265, 1.5154446372012345, -0.8330598593556071, -0.007854182557748501, 1.5850819277926194, -0.6355797228949989, 1.3526897293111109, -0.2922932894009822, 0.9719983184672079, 1.9845158697390328, -1.4325709795939683, -1.2327612745838374, 0.4348883366834695, 1.748800205883684, -0.049741994673167866, 1.2496307924571175, -0.41504927066726793], [-0.7082864429279829, -1.6783096076510886, -1.8358626449307995, 1.378020133579187, 1.7354251206082782, -0.530249047932613, -1.4474319857393954, 0.47725944960982236, -0.6649703418900672, 0.6057291159658562, 1.3727787539183098, 0.6294635958898893, 1.143127034939229, -1.241565718474316, 0.41489566894669716, -1.9894816756068332, 0.9849118637748706, 1.0619653337564525, 1.8259759149576062, -1.9379231688367997], [1.5581632178366536, -0.6973822647036463, 1.2109805293020153, -1.9912276362158723, -1.872081832870987, -1.7163983481374303, 1.019293911791539, 1.3681483744904472, 1.43888383616037, 0.30026568286755984, -0.4279961468374771, 1.53130481505229, -0.18390232390839945, 0.9320564140679912, -0.2224524631426199, 0.7381944193330212, -0.5952628016966761, 1.4050521042800281, 1.0205347639479383, 1.851822788621298], [1.4981357951235572, -0.3897441766489993, 0.31937096163348677, -1.0965332406588577, -1.2081946281376439, 0.2378799845397528, 0.4489153183369057, -0.6151550215619395, 0.9915558032618947, -1.8706608791762789, -1.1817111852931612, 0.7461141626533032, -0.2696917823489273, 1.4964108961163758, -0.9607844081148667, 0.5644088848288207, 1.4514338728504348, 0.7417288487364249, 0.5894480576634709, 0.10102454267043814], [-1.6546207890835642, -0.07451102570124002, 1.904620547380135, 0.10223920681415732, 0.7414643155592664, 1.1237269517094424, 1.3883563517313133, 1.3912384992212186, 1.7859768902164097, -1.0166130859460365, -1.01070097313745, 1.4997050752472498, -1.469568708176224, -1.1677789392663107, 1.0189443190711742, 1.128094676772211, 1.348117793823409, -0.05388526248549441, 1.3144432742420116, 1.8328217800289508], [1.3359971410313025, -0.5516741194075321, 1.5942305334200464, 0.21638334805795667, 0.5567661307486151, -1.704005087035922, 0.984722843694227, -1.4134839849501808, 0.5190276755876226, 0.6886099557003993, 1.4002389842347118, -0.24297308943333196, 0.613513229843651, 0.4830457786800233, -1.5077870380191674, -0.5968143369095449, 0.5366079024568369, 1.1633821431529916, 0.9849698861732632, -1.1316299663343887], [1.98810926743203, 0.8103647496091497, 0.2121406439745659, -1.9827053393488123, 1.0957863790142572, 1.4952438461292208, -1.326564564071337, 0.6370946987242467, 0.9188972784326008, 0.9588222092260765, -1.4833518272698938, -0.4600125244853568, 0.3219787465570252, -0.28632338421735115, -0.04733323039538728, 0.16570655657406919, 1.0620538457639777, -0.6848309154085941, -0.19220052748039018, 1.1534637687373572], [-0.04036625367982838, 0.4153428711009588, 0.5582446661464564, -0.23863824052788551, 0.9650593487033317, 1.584717004001932, -1.3186512011706188, 0.8646685626701647, -0.41918958233703796, 0.36293440240298924, -0.13050579340973822, -0.9354023362774386, 0.013529177557378258, -0.10528540694682631, -1.3860448198492112, -1.5203638866224702, -1.6658501405349715, -1.3501506417965192, -0.29071175488033596, -0.5833255916358397], [0.2227448265684031, -0.04953723688467626, 1.643731728344755, 1.5646573073213665, -0.9181716237444646, -0.554065205889688, 0.8013663089232637, -1.0947527352744002, 1.5816391631797124, 1.5991113102036025, 0.6413713543818944, -0.9747283960463431, 0.2384226400514886, -0.8763919572741852, 0.31463626798745503, -0.3761529717608645, -1.028388565200343, 0.6531560238015768, -0.4198910117320014, -1.1011220804974209], [1.0330148821403617, 1.955745488544859, 0.4444371407744474, 0.2538154489061317, -1.5964495031121553, 1.1091622167559176, -0.30975381746681885, 0.3093301224201994, -1.9466207371810555, -1.9488346270907897, -1.0820595085813136, 1.5466285674652398, 1.5031874509934013, 0.017149673607211646, 1.445285915926474, 0.2164898426749402, 1.418957664180596, 0.4443673957076282, 1.8461322155880349, 1.4867996035552307]], "bias": [[0.6962220830933492, 0.3811069186559879, 0.5462812842074211, 0.9245457224978487, 0.17011936821837814, 0.4915252119151947, 0.5419740320996487, 0.8152407850919178, 0.8739928976870035, 0.1658878544467549, 0.2797777778414451, 0.5702067974107903, 0.6484599644202028, 0.6746931429494285, 0.22486546519107287, 0.20696221628206457, 0.5769244912596407, 0.9772338330475142, 0.09993806178944309, 0.5506410085664319]]}, {"weights": [[0.7931628961064066, 1.509557687075536, 1.433159140441179, 0.39717655669828256, 0.700546861445559, -1.2420559816740946, 1.3111522572916887, -1.345345243195041, -1.3629334049236985, 1.1752435177982101, -0.7611531350529375, -0.07778409969424782, 1.3533289565110924, -1.3977051630190678, -1.2533566827199438, -0.9698314113765716, -0.021470670656138946, 0.1513938890469615, 0.7505932122283112, -0.095670770494662], [-0.49174640959818383, -0.38703639171420345, -0.6329573234974077, -0.05427241431428076, -0.18988598470477536, -0.6954790332785326, 1.863412461098989, 1.3214574887623138, -1.4062825526366578, -0.9926098711837117, 1.2299072743289168, -0.42463051400672747, 1.2384616372787747, 0.08575856094758683, 0.5671475923598628, -0.518903546310638, -0.17508346914253536, -1.6827128089954049, -0.807237271039968, -0.7222318010070055], [-0.5451546509821332, -1.915248907945609, -1.8800312966916328, -0.3657062982907653, 0.2995582155924361, -1.5707067281195526, -1.1670687570372253, -0.36537808849707964, 0.764604822309721, -0.6083922468636791, -0.9326492223054852, -1.6466330977517138, -1.3646595388846157, 0.3240067071426913, -1.754217995097739, -0.9102511368597845, -1.6375734174979284, -0.9524984303891975, 1.2227405962080824, 0.369880981307789], [0.8937425663136809, -0.5892326477442351, -0.6279992757433703, -0.08178359839922766, -0.6998998850254017, 1.482711659604142, -1.972335563977011, -0.1708168026408856, -1.4926700865692886, -1.4483820219458665, -0.5539131936961703, -0.7186538529107067, -1.8399591827019366, 1.832409745618869, 1.3777773045950363, 1.0150008587864674, 1.7349717863893384, -1.108070197988563, -0.09593464134104979, -0.06459060730496136], [-1.4207076052268022, -0.38350316888520464, -0.6772283018461245, 1.9375948531952103, 1.3288089170237543, -0.7386542883529517, -0.5267466426382117, -0.6747618725690958, 1.9632579452580519, -0.13416119473705557, -1.2400737979983143, 1.6420140078903662, -1.08866135115868, 0.4209713629019949, 0.4833522270454438, 1.5129785713051644, 0.08457252086275568, 1.4989331532039567, -0.9719328272293382, -1.36426760491229], [-0.48991831716212353, -0.35470669881109007, 1.7086078616564144, -1.6343798411817962, 0.28856212270796533, -0.07285381480758879, -1.2391589710863062, -1.4104227805568272, 1.5194462205929917, 1.7851805202670525, -1.7594054792253617, -0.5019276343362593, 0.21921914639254592, 1.8472080775049426, -0.9529763252015471, 0.36263526890334496, 1.287489416906781, 1.2734127015889585, 1.5896361403772095, -0.41054119786478216], [-0.786524087400545, -1.0881317940799384, -1.4524262777482577, -1.699950932732055, 1.824789275781805, 0.6097272075394566, 0.29457162123184366, -0.27196030100518387, 0.5155626468748182, 1.6992443897096634, -0.7217671081609374, -1.301347301419276, -0.08875832796166438, -0.4516803882824334, -0.6387969130716624, -0.012565331313389994, -1.8298869784353404, -1.300239316397994, -1.5625397411450788, 0.7831997500584276], [-1.0036272710424727, 0.9952467018206352, -1.795043536716181, -0.947228954158732, -0.6392770549624207, -0.4020260150894459, 1.7630880742647168, -1.6275213210562618, 0.04444684903640317, 0.8841208960380915, -1.7328082712704833, 1.1268464770550994, 1.1559369551484306, 1.5295851145875594, -1.2714210940345194, 0.8571263219283036, 0.8156464054498578, 1.4858619384998284, 0.03343909947131429, 1.62065684163738], [-0.9898562787205241, -0.44279801750717196, 0.07953880874586261, 0.23341018657785684, 1.2224233798686375, -0.573757168089224, -1.9582298637286022, -1.57681694089049, -1.0569759044578544, 1.8728145678017847, -0.8193673613768646, -0.6527859545585306, -1.2520990894960664, 1.4029435233888092, 0.8222410727370737, 1.788973278772846, 0.27389909385381994, 1.4505955987645072, -0.36171517326745484, -0.7180936384165157], [0.9757342806594136, 1.4566160282337348, -0.09895411114052477, -0.21833098166637477, 1.44010080501842, -0.8026950520651601, 1.8693566592653625, 0.23212437749331993, -0.5544982537685121, -1.772103098413616, -0.8521084966855637, -0.6054181998519126, -1.3233768863705224, -1.6469621941296912, -1.7756416625097917, -1.4459699286833834, -0.6745248474160679, -0.2328084608069374, 0.1994716741774627, 0.019132398749924562], [0.2920700246543486, -1.62187115596159, -0.25123977772014383, 0.12531627105187315, 1.110740978406493, 0.6870213132746246, 0.3308504180079672, 1.3494567341000416, -1.7705282515134773, -1.0111238439392078, 1.4205474755098098, 0.4065538961822872, 0.530826135092092, 0.6687842009484823, -0.13256237871183885, 1.2519176012621953, -1.0993596487249717, 1.800523124842694, 1.596673417634364, -0.42398070536958343], [-0.26874938974916995, 1.7722088923695112, -0.5811774034376587, 0.32983904128291286, 1.5843033255016659, 0.9232197135255884, 0.5780085926960834, 1.0112197406460757, -1.0178580938723703, 0.1034545824830495, -1.2449562774699006, -1.6964013473430248, 1.6271807138665082, 0.24300203146223875, 0.939645979837576, -0.08457436341504287, 0.8186764549621821, 1.715186351629955, -0.5685579718737026, 1.3033654318666619], [1.0863506386200008, 1.1434060952693206, -0.28853267485503853, -1.0943932557988019, -1.1857675889054047, 1.7463403890310953, 1.1474764355549731, 1.1681197678641104, 1.605656331030433, -0.7729392413675384, 1.2877549114133267, 1.213549484391959, 1.5768331690996655, 1.8416939443364937, -0.28862667136358944, 0.3527606745763552, 0.8043848494280765, -0.5270761829599975, -0.08027363943113164, -1.9694591850627852], [-1.0590308825148638, 0.20168900723687155, -0.766073307178222, -1.7027498712021227, 1.150908961540519, 0.012505014563026773, -1.0264061027631013, -0.034462417320657135, 0.19950735502819672, 1.1453420379957122, -0.1853458310903795, 0.5449934182254177, 1.810997270933822, 0.7593940036266003, 0.25950267961625473, -0.9873518402940591, -0.8781135736255106, 1.5627207399079603, -0.05788706994309267, 0.46642519282061956], [-1.863104838293999, 1.1959864602850026, 1.2611279891861669, 1.875872131707601, -0.5766751868371598, 0.5367951378098086, 1.7609835878648417, 0.25938510599733844, -1.529593616160053, 1.1827020375976405, -0.21833080857032705, 0.8553495817233783, -0.13278502891641564, -1.2384182245676056, 1.5438681120860842, 1.413981981944592, -0.40290783698314003, -0.35712016455612483, -1.4027625765131284, -0.8221079638944433], [-1.3815905558094048, -0.754649974635734, -1.9648194982358747, 1.1982440087777446, 1.346184372961985, 0.7046924651316337, -1.7875285408793777, 0.38433960439002934, 1.3088599895687643, -1.989053662967585, 1.9993162375894435, -1.2045651484952948, -1.6684096460618538, -0.4536909781456395, -1.3562480373058787, -0.2167875164163644, 0.455634167266608, -1.6293862039224147, 1.286899494838376, 0.3127724237625933], [1.3635086721920668, -1.5529918104090568, -0.4026862274045171, -0.5690450354888679, 1.714648807534136, 1.6809503359793703, 1.4454012513944265, -0.07298683017866958, 0.04917267118431212, -0.7219554147732863, -0.1068241493439892, -1.741674047559445, 0.3872458574723492, -0.615923924543651, -1.8977689845496726, 0.1184427073087404, 0.1290367442567013, 0.571858748114817, 1.1634494704076213, 0.2710457148607195], [0.36509872948012134, -0.08546163697467657, -0.16938514943697003, -1.8397884438029584, -1.6255083171384874, 0.46798903850752716, -0.06190326230855314, 1.1712531145803453, 1.4843935066373537, 1.4220781250968653, 1.7695674759524356, 1.3293499244780977, -0.04684444323620074, -0.7426709337614921, -0.2419493802269157, 0.24885203902090547, 0.9385671254133112, -1.1625493839776317, 0.3032278928138332, -1.7261261798236265], [-1.312792824581813, -1.302653159178401, 1.9471049365596342, 1.7341247191809073, -0.4176362970069758, 1.3412904307365308, -1.2055540574565904, 0.6159913816181266, 1.979636222083856, 1.4268615050349025, 0.4585478074698148, -1.2282299070682052, -1.1679927045611311, -1.182453835696879, 0.8425658383487167, -0.4128700060548782, -0.7608438793155448, 1.2733129666346263, -0.37807696960996573, -1.126689798771081], [-0.9669167778138061, -1.5151918832175992, -0.285407926709893, 0.48150277596543756, 1.6727888560193898, -1.9206663952565668, 1.1606136294481506, -0.6149604284879939, 1.0940091354897725, -0.23878473147953994, 0.1291430581696389, 1.6668538745556005, -1.2210459684791584, -1.4349106184147953, -1.4046394331599616, -1.9179565749807033, 1.437024962405666, 1.822627418807469, -1.5658059337662862, -1.1898580864219364]], "bias": [[0.6729217132737056, 0.730175414962114, 0.6369776768826092, 0.8485063904091515, 0.09877349260556034, 0.9066301855735307, 0.6251059124470661, 0.7708662785714756, 0.9377081172954264, 0.5215618591073424, 0.2905305367456651, 0.018429988334330627, 0.1818189569243539, 0.6232417144463537, 0.10456871973754567, 0.03298228963478711, 0.45833116808589613, 0.01540383245366872, 0.41753830462346797, 0.8040381936855365]]}, {"weights": [[1.1638549653486292, -1.0222403763527095, 1.1037845910837625, -1.1452163311164396, 1.1529502194540617, -1.668755986176011, -0.9226174232441635], [-1.5138551675295697, -0.2721202660466324, -0.5223141959478457, -1.2113318611669532, -0.7922332884845753, 0.5560101787112632, -1.6234961843807376], [-0.710004476022994, -1.8584589157878444, -1.08299726185759, -0.8993118890125213, -0.5639483069474327, -1.5184020690675775, -1.040056104937868], [1.1699843732929702, 0.12757402455958777, 0.679388209820881, -1.2130443699129079, 0.9798901194587843, 0.607365468073291, 0.5872833575627263], [-0.15973681597870426, -0.5659254994475207, -0.04844338371829604, -0.23606049987113353, 0.9385911261692823, -1.812801799131691, 0.3822278061552038], [1.5596279109468303, 0.466095537549446, 1.606006763010622, -0.2536154140091873, 0.24064099197519218, 1.94565509207774, -1.800246722126286], [-0.7830156625767146, -1.6732619689797192, -1.214051422291178, -0.4661231400992629, -1.8974469557120095, -1.0114419860925934, 0.3930254405921425], [-0.4614311826080817, 0.2836634504516775, 1.621391445732793, 1.622671451130047, 1.3336117707438255, 0.9524518218392304, -1.5897122700155166], [-1.3847657874261885, 1.3365861687435898, -1.3089910421444428, 0.704808248117585, -1.649648398272534, -1.717784967784655, -1.603454120796496], [1.1356033055407542, -0.2621824346662063, -1.4791042241715902, -0.35496793686281647, -0.8545051523800424, 1.966917271485885, 1.4902173044659905], [-1.7206930548938733, 0.8346508609929035, 1.889053695801668, -0.43344587260278145, -0.9907801239351186, -0.2493785990236317, -0.09466692243306785], [-1.0937739418193755, 1.039645266083514, -1.0769043711197188, 1.897514480982477, -0.8370729540919672, -0.3609713515945283, -0.5567252830207092], [-0.4914594037175548, -1.7659818102567306, -1.3522128058488443, 0.46446519236625283, -0.5426414358324925, 0.9700138876380828, -1.66926992106396], [-0.44615777361814146, 1.2395333490377585, 1.0970365928990162, 1.320453735922789, -0.519102058792249, -1.4920029120474125, -1.8321788356759812], [-0.11654450649599957, -1.0152691058414116, 0.7273140885123857, -0.7213487137401495, 0.09133648486807955, 1.3386075254891128, 0.15225768700279563], [0.7094519947324378, -1.6050226833863022, 0.07790458578409876, 0.035624247961532074, -1.024746628782791, -1.6335041158035897, -0.5116862364474009], [-1.473506840541781, -0.6181904695950919, -1.4947516380551273, 0.3862047481119433, -1.0493378117881007, 1.158514026007583, 1.0339300273701966], [-1.840973948702234, -0.013544179557591018, 0.8704827037253966, -0.6083086121321881, 0.850004660655209, 0.49052003342294936, -1.952852420754592], [1.282299115029271, -1.9225983847772068, 0.17654015353654895, -1.1751909152463096, -0.10104667770684816, 1.4709452962800609, 0.016125920318985187], [0.14212530592681727, -0.5125751594105599, 1.0516212468417603, 1.2732566308858253, -0.7127484364738002, -0.07680277949192726, 0.6646759846998878]], "bias": [[0.48740636913304514, 0.3501451173877952, 0.5483931832845156, 0.48931543395930066, 0.41095307927376135, 0.8077255548902553, 0.38582049489528303]]}], "input_length": 17, "output_length": 7, "nb_hidden_layers": 3}}